[{"type":"com.wsr.layers.affine.AffineD1","inputSize":6,"outputSize":200,"rate":0.01,"weight":{"value":[0.4764541590272889,0.44365222816926814,0.08530357597520616,-0.9817011290025452,-0.3500618081354072,-0.7420645138800962,0.13340920948172033,0.4423380905015543,0.8909037149540586,-1.2171391504372728,0.7089053515092846,-0.2920548596079226,-0.03616185422591922,-0.42227094315200125,-0.6247158814776526,-0.25810903949226865,-0.9226869063277018,-0.09005955928421841,0.14546350532147753,-0.986499217099636,0.06847249972785158,-0.9220722972678433,0.14094017646832407,-0.0906954182858878,0.6138161117502595,0.4840479374714409,-1.0684431848465425,-0.8647384494187309,0.09819652697365554,-0.2874916509742005,0.8391525215213365,0.1616489985884707,-0.8641103820633748,0.08289523648320873,-0.8010669930926152,-0.3885069334183728,-0.7492561507027775,0.8162559831850018,-0.3983526479327185,1.4566089619750107,0.7478892809698641,-0.8302099284203961,0.30524206240017643,0.4815660777466165,-0.27884920666410484,-0.038895336554936544,-0.7023272744299112,0.0751027665786159,-0.06822786737361691,-0.13862126532276295,0.5202216300447632,-0.5702058163416077,-0.5559999716907064,-0.24116370381163582,-0.14559861026509624,-0.20712629310620215,0.32546162605286677,0.208430387610946,-0.6502148060671611,0.4651502532430609,-0.6892629589727786,-0.11724684665050389,0.06015992887724894,-1.0198725403140352,0.8359220332356142,-0.6622286666619812,0.5295796223995219,0.23622721894279977,-0.6631014960614069,-0.5550317724081765,0.8880380515638272,-0.34663235758240846,-0.758118277528455,-0.35925497140661206,0.46005472924809343,-0.5461879192732298,0.3103793080814607,-0.03962575699165476,-0.21325472090064093,-0.5727211166905056,-0.43486325216141963,1.056469420160008,0.8104788877890552,-0.06693092777917078,0.5322417149120701,-0.9381170822075771,0.20059657817604928,-0.7693505329072609,-0.1747901356283127,0.4036914840871517,-0.4053303097957747,-0.5315341268320553,-0.8201375749347948,1.0007953944428905,0.17883581545270122,0.8573995495828926,-0.8303563688302409,-0.6690875816237215,-0.6417644764694217,0.07178590305439948,0.48610706906554824,-0.8471392017646572,0.5407849394595272,-0.16734839573364826,-1.005933391092395,0.3504473863633076,-0.968031341141403,0.11213954166090583,-0.10634404736459478,0.4756526815477527,-0.6192618419671855,0.41657231025053926,0.8309919815450969,-0.3022067363288511,-0.06817296826584816,-1.0574391283962656,-0.41899777000166066,-0.08857967080582235,-0.21946645671511608,-0.1989183465309131,0.1902900318335063,0.07996699085311829,0.5597223469836219,-0.3765336870879671,0.7492970126672802,-0.8712969504809358,-1.0703954917165954,0.35106490407341495,-0.49580524914128615,-0.3076867073527413,-0.2809181150451421,-0.4566397451426755,-0.458828600735488,0.7893168902243753,0.7242031006778182,0.04078092012935449,-0.3221971872037975,0.006209389088323611,-0.9458729127630956,0.023468678639018817,-0.8071886602432268,-0.6718886819205394,-0.5346401541058892,0.7515121524489052,-0.96767570766229,0.8981886413371185,-1.0740202779320136,-0.1731682810345774,-0.20804204303155574,-0.29773637238102135,-0.8329672535714991,-0.23089709069688744,0.32927934635650363,0.650557198291257,-0.6445864149449216,0.16174831650682683,-0.6183131901105541,0.24880646214821797,-0.76076027342423,0.2528440594403543,-0.4171688770084004,0.7474888591922028,0.9803288301496133,-0.15220783674247712,-0.6457671977017103,-0.4164581485406383,-0.263301390602182,-0.5924000782610379,-0.35345350774619066,-1.0095207240779678,0.9023433711272976,0.06751425168918856,0.627848385739083,0.07272331525620009,-0.5135615697468636,-1.0165568666995592,-0.34026401889214475,-0.867422935275648,-0.10627767606978142,0.12000122899886137,-0.7540985760729444,0.45660653130758727,-0.23464894237442716,0.5694163338744329,0.5476885921002655,0.441420404844502,-0.9806869571491184,0.8916899973534508,-0.7470245003412008,0.05849173532832576,-0.012126209624966154,-0.4202819372918083,0.548491271532509,0.7571991467970103,0.4462545682842064,-0.29752428102622386,-0.6638891845269892,0.410354979854664,1.010928077287815,-0.7227087589597925,1.2633532716088784,0.5790398150089971,0.6253802940589983,0.9228561667994489,-0.8060131504910972,0.735483082288252,-0.5144262754893257,-0.2717645462646789,0.4050089708750884,0.4540846178469068,-0.29223082680750323,0.10460963272882032,-0.3590700962265023,0.31164453753809584,-0.10622062770459964,0.07782852369311169,-0.10505387001499156,-0.803035988158469,-0.25387974713064926,0.08840702831006284,-0.9261168013042432,0.22520363210786098,-0.2090927775010926,1.0224285093831824,-0.5251890297312317,0.5013917145720737,0.6692231378657649,0.8221093181711365,0.4887059215361742,-1.0125631058170297,0.16302868912161725,0.3261959222150369,0.7939562169737189,-0.5576399351702528,-0.3404801489048401,-0.8994640329523068,-1.0232540454360164,0.20425169931619439,0.18361018962822978,0.816684636965285,-0.5206348160304115,-0.9522870297043025,0.32783142269354626,-0.7948959799558907,-0.4347424252137439,0.23957610339865137,0.9866410067848566,0.08790358870358096,0.3702600964890495,-1.0348498550394525,0.8734812363562566,-0.9881790682660152,-0.11632794762846299,0.2863114437011756,0.25034748603611234,-0.2567079240076601,0.1706038167131486,0.2612013749949766,0.657063177929927,-0.9371726239623036,0.08274313626265421,-0.11034923070918201,-1.351336706434263,0.8266991195841258,0.5760867198431948,0.6212107758232323,-0.1744344606200568,-0.008683491378240569,0.15646688932411745,0.16371901819677653,0.15437816815743677,0.07762668634597768,-0.7084725934632079,-0.47127578328010483,-0.8039022105744986,0.15481036970746534,-0.6844367064036926,-0.5067099865197412,0.5466773373011595,0.6279391618697538,-0.9777767680810947,0.24336887333270146,-0.9817211517189135,0.15581458365128878,-0.5551081887339671,0.2595912369077611,0.859814148817212,-0.3177749172930995,-0.26575438567435067,0.09528182464113259,0.06733475552838061,-0.33367271200510995,0.06154062294648518,-0.5883349521840165,0.5550254974294526,0.5691492713766634,-0.277056104748549,0.2051232495488972,-0.9195983687132999,-0.786988984870263,-0.37333893044148614,0.08951505797520692,1.0188460811962112,-0.34238179473392355,0.18229020270475563,0.7481631852302002,0.031903744727876514,0.1168215376309972,-0.0016883867210596686,0.5921629900508125,-0.3143723720746818,0.08691454468908043,-0.5718918061384334,-0.26016588129802504,0.6609074413224266,0.14575953940060338,0.4889696160793693,0.8265231778003385,-0.6915025900403152,-0.06880262345745684,0.17964388154805486,-0.1761397983470822,-0.9889685212767217,-1.0159470673167177,-0.46552279414312314,0.07639214169059919,-0.2553932782904639,-0.35264608737429787,0.5809389830018458,0.9288727725340166,0.9705634419814985,-0.848739098492136,0.05968987726337162,0.08782135019014907,0.5997448117053433,0.23121229811563582,-0.13907859947861323,-0.9260286066671913,0.1594990504974252,0.3296391804429659,0.5914007683695925,0.18539255941261762,0.6801140963135847,0.7883636413083311,0.6562855615950033,0.6683359491542724,-0.22130187466875917,0.09719748129387304,0.1524955576761941,0.4088587639262614,-0.6168107724927221,0.620639360488017,-0.13638259424409557,0.5004781315727364,-0.701775587908686,0.8317707266763281,-0.06784238896937005,-0.18868811628687301,-0.617450049734342,0.2930454478489918,0.41475140896885254,-0.24840742822913597,-0.6955688180090639,0.6813909815828051,0.7231725286879029,0.7851613450242289,1.0295123370137915,-0.9944844045175183,-0.7811903655565368,-0.4700734438981237,-0.7123204889876498,-0.4547122468051068,-0.8512254809197167,0.7063752373254837,-0.11211019264523617,-0.654698238132663,0.3956994761148715,0.01649626723068543,0.27083724201182047,0.235827899136904,-0.7191440752875535,-0.4141742807537465,-0.7623934757544745,-0.44928260836004535,0.21909670582544175,-0.4776776167375257,-0.4215044608344057,0.03673992562630243,0.24669980543906486,-0.734023213447577,-0.7708081479595107,-0.9577364155178338,-0.06380081040079139,0.6559984256955556,0.09942394076634015,0.5845280131589478,-0.7363825471581142,0.8703310888624002,0.852179435264812,-0.6027493659347851,1.0228250869106605,0.7100914622280992,-0.08137891116366856,-0.9200175620429454,-0.10122597787517518,-0.6385910775617046,-0.08907115472624125,0.7339041088461746,0.5569621464288057,-0.9764247732041937,0.1659252118190886,-0.3387962646430986,-0.11327492151169283,-0.5183586202904154,0.29447006705965245,-0.9304213710954427,0.7175727088347394,0.07914798607977762,0.30637983727077717,0.7078543291407589,0.7148063569554864,-0.9656322995922266,-0.7567165655668977,-0.7699238022586004,-0.4355325817383088,0.20456479798828195,-0.8645838644558934,-0.8127963846946828,-0.9306926674827093,0.08657304417547053,0.9021657267838452,0.4735659602305636,0.3062740656632674,-0.1370737099520436,-0.33657888111293577,0.051026475252569856,-0.6195823420953345,0.4282406575936611,0.5162711230709764,-0.4765535325725542,0.4391190346929353,0.41288688112873784,-0.9474714189084527,0.3007761907514027,0.8009713882269384,-0.39050492500247813,-0.42928778622422076,0.3544191769126287,0.900189252871013,0.3583419731139389,-0.10141095607520129,0.8047435476649237,0.02174196779881249,-0.08100224238048746,-0.32941044511982254,0.5298421067232387,-0.824384239591222,0.24802320770979527,-0.33628572171107574,0.25776927143151324,-0.3930955099561081,-0.7874451671593752,0.48348169513509154,-0.6343286444833862,-0.21412443609782805,0.08734283955606952,0.06212088837624401,-0.5153980808353924,0.01267324195600033,0.32892243487800316,0.06382043137298722,-0.022863443951746942,0.4108269768494164,0.6087260177467609,0.4814237490781618,0.5447708457513531,0.1998968447133315,0.7067202442113694,0.2527682686685793,-0.08974080593464367,0.023055898659076757,-0.5231819334811382,0.07900929902361678,-0.34666280732046223,0.22691847051405029,0.20108386396211986,0.16083154908552183,-0.4555466679700475,0.6222636409431371,-0.2416558061510668,-0.6833972950346323,0.09561046824118447,0.06638933479254172,-0.11848042057093687,-0.12753381873697375,0.400563772031467,-0.765367348758827,0.14457089658304167,0.8813668525997149,0.6739536116034623,0.22995782018225194,-0.1244549008781683,1.0671491086460525,-0.22472689088989942,-0.7792600960911941,-0.3756471242339956,0.4526092979861785,-0.38430697856913665,-0.08218436756608871,-0.7704168073445087,-0.36818332819600275,-0.07050177896319161,0.8546186851145668,0.7610935764486538,-0.8280536122744032,-0.4534007117898441,0.039362267702992726,-0.9458233671942382,-1.018097462405851,0.456695430755602,0.6040474079476676,-0.8781733993915737,0.4760150951343926,-0.9895669748776919,-0.3948250338654142,-0.06981623513201027,-1.0157615805180993,-0.6466469254488896,-0.03192313425826897,-0.7834440251640334,0.348561185640908,-0.03183687041065893,-0.13557418370557045,-0.17340566322906667,-0.669338134105737,0.1887817269252946,0.49496024929155624,0.08529275567654813,0.6284831113760398,0.4923805627573351,0.7793087071756715,0.5366144849312843,0.8769016311076412,-0.6885834454328883,0.7547235392513504,-0.7763520964116561,0.1457968450773491,0.34368337942922855,0.8604260711230753,-0.6832791348426718,0.040872743190343286,-0.5025724252936314,-0.055222719578121096,-0.7179568974966817,-0.2359370775643128,0.09132012419746374,0.6644819699131086,0.5877013804919412,-0.44516983141063265,-0.9685782195687489,0.85279702749341,-0.927203883533333,-0.07717954264096767,0.03771816194860239,0.0688283182457139,0.44138149837459856,0.7513600175846681,0.08480584647840206,-0.32293394255145225,-0.6514663202388116,-0.665065454717342,0.1299951710773801,0.8568196143435769,-0.618709244518166,0.3406283801421478,-0.24963046695137125,-0.37329625403292993,-0.7999565066062975,-0.2675049311600348,0.41894263659499154,0.10405796078030516,-0.31004711699633497,-0.7196282063263455,-0.1852393735191049,-0.34736631092915143,-0.044183785545141775,-0.8019215656196383,-0.2833763708528508,-0.2524738603025609,0.8228404876437043,0.5978709789532729,0.9491757095043102,-0.785871330300977,-0.28098552368764057,0.08750358414553105,0.6220253090511965,-0.5077274545701491,0.2838582890136859,-0.4464833654434163,0.1243533465169476,-0.5924354054853789,-0.6301896991899747,-0.8353335111529363,-0.1380857465133922,-0.4066919027935363,0.595470590020192,-0.017455927851835088,-0.29936497822529495,0.24646774739251412,0.6745432353676596,-0.8637170363244526,0.46294225314306686,-0.28652287663988085,-0.4565221689509083,0.3427434170103231,0.8425439276388607,0.8084309338154245,-0.8111122490956675,-0.7111534310423416,-0.6917663879476021,-0.29446618739343766,-0.018266119113867413,-0.2663939790049757,-0.41863703840653593,-0.55351907926861,-0.8803584391111449,-1.1391421992524846,0.6594626868733712,0.25442664043608015,0.05754241234920709,0.18278636161253803,-1.4150942837060998,-0.6470078550136095,-0.9177473370131142,0.45776676553603973,-0.18035710563948323,0.29759727166571076,-0.3109698251847416,0.029178853013845103,0.9734691331633436,-0.36032846631081283,-0.5214539221386771,-1.0613276857677492,0.7394514055490012,-0.8403280814288295,0.9230291621539705,-0.677913303838748,-0.44380990200062304,-0.9853598772464333,0.6015395481248087,0.8506303901000587,0.39911520724956956,0.5867856769339775,-0.609842317922735,-0.2308819716234793,0.07715972195044188,0.17990822793934838,-0.6809985057429913,-0.6534475530759617,-0.35118140362532335,0.04115250477944738,0.014066450746001768,0.45427077532887683,0.3898259845696962,0.5647144143538606,-0.8515531053204338,0.31455309590208275,-0.7175258916081656,-0.5501359963488448,0.28294050438925245,0.27370086380620484,0.05277997373772477,-0.7457522195481556,-1.029549444749989,0.5921959240416047,-0.8362081599147405,-0.11036675793803778,-0.5115821281084965,-0.31936432016152916,-0.3528145737463982,-0.4059358604492381,0.49511825134815135,0.30111576514163874,-0.43248051069969223,0.603568894938071,-0.44024986748251455,-0.49034595768308004,-0.014359190591733724,0.3706644952918038,0.7326939934084676,0.3161977128411188,-0.07091442545049942,-0.45073010345234293,1.0838199809212068,0.9825000807597661,0.9698579075643741,0.023384851959450788,-0.5290898740542613,0.1293631630266107,-0.11165912746531471,0.8490100759159654,0.07356920061878568,0.40318462874132693,0.35901141539581266,0.5122462108449867,0.5688037160692347,-0.12293287349757935,-0.3797932822476333,-0.2563867167425202,0.6804065760043213,-1.4732090628341146,-0.818735288522342,0.37421719044309937,-0.9090725853327378,-0.8418530140296434,0.4659200942005362,0.04224584701590347,-0.7259704312642857,0.702804597244521,0.041831313194816575,0.5570242291640802,0.28130373143557735,0.7550621019686127,0.0883746540023521,-0.5798265976720849,0.6790737132960533,0.4421759942200509,-0.35963250945609887,0.6396509716432048,-0.6717821812849178,0.5590398938660066,0.7687772803612034,0.49102048257042175,-1.1384994202442074,-0.3472076289645714,-0.14401001389610626,-0.3267401300630121,0.2633093197269146,-0.769031913926888,0.366233719464629,-0.2532718557170083,-0.9008457282999314,0.49371650902801034,-0.05474422949132802,-1.0779265590006781,-0.6945593103684135,0.2891951325947285,0.37340136617801023,-0.24739054966335572,0.3692102449300992,0.2675430236890514,-0.08783685713570769,0.2880083584859855,-1.007480927693142,-0.8769723187645013,0.20218342117158536,0.1183408042372086,0.7749800881832242,0.4911876231520735,0.30482649092769665,-0.587922864923293,0.5658753331981033,0.3040221683513452,0.7868209197127413,0.712518776855002,0.5135683435610471,0.5449022614289669,-0.7529446161298827,-0.14706916765519323,0.20410693696859616,-0.9003471519212374,-0.3127991846351062,-0.8759879471356956,0.0336726004056059,-0.25022968284678004,0.6902476788646963,-0.06600984885717859,0.07270429708774863,0.2865043321379971,-0.38556079673363186,-0.5927796352108541,0.9605276348132977,-0.8543047400730128,0.5102077054938821,0.0025100542991228257,-0.7078957861228037,-0.2150451162054396,1.1603070601793881,-0.3569593593861925,-0.9819752536673841,-0.4747068163640913,0.40841563179449736,-0.030747479128439812,-0.3149405907884298,0.3676417023826445,-0.4610326565999387,-0.23845026661042112,-0.08587139981239447,-0.3424974443882238,-0.6006040065543884,-0.15063226861268267,-0.9344594939140227,-1.1102905469979396,-0.24268941704930752,0.005111485569995633,0.09988920084877029,0.4258620228127451,-0.2574859481164138,0.9577320041730528,0.068677866269041,0.17562261169284285,-0.582435192681656,-0.29934930908870383,-0.0186741482337185,-0.5597726656341289,0.6570105457578757,0.09810583667317882,0.8016647818131685,0.1325696980464061,0.017551657832872988,-0.6279994567886348,-0.15018437194664566,0.45211417056599024,0.9656271705596435,-1.012748008891489,-0.5154739298843422,0.45617252225387706,-0.8426649025846603,-0.5086727079039506,0.235159306417833,0.6977390694671225,-0.190811821680411,0.3800870254842017,-0.9117686379347918,0.26670169651896825,0.4316149034657437,0.15945987345700846,0.9952845651052109,-0.21357625022172572,0.9976131816002608,-0.8584997294783503,-0.31048509546475245,-0.08442980058988105,-0.5967234232617394,-0.26295011790686634,-1.08388791053312,-0.7339207218290875,-0.13936015992585055,0.3735426742686252,0.21476168861258735,0.11233570799462611,-0.932643188753012,-0.8944445764828657,-0.10442315244224322,-0.6202990614772733,-0.09212523653676395,0.7007784173767875,0.7019595223664845,0.5068975899499175,-0.21935535015059612,0.38706660364527995,-0.5003707537834547,-0.11366391539153485,-0.4269633346419144,0.0020069416855348814,0.18172839995283485,-0.17280363415995167,0.03352757960087074,-0.4221160435423357,0.1557386221518847,0.5804394392529867,0.3190936793515825,-0.35820109687558244,0.42048650244377345,0.5597431642053736,0.662375854654958,0.421994542031683,-0.18527602382593406,-0.3981604832298971,0.5817982737679569,0.14916780561269963,0.4550160686815749,0.22107423321648845,-0.09375591791616798,-0.9744569216704068,-1.0017459291585586,-0.20722263309593075,0.028318560403434574,-0.8978260355885391,-0.48155686759418037,0.4105798965787124,-0.6486986683988545,-0.12004297154295686,-0.7208810620602676,-0.5988776064989783,0.08048006678502691,0.9215144813784353,-0.627866086913929,0.07027629582526952,-0.526797109682381,-1.048319177534423,-0.20079882220528592,0.3958517833980109,-0.7551892612145003,-0.8429489232813642,-0.23966933942437488,0.01411215662195981,-1.0582275311778844,-0.24988285253320727,1.234445517901047,0.08963190650536546,-0.6232542922580293,0.28111531949648816,0.7723354249395901,-0.6698796034956362,0.31636576215030365,0.8861847498310494,0.5930933097210562,-0.13248389078958053,-0.2615325991465962,-1.1657990724016976,-0.941907964608428,-0.9254421406486978,-0.3457092503255839,-0.9239463870970257,-0.24000829206587587,0.5817036975866947,-0.8143265807731991,-0.825467652724271,-0.13942640167657835,-0.49130428572633966,0.1572665840363971,-0.7242297960840692,-0.06560667656815794,-0.9549228021950599,-0.1775442347703919,0.03230552170959157,0.7384386192000928,-0.35573347137171835,-0.1532448406806459,0.2323320230944998,-0.9107308181184663,-0.4913821676347769,0.3741548299919529,0.39063087562186805,-0.8176702666450761,0.10051493000225946,1.1702575744262724,-0.25220550484968357,-0.1703794211896849,-0.17450693680941382,0.4437423890535411,0.49980615130769585,-0.985616563340504,-0.8551460668442594,0.7069912941217468,1.0012881639876123,1.3749700749649316,0.29580415290478584,-0.49437038792373295,0.29859352644948034,0.06980943287922951,-0.5633611093646904,-0.9012515252821247,0.6690058836731612,0.9964016433920955,0.16459285089759224,-0.3485483853590683,0.7600561307354112,-0.5679195736243694,0.8251445584665492,0.2745135741147747,0.7864542860116587,-0.34241550790786673,0.10136630487830807,0.7536879276808538,-0.1502360641846484,0.11364204578623269,-0.7451494481591479,0.8420392486490914,0.023240402997398935,-0.9607436224287924,-0.18945370069826062,0.0189496101771525,0.016897997612391087,0.6169648674357591,0.4872282262199739,-0.08676501440047465,0.38523631177946543,-0.9663632339797259,0.12663331028709837,-0.9733155800451053,-1.24340991778208,-0.5637075218368162,-1.212164655658404,-0.45416320286575684,-0.9097493034048358,0.5875311140135909,-0.8200066115726412,0.7420582441136043,-0.4261108495820467,0.03559918270785573,0.4781979810282893,-0.1985157449923409,-0.3746596293245099,-0.6867461509243217,-0.26759590009342343,1.1023727323685886,-0.7661431032752707,-0.20866637013277622,-0.11180565020287514,-0.2848354942468782,-0.6686988171654218,0.9081603617102293,0.41228080296043906,-0.7649446139510251,0.0991579836383666,0.05445628666919675,0.03983524826196043,0.7577131225161376,-0.16894308758270515,0.622813717258001,0.29893938423437866,-0.9215141221926163,0.7697434805733196,-0.8246005093865529,0.6491988293388384,-0.13504815634246348,-0.9461998207182006,-0.03722110103348832,-0.7590516788265653,0.3326516863184901,-0.6802442116647498,-0.6577869365288433,-0.26536901278225145,0.0735689529770773,0.44733867203909206,0.07514940576253888,-0.5924513548632694,-0.6933562040138,0.03745494584065599,0.05531943247695059,-0.4723710225223093,-0.35798410006558673,0.19559023047089963,0.03914565530833466,-0.45589025225058305,-0.2509309767579512,0.5211685530393713,0.8374156282476888,-0.25955629967257576,0.19552004605600412,0.8543899422545683,0.1581461084087796,-0.046317913928614896,-0.8536499608741299,-0.44308538525184993,-0.03375992147764465,-0.3841025422981107,-0.05593431100528331,-0.2801824630135264,-0.4640726496772276,0.07054087209021391,-0.9217867100755377,-0.28339490420236313,-0.27692173721532404,-0.68149338214167,0.9352045167795414,-0.5926625041011815,0.5909818566091815,0.03452437118565362,0.14753646315381974,-0.13922665440490056,-0.40355276309496113,0.3993731242597829,0.5917362902142637,-0.5812045509073703,0.5279274574419625,-0.28014503504484334,-0.93484752976518,-0.7220994612281415,-0.20079804956400377,0.10196940639793538,0.7068333904381116,-0.5388820433368561,0.46800786782478815,-0.9146047392239909,0.868250324545114,-0.2608623336680708,-0.1705565259814082,-0.8864893081204616,-0.9654523508523318,0.55475725525231,0.7728228853347885,-0.3328112549297678,0.020403738954773393,-0.3432613920632217,0.47969244316360987,0.7298735584455032,0.13152040553138167,-0.6842284900978078,-0.8872891660839572,-0.0127667811156351,0.32983640600282593,-0.3114963191502882,0.3312372724029139,-0.9389412997817679,-0.24934273046145677,0.4836136957806413,-0.5580931742753407,0.144475730880385,0.6732548142458056,0.8789496962090295,-0.9600446687269779,-0.15938101716770176,0.45209987215107966,-0.5850419701549154,0.24391146018218512,0.4222610171808896,-0.11496638312825258,-0.18343370482230875,0.5273440580061948,0.3961514591543927,0.8766153825463471,-0.43343397013698126,0.3211827058068068,0.701124954648385,0.6847565845473222,0.9592741111838906,0.05946506149673569,0.46717553858966154,-0.9811370611564356,-0.5963676516396306,0.14832252877219904,-0.13638665068099043,-0.40950878398546753,-0.3477642529477771,-0.8308500339737283,-0.16129412765825224,-0.8700297443721577,-0.2616906797605536,0.5993721012511524,0.26825624065679415,0.7181915166319629,0.5433231801805455,-0.3328418016885161,-0.5397960269687392,-0.9074344404464793,-0.9318421865726718,0.23613895821475464,0.6719604385693422,-0.4001572645495251,-0.6896570687889566,-0.18558865612678646,0.26597800840670316,-0.3496438564394187,-0.38962799823280947,-0.5724591278994252,0.4131370954968133,0.3333817173701276,-0.8868620936112789,-0.883646628327285,-0.4690266169857031,0.8816406563287152,-0.877450391039559,0.32780028926484706,0.953769334952903,-0.25548212723210995,0.7447622760711066,0.6326212919448566,0.31478849214789506,0.6970618716517375,-0.47286002216863066,-0.26295636336285505,0.5877904649253215,-0.1354419391897038,-0.5731698013491123,0.15343776969419184,0.8662980001991423,-0.18777315025344143,-0.7094454002206028,0.2756958825354848,0.836004351986076,0.8101027406899709,-0.6792025417671304,-0.26283444005802475,-0.7391266944758699,0.8797452376871682,-0.8532691156463694,0.7678656611557299,-0.494015341406232,-0.9463487654314982,0.4937604350568956,0.21840134162779326,0.510679758145382,-0.6159929721592307,0.8124092463507326,-0.2774753832461171,-0.4779399922926856,-0.7438981311907511],"shape":[6,200]}},{"type":"com.wsr.layers.bias.BiasD1","outputSize":200,"rate":0.01,"weight":{"value":[-0.8952403161880595,0.38882121441133466,0.5692348505714842,-0.40145798364896745,-0.4509109857403184,-0.5508852319566478,0.08474197419774837,0.17235687677980918,-0.962077941956816,0.13960607666898456,0.10888735763348095,0.8994962891031592,-0.9341008552676411,0.9117802714686104,-0.2781715372657673,0.8092943343456879,0.2886424547810737,-0.1343787313770942,-0.8522211172017675,0.6302373691229869,0.1587192413845194,0.029071344092677198,0.5748797604672607,-0.5525728648303988,-0.6092830017419862,-1.015819776610975,-0.8903853068083398,-0.8728427907964962,0.8975386221711223,-0.3963869903169854,0.7998570110630948,0.8754255943582936,0.14153015325225302,-0.8551966039341812,0.6885840601541684,0.9631367026072728,-0.24976406782367122,0.36722506722828874,0.9521682226172732,1.089129091594059,0.23077826532594797,-0.5837520296715923,-0.6071344046235092,-0.8186608759839676,-0.9087777472389184,-0.5499985112789744,-0.9497089300569286,-0.3069308407612983,-0.907680545279134,-0.5014957799983382,0.6640334718368803,0.1161437086620484,-0.8355224048699607,0.7999987621963062,0.6578218376801057,-0.7079163909706575,-0.05238127021057241,-0.29889316824277995,0.5413134275879596,0.7083354730051553,0.7864895109852216,-0.600384264864035,0.5420881304921245,-0.5238118687387856,1.0411703245720196,-0.010192024109691755,-0.457185270263201,-0.8722866833115909,0.7862625081284217,-0.8963392745196774,-0.016813231562834294,0.571589610358356,-0.3312849765142081,0.6189892781603293,0.04904456908027179,0.8223771216752788,-0.8515285003310655,-0.1576297904072679,-1.0402553683820224,0.7037977206260491,0.912627598254779,-0.5349752651631529,0.07974471840124683,0.6213000499043024,-0.6551131328252946,-0.057374308332677856,0.9390481695988029,0.8747124604995538,0.11731286589678233,0.5586408382024776,-0.5810300863536743,0.7113951595245183,-0.7803210337269549,0.7474371704020621,0.38285984328721284,-0.3791808407552899,-0.21811813677583133,-0.8077005593002883,-0.6282194122550159,-0.38595541124929766,0.14415664901189518,0.9217224677554079,0.7505816784710867,-0.8684367377195372,0.6226977945536888,0.7409303226972476,-0.21198380682831533,0.4829682668510747,-9.61654065075067E-4,0.750053066101124,0.7664955372496125,-0.763409768653784,-0.8847797029404776,-0.7655030352564611,0.49375495832967686,0.6041621967227201,-0.7680064865082786,-0.3499198930920047,0.17823840360277346,0.36620680132189576,0.4351856503150445,-0.41836498305459596,-0.21540847554496603,-0.04707963285454274,0.47499544656368586,-0.9721606095216966,0.4314644080804681,-0.15791855047066483,-0.9200445098011221,0.8478759695521885,-0.025889951480251545,-0.9214053998577171,0.640827530278109,0.18720483706155586,-0.8044041782656232,-1.0251339855814405,0.4870076099586831,-0.8767727123971688,-0.6847812284683673,-0.2762277721263589,0.3247223853546688,0.4637251300130672,-0.9912933378376405,-0.505394997684394,0.7004165943265264,0.03282811636211074,-1.0287060782580792,-0.850203575197238,-0.1828527655107238,0.43305721235089156,-0.8212921494001915,-0.7775119912384783,-0.5018904517996384,-0.4461677339015629,0.3732452836104798,-0.5298773732820656,-0.7618982178371152,-0.09365208076437702,0.8868275960894175,-0.0070568525718694005,-0.10860848323266052,0.22798832677784472,0.8087526578533064,0.6222639444028856,0.20103922932296156,-0.8032963666774277,-0.05564177120004605,-0.8654949404472183,-0.5920131422439773,-1.0147205796648995,0.9608915816455337,-0.8867211051310139,0.5603537085026876,0.18193681709839127,-0.10636060174392643,-0.4808968497673285,-0.11340343625449269,-0.5398202715978456,-0.3175604473916,0.25276100764882736,0.5272902552344203,-0.7270398727006548,-0.31228062670470086,-0.0697600606107497,0.35666103305883756,-0.7536822093514869,-0.3945404710468885,0.7259573352686174,-0.19620299845105132,0.10639197282934362,0.7434632698475474,0.6999904482300982,0.7689767136868947,-0.9316776698857593,-0.7662299552949935,-0.8544296899728226,0.6454673083082781,0.7988281905891488,-0.2812126723110191,0.5847314706432623]}},{"type":"com.wsr.layers.function.relu.ReluD1","outputSize":200},{"type":"com.wsr.layers.affine.AffineD1","inputSize":200,"outputSize":50,"rate":0.01,"weight":{"value":[-0.7988920115216983,0.9566284511041535,0.3911944479533764,-0.27245162426451813,-0.3151803622596069,0.3426677392248376,-0.04828359860360197,-0.8504982557018742,-0.8373351363413639,-0.3304176608962603,0.4925780604527675,-0.16967905649166032,-0.5263963899052164,0.516944598470292,0.13007318309516927,-0.7786549787743362,-0.3995286391256385,-0.8094103926478297,-0.713239049512828,-0.3976999074941408,-0.37696230137191833,0.07835676124357559,0.5383017964167359,0.4117794046242369,-0.9268539597800146,-0.7659583157122127,-0.454013620226403,0.0644255947910532,-0.8886720421184968,0.16203124578467448,-0.5597227925375151,0.5025283249154203,0.2555597884588477,0.7944175218857997,-0.8361550889035972,-0.0968207676813091,-1.0192904262292413,-0.7334547721364549,0.08946978621242531,-0.6539890617319817,-0.18016437852393866,-0.4971671032555187,-0.8121409007195928,0.49725276149402176,-0.15319123406105956,-0.9411777097620229,0.25231047726194794,0.5385245804424819,-0.3058285900936954,0.6578460767066663,0.4876000909415963,0.47646197276995006,0.22971116733428087,-0.8482638596066576,-0.8466101589854081,-0.8616951988028719,-0.902093445987121,0.6465761146124704,-0.32037095778964825,-0.25835803544903774,0.9015299547141948,0.08236572460273663,-0.1700525793622174,0.939957703555804,0.6516647137764076,0.38427672933950696,-0.5969778592800707,0.7276196412199263,-0.28789765090537656,-0.7023859322538225,0.46897419575670224,0.1924125005614471,-0.9370172100273881,-0.5983936392376583,-0.7638916177630374,0.3706992870563033,-0.32208102068728,-0.530713460635915,0.2345633428855299,0.043308512734994725,0.39933384339995465,0.09295886109206682,-0.2864601192664355,0.11235801326722766,0.06594963410752805,0.016524729774087143,0.9465952959719306,-0.28375542465312004,0.07247193774316109,-0.5144013310592668,-0.004649569475978544,0.2715133626950607,-0.763538812945782,0.671071406685201,-0.9999409029369227,0.9307329623614418,0.7254814982710512,-0.19328121241105833,-0.6168082795102896,-0.389640044032798,-0.144580572328324,0.6453666207550778,0.412729997490048,-0.7511582938221435,0.8518159209176692,0.7100990517470831,0.14562501836112077,-0.18138513731866993,0.16568864869829517,0.7112706348508776,-0.747017262598417,0.8087236150932211,-0.6967030506558194,-0.011137215951106859,0.06745248319940766,0.058838553520401855,-0.47163552155291,0.09220834057208283,0.10894576025726221,-0.12606759908337906,0.9723315835989618,0.6092293475630634,-0.5967437556416764,0.9812959482370085,0.0938789826823475,0.20082034581050567,-0.928153507292541,0.6798186083978296,-0.16904959226573504,-0.9232043700423906,0.07464525925584155,-0.9930057780077359,-0.5956031896030329,0.6907195220239409,-0.5006615060799482,0.876874923082495,0.0673343149913895,0.7476767281759641,0.3045433071210711,0.14529116964002498,-0.9537236487055225,0.7538582599337414,0.019927144461708367,0.3839211615347671,-0.2932754603342442,0.5720709796763475,0.21252171421790594,-0.3175752736955806,-0.9603292755501387,-0.5942094564520725,-0.5575220018747442,0.8499278600703315,-0.11313772451557158,0.2541692069679762,0.5344409995409796,-0.5590592148496327,-0.7493798415164132,0.4873408971695643,0.9293428601132395,0.9286719412274722,0.036378403155636896,-0.6189849903088713,-0.9102260390750765,0.5866924482983953,0.9343866043672395,-0.7049860550008619,-0.6399750672180171,0.6410752961943809,0.6085257450867787,-0.1286125252151329,-0.6108764075581192,-0.9028158961500174,0.04786796799676485,0.14763646803793762,0.05228080383046345,0.7391861432791027,0.7228046164035049,-0.913971823538106,-0.3187153296612759,-0.21766593601585127,0.43964349233253563,-0.3312038144462215,-0.40150048967744945,-0.8412181470436653,-0.8694944171571488,0.9633172503399396,-0.5995722985709214,0.8552524370394885,0.41705831908874946,-0.6697099959506592,-0.7468287723885833,-0.43799350406023785,0.6819741719666588,0.5934473914966053,-0.9762027275548351,-0.5486441124692627,0.5602838713337143,-0.9530052732320877,-0.25586567658544473,-0.8717662638330421,0.8698454587536306,-0.8678293030002655,-0.00322051448848093,-0.03845877174308976,0.1681224479433321,-0.02806984126680967,-0.9401808249009007,-0.8570665572457057,-0.2798800291862218,0.025337315453852982,0.5814698277064123,-0.36313658225564427,-0.8184368164651312,0.8403015214236202,-0.29469801991816125,0.7319491412869725,0.9783463242288544,-0.2001572694875582,-0.27522414294153186,0.5176054319930774,0.5305381059016332,0.9857533789540134,-0.06919769275875187,0.5869492402534655,-0.8014136580582449,-0.20215873853052013,-0.2641886296010716,-0.8736441232880756,-0.28013379322557186,-0.7050077518592424,0.12211156826995051,-0.4118810796315844,-0.9660517339490406,0.6885475476938869,-0.592350277651368,-0.8402079308185706,0.3919754319670967,0.2386938474878435,-0.4336079697844475,0.5300422997617005,-0.23421377531987542,-0.38904794343749005,-0.9405150501760564,0.020711209178353007,-0.5256712052555641,0.6515374707124717,-0.035046471347047525,-0.09929657699213279,0.1690758215151389,-0.7858885257033703,-0.8108209310627459,-0.8402593447668194,0.9234197646694107,0.9441094432570268,0.46835625909851775,-0.11759069094981124,0.2529405869739268,0.49130940447301275,0.2622969212782547,-0.43901287731950384,-0.7298378384065745,0.25648146325845783,-0.6719253017801727,-0.9018807401402313,0.5910060731895788,-0.24812292812139972,0.6174796601320083,0.7941885214033668,0.25502536294660044,0.13035201387418108,-0.13029881452955516,0.04754767870960121,-0.9215284806639118,-0.5702123137759982,0.556163828653637,0.986549196218308,-0.31286807909386033,-0.6892001197712861,-0.29986486897556647,0.7879538164956044,-0.5872214165218347,-0.48957556455457596,-0.4424440516477162,-0.1471883783076402,-0.6510688783454579,-0.9982922092612856,0.014502910402907795,-0.6464687282584882,0.19685591545641404,0.42908933979960473,-0.5677429605175365,-0.10748469687515622,-0.07744535069886499,-0.12890636114405632,0.3009784186266928,-0.3398402470717412,0.22732215040573067,0.44546511378147136,0.735424803107111,0.3059777780205185,0.17643791452972318,0.9332482704249225,-0.2925380489473145,0.8636015215647451,0.37173312604205105,0.2571710019622333,-0.5061378635107083,-0.7693464000456725,-0.19194587242473155,0.8152028621185821,0.6313092927572003,-0.12766040241065182,-0.3834902306973129,-0.606353657201752,0.015695768568251937,0.15309106479744403,0.7143468255917824,0.4883450646718737,0.5662067068048686,0.6893007158796494,0.8185497472198632,0.8174005628353531,0.6546273995434568,-0.8079846187007518,0.6048535214178657,-0.2028737774274973,-0.9120830493085836,0.6773334402289234,0.08042998986104898,0.5052670800664618,0.5027455249157277,0.8137863158605085,0.21864524406557082,-0.7577030475155425,0.0493394206605842,0.8274598172668726,0.4911387186717553,-0.676215318940883,-0.4326989199081819,-0.7520797391358108,-0.5053904622007644,0.7267190750297604,0.6549782411659776,-0.6384060421051496,-0.032773590178071424,-0.6760188402252147,0.05493721768757892,-0.4777522824270276,-0.8149969569879605,-0.9287121550649844,0.1481332041577408,0.18268209045595774,-0.411523845939421,0.12879732539220692,-0.6918730958144191,-0.3473548191863329,-0.1761689226590956,0.3635169700041371,-0.9292895830613274,0.9401284294926646,-0.6772906058566439,-0.12737096989934105,-0.47386744991457364,-0.8549938719646282,0.8665434066413125,0.48661419949034596,-0.06777081575483061,-0.6793905703767438,-0.9725760565590051,0.45807457068509366,0.21249079675668392,0.4591221247854586,-0.47331493676653524,-0.2229581401366183,-0.6971438775451368,-0.25217921915685393,-0.7454360518647336,-0.8531686147185076,-0.7933697327932548,0.9813528408655758,-0.42397891110906827,-0.3846936024529985,0.42734906036001924,0.22054900389841167,0.7326491176170891,-0.7689729808648555,0.9609854248827802,-0.5654200450792127,-0.1741759399637661,0.7923886299999203,0.7824405669987458,-0.5472028188610202,0.8809627271154159,-0.6342287536628247,-0.6062061187958819,-0.8664580336766641,-0.831156602390291,0.197954675013487,0.6489160669760232,0.697971622880184,0.026240954509521727,0.3336553401566724,0.8275438541503757,-0.39144823670779244,-0.7216114252369512,-0.975461206444947,0.18518143605304624,0.0444011094757973,-0.7770462419283698,0.5655774786294165,-0.819198335500869,-1.1150352397316556,-0.6174263578107124,-0.1645031128682694,-0.23404718119518056,0.587903848056045,0.682562947415214,-0.18336123254827408,-0.16145398128827396,0.1054300207872178,-0.013540853755993704,-0.057171787563965494,0.12155719256055017,0.8794276743352927,0.1791034986119635,-0.4898853837190832,-0.6739460331821516,-0.16935601216595053,0.3688518868132864,0.4673024648654186,-0.7978111285622823,0.7728251197574304,-1.1179091838482333,-0.7607912237209258,0.35759007787569447,-0.8868023025207147,0.6153143711415167,-0.800702921527596,-0.5655436172095838,-0.7429695139250462,-1.0034267904960992,0.7255444671750939,0.7418538562379039,0.5013863833325122,-0.21382315972466437,-1.1395431970712224,-0.6733162076918069,0.7099194632905245,0.09289377821989268,-1.0039899209153986,-0.2950465468603845,-1.0213551333156168,-0.38602934649856985,-0.7440934594257788,0.3466754120813628,-0.90195924921803,0.7322882733724719,-0.5325347222886095,0.20711082817042234,0.25130451157463257,0.005105389895948553,-0.8577867592371913,-0.7576178682088157,-0.33586196438303983,-0.10714282172101819,-0.6070831659914531,0.03989451548397154,0.20057036476479873,0.5034482512621701,-0.9011110079097966,0.8768440757860378,0.6012487366423334,-0.4869109667976028,-0.36899104627787493,0.4327206943762532,0.3910001233671755,-0.9325134931164178,0.37670730358346516,-0.08125648667072333,0.4085520400345008,-0.3204995893533492,0.6224746066320729,-0.03077264042324748,-0.4700558472967688,-0.9932337982929726,-0.04396280654650943,0.6141429418500812,-0.5234225880668723,0.02815702923884234,0.9514288409679115,-0.9386869533404957,-0.6892076777852041,-0.5308626134211923,0.12794678980001356,0.416190874622363,0.6753770612722274,-0.6826697036480202,-0.6183760123410982,0.026975931301343705,0.6074673327799842,-0.28241584758496985,-0.17693655394123273,0.7892914332487256,0.7128888323672492,-0.38952167378953967,0.2035884735069727,-0.3821445681189229,-0.8082165446369185,0.3337550113658386,-0.21141070927723188,0.900177346839007,-0.050191184684526734,-0.004791567769284466,0.8048508726374556,0.14288370355037838,0.061002682027627396,0.023525962315188196,-0.17980250144970455,0.9545885893400166,0.7228262663626899,0.001958544521999972,-0.30493839934571476,0.5596747930176922,0.602234283710106,-0.9886488005859198,-0.036994211951896894,-0.8075185167492792,0.0856835108494474,0.6329645347933867,0.5946913268810716,-0.5868897533042684,-0.13655122496351016,0.5640616379778081,-0.4663101681213757,0.4347428887357182,0.5741531440377354,-0.5762229702980819,-0.46335554519527317,0.4500582609492186,0.7527815010376429,0.02558773710212579,0.5888533222283912,-0.40512918573785883,-0.6695408256642896,-0.025470146047330052,-0.21345072554311195,0.5503642507558406,0.8363078949999868,-0.2765469363037621,-0.004676643459793345,-0.1293989692963246,-0.04506680875681722,-0.7196685123434373,0.40421832591811613,0.06492956731260009,0.28119912204216163,0.15511219427288855,0.3504731925095363,0.9606202325636638,0.2722608028960585,-0.6462230517556111,-0.07907709412994625,-0.39929696720227503,0.31757414373006587,-0.807037322009315,0.664370988635476,0.1661592295785056,-0.5931584551320171,0.3301598821814329,0.25801416712982705,-0.4391209124018976,-0.7950013306351665,-0.12705741251058578,-0.14245635897870623,0.6201177915985576,-0.8277996820918971,0.061365319737757454,0.4755573657862369,0.669854680096022,-0.5984103511111908,-0.06905569622883723,-0.4218673277217464,-0.812037292599844,0.5335174498652071,-0.15899889248449328,0.8492480804956611,0.7110248962313024,0.813896880445239,0.8573475772263796,-0.5669076593250832,-0.024098531991642955,-0.5213439478202025,-0.5826302587216459,0.8627703278861613,-0.8450206808755274,-0.7458298511438715,-0.5133397793329676,-0.25824027337344796,0.3179896675790424,-0.12864404841271887,0.3490158379786663,-0.13154778944394052,0.7093901865454826,-0.9151258762061869,-0.3859851116035786,0.6543129006010309,-0.70845870350622,-0.6775341103227648,-9.151782341012549E-4,0.19793170187542497,0.03531193583921444,-0.4387552666874728,-0.19241005382732168,0.09888587577127494,0.9571618716279848,0.051028635059519045,-0.590600927988578,0.8060759122787782,0.23302303187737583,0.6171987128011753,-0.899112123553784,-0.8009287480404084,-0.07482976404636532,-0.8165947313051765,0.9597329769963852,-0.07634392892666986,0.11949906153457568,0.6999271214171199,0.6596488611243347,0.8814900931082015,0.15167535951255617,-0.6242851680805952,0.8501263950414597,-0.7863846980343008,0.19379000268762292,0.9861657124157648,0.13413245848283206,0.790500610530096,-0.3627035747071061,0.5143338572108087,-0.4787428514794847,0.4664861614311202,-0.8938131831944123,0.04438074647926271,0.6411034975334333,-0.6016340109848752,0.8808523319699031,-0.8057182477050087,-0.42850353841920175,-0.44648269040067623,-0.31020595902890535,0.7938187505065142,-0.7163703671478213,0.030141510944203226,-0.058957382204396086,0.5202698816228585,0.15561664145145374,0.9668033223481804,-0.3625127352737157,0.30329068807912485,-0.4898133240385891,0.7086906581910173,0.6453895851385403,-0.23765355418752598,0.460541461848466,-0.4029122745807548,0.19842252899600138,-0.5215185010542336,0.09115683389043672,0.49414733765501184,-0.4713746136908359,-1.0034969873378219,-0.3747976667579401,-0.8099650660877697,0.7066919067757698,0.6699560511193257,0.534400645377111,-0.7327120901382737,-0.9952815044275963,-0.152240736703198,0.5194527398818619,0.6569618860386737,-0.5602868358930049,0.3750998038262422,-0.42599170757734156,-0.787825977360602,0.19900130765327043,-0.3126692184754277,-0.49206549077261835,-0.290094634927877,0.454442895886455,0.9084729082454708,-0.0867705657219161,-0.9929633818738625,-0.016767067091042604,0.2679989638946636,-0.894809928294965,-0.1706139016493149,-0.8096411077426479,0.5040145219670233,-0.18769320992586067,0.26039030080507586,-0.3542162532209545,-0.9919252939968065,0.8323249093149544,-0.9438098708488534,-0.825565669076087,0.860032690204252,0.48141143984438883,0.7426104490625303,-0.5480149130804362,-0.9071706075765895,-0.22099105565824106,0.13728512293183814,-0.21126014403228033,0.5802610929636115,0.9990710889044465,-0.8668230809955411,-0.39544875078243824,0.08532654388478456,0.4616957092890843,-0.6855324777221672,-0.9447548601294726,0.3581924343199918,0.6367665935405304,-0.13143345338307055,0.20344517505805343,0.37043406565341175,0.8357016851459975,-0.3967823918504634,-0.9098087127590527,0.6575034481602868,0.37195178793464934,-0.5524213516627537,-0.48148477807580714,-0.1403741688847031,-0.232149257125712,-0.06836202909694726,0.2555486903272612,-0.14628853757328786,-0.3948519797075325,0.5112903319353928,0.8867289613256059,0.10514116253863444,-0.42828676797506926,0.7809624099319177,-0.08139416167510034,-0.5902847956221817,-0.4935369731708128,-0.09539115130153422,-0.04401866695178626,-0.12874157415577986,-0.5398192983599874,-0.5103699527647596,-0.4773265713952985,-0.7408920399922656,-0.22711649606659254,-0.9463793780273188,-0.7190903692305984,-0.601249674168029,0.40645684456166764,-0.8577222293678903,0.3402320638066578,0.3789756943973374,-0.9680573504503631,0.9183471516835471,0.2960942132411143,-0.26479270611681,0.6265747728042235,0.7535662799309085,0.8829148110713951,0.12026534659051816,-0.9596160529004244,0.7011978614504955,0.15976058691644154,0.14072539422887767,-0.2740873350443841,0.10626332310963656,-0.49777678841955897,-0.8939512161331274,0.912181114241165,-0.6209803838773963,0.030866457448898526,0.7403006442388764,-0.9754784315619299,0.4055481702491372,0.44576450501281306,-0.9403486746636078,0.5923558866562705,-0.8421949391208866,-1.0455418086683286,-0.1103122222075691,-0.6507647215117459,0.3100957740357673,0.20007204245880325,0.618314707256933,-0.8897315295803301,-1.0003093325004417,-0.026985963621813453,0.21098382157879342,-0.3002994287758437,-0.15228975148389087,0.0527182371212305,0.49877058868110236,0.41038528669325985,0.08382686029885983,0.4643563651090208,-0.4227787900163353,0.17693513446343123,0.3323420027178465,0.004880307417124079,0.07257884409390192,-0.10070155115749602,0.6138614103733386,-0.3791248244454542,-0.3771268829047854,-0.2813311602926557,0.166148638009936,0.8383340504819115,0.5222393963890193,-1.0475954759117492,0.7845661310889128,0.30115697836483796,-0.11274080369272954,-0.6159439289680382,-0.9561867988358577,-1.0104991520773956,0.9242897967737579,-0.6369959420037014,0.24973805410484237,0.5954628430934732,-0.6012325972782725,0.21333860387008402,0.5611031942490364,-0.11734507044297522,0.026451089022618515,-0.7206271489187508,-0.6240017688701808,-0.3177515421246321,-0.6538751608785649,-0.4724324383022949,0.38848943768481914,0.39805610159063315,0.6614661325058414,0.5659103442645799,-1.0041009538333137,-0.4007673556661192,-0.018550313691532136,0.11657567145733685,-0.42282412922041157,0.49531129174506994,0.36109439659040177,0.4877298205075574,-0.00807501649529121,-0.9567512947379565,0.20450825731561886,-0.9067164647959634,-0.00259428188666157,-0.3476618956123264,-0.06890262382932776,0.18343500910566002,-0.29158784425209816,0.9119926736140229,0.8537277558238303,0.3788323600662993,0.044117610427785614,0.9677466363300375,-0.10757370042713135,-0.5514355346653008,0.7514032429924917,0.5352562847461143,1.002008540410281,-0.9025284627421759,-0.7957106093460915,0.6012548436345467,0.8320016762224791,-0.1554731082228772,0.4937233450184859,-0.7727250396614875,-0.6866407847720595,-0.47385180341281097,-0.8371753290392597,0.8466304374300653,-0.09918515170572634,-0.6173055654031088,0.7522823231378546,-0.6583186346967695,-0.13995794700877506,-0.9367068730832632,0.81131404930314,-0.7163092862282975,0.3746292443401942,-0.28075228536504726,-0.8783106496744996,-0.623564887875683,0.03395064986690621,0.07120260521051722,-0.10103169427685949,0.24838454667836096,-0.9216669575858774,0.6152668358381851,0.08629104941280884,0.7616879513795917,0.7399016316531083,-0.8883484235387191,-0.7588474772228799,-0.9735039951782376,0.1591634387401999,-0.8812936902459279,-0.2284361698083735,0.6284856711435525,-0.11064896761686266,-0.8676320936966155,0.6485926312894587,0.44486186349567947,0.5872007794931525,0.1693253363589281,0.5159577900018056,0.3057421148747098,0.12314533219728505,0.08779940246705452,0.9114431858084744,-0.5743615970714491,0.7864265680790812,-0.03848995838492919,-0.35237636326570626,-0.11701341026102244,0.9069462515415577,-0.5823755533412915,0.436098425275286,0.8897956208786946,-0.40968277112273155,-0.46328438558961815,-0.9108931957817141,0.7710080787720558,0.4437941106985379,-0.013866771431225952,-0.15861447115767216,0.7559101953630113,0.18238983918866603,-0.10693628566058647,0.2850308820248461,-0.48314706164236176,0.9708309888345898,-0.7875392270859098,0.7290092117531383,0.11911167170121553,-0.6876776609959323,0.7841631912997865,-0.9274379834462047,-0.17610197147766452,-0.37227792490514633,0.8667286896016242,0.21972231440822437,0.32567179725038947,0.9431945298440494,0.0589903113239386,-0.5032324667379485,-0.5736031873810933,0.5313411094130797,0.9556504920915542,0.10508017556952864,0.15389348971809969,-0.4623772619422483,0.9400566744387155,0.020617265911706772,-0.7914058810643649,0.42357281382907946,-0.055686830290733624,0.5235848982997401,0.6824250478761629,-0.030499638224562045,-0.6294284316755403,-0.0912976150817848,0.8308286505151128,-0.7635361500641418,-0.5908359806942898,-0.8503692398425039,0.4090294638685734,0.30266352705265726,-0.14994610836837083,0.08916836106787704,0.8008796777941793,0.7306979950339058,0.30063988922851215,0.16927529626442148,-0.8954958671437235,0.4530080919110892,-0.9385469252127486,-0.16408944358288002,-1.0132601588298162,0.7098446714258276,-0.6059978287355606,-0.40022984220543384,0.9771224499641722,0.6240393471891379,-0.8962597944949852,0.40603441585174543,0.6584535038921177,-0.08415734905489713,-0.5936152989386705,0.6233357944799087,-0.6948510344363198,-0.8420767982288953,-0.3278358577769622,0.7589687690618621,-0.666857329286956,-0.8668346464439725,-0.9085133611959534,0.4192857527376048,0.09357336206800615,-0.3605460424596857,0.02113340433412314,0.3752628556965055,-0.634360309783929,-0.6944077915502307,0.574711774602912,-0.39802431737343447,-0.6789422334658608,0.6672940582523141,0.275534645500326,-0.1261303330414577,-0.4667227072556865,-0.10394057735966133,0.39903567316620636,-0.8443409027781483,-0.13303917526073783,-0.27410403557873364,-0.1978361612881847,0.13302980465853542,0.10899222240409032,0.5399164012661165,-0.5023867716087881,-0.9985670313445428,0.4181809481027918,-0.6627330030470011,-0.8148013651748132,-0.4665348013256789,0.5886890895731554,-0.07886517166916107,-0.3315532774816071,0.1965077290724926,0.10857480484637172,-0.8973268525023909,0.15050128821145092,0.5845578507746496,0.8850324268893686,-0.985475329797745,0.6103755033382503,0.022811655472382064,0.4905441548577224,-0.9755770177818055,0.004242192143665393,-0.22165855272096158,0.37030287528981876,-0.03777801884293373,0.5809716890106406,0.7457397528743497,0.8294792510539618,0.543039504414672,-0.4737488712781144,-0.7949933874522547,-0.8397716449567023,-0.8227633262761319,-0.5981257961871322,-0.8536786559563042,-0.9388571786591651,0.2534329688968384,0.456096874991982,-0.7631674028934277,0.039529017906264036,0.19772418066726463,0.7932586983326926,-0.3749428652185709,0.36912347115268945,-0.29828836531492403,0.7163897343636562,0.136946627014454,0.817220004333551,0.34276894481813575,-0.14788731938567223,0.1984843590722433,0.07636568812231297,0.544638481583877,0.5999176504330128,-0.5193549872111288,0.2511003578428385,0.3302744070705679,-0.5125056311963979,0.21129675729790484,0.022426014707998234,0.4434737952236625,0.13401764878601286,0.49772142474371606,0.20173839618123138,0.16279715350807197,0.42152375277483745,-0.5352739443779315,-0.8255361864475133,0.3599510297605146,0.46856787010479733,0.8703187479397043,0.7480464299670924,-0.9116547376459609,0.6945696936120864,-0.09704872286613614,0.2160811859391679,-0.18806432208728582,0.3223206223362788,0.41559532258020965,0.015736890827814598,-0.9673159878408863,0.6673795452557916,0.06890759380721721,0.8760841952435612,0.5831805741722408,0.2831021313128143,-0.44510817573546,-0.8446426918334814,-0.06025934797983659,-0.3516922430057591,-0.38147060768317215,0.08768416692941285,-0.6886317277082146,0.08077122742613373,-0.8349525580888675,0.5566226726519502,0.5127080382444954,-0.46101474123806596,-0.7725140593298058,0.572488953094918,-0.7487712880155654,-0.4322755161203933,-0.5784493667385419,-1.0314302674971105,0.6546286836323655,-0.9913519866837506,0.3110082103935571,-0.5480172383549264,-0.8866322888108114,0.07993840692741229,0.4045284617584485,0.060747615353906236,-0.44828690462827125,0.6025053935913868,-0.051864462190387886,-0.6194871297280311,0.23025546311559064,0.621330407170737,0.7024522670279716,-0.31466287580557295,-0.3838341414002286,-0.5976245393749365,-0.3770065976129449,0.03033050007340323,0.901365652232401,-0.14081983381385707,-1.0002834244579233,0.7954547891210316,-0.3466766712950551,0.07087009698604363,0.2287723291191259,0.5089955274174507,-0.22013537621334325,0.5494798532886479,0.7637378352298266,-0.5006428343076276,-0.33677479359522133,-0.9673929282398417,-0.6351508800573071,-0.875636249137251,0.7323262664966559,0.9177541050362553,0.4115901897524059,-0.3706334978205865,-0.4482061507852328,-0.4729461223430199,-0.06422880680218475,-0.5832853988817177,0.6251782921964675,-0.2053336896201363,-0.7339037330802975,-0.40506584966142994,-0.37558627877485334,-0.5977424781773937,-0.5373537814112036,0.6804578652652199,-0.17564377281491816,-0.4729003740968697,0.36058873332708896,0.8506161209271809,-0.2165485283699895,0.5382806396470776,0.4338690402482516,0.7707947418181076,-0.7272462506717905,0.04022135929446313,0.6283601078342795,-0.904009129573831,0.3994600044894828,0.38179727804071817,-0.1205444779657951,0.5404952962059475,-0.9279578901328511,-0.53348056871471,-0.008132926655305857,0.23472164080129185,0.3693336925091317,0.35191999021922793,0.7422423193333294,0.2843798025548949,-0.36334633339235695,-0.7867958270253947,0.3738280327623482,-0.6916030993130395,-0.34694799505191876,-0.5562071356036953,0.3031771347212735,0.195418351839302,-0.3641488874662744,-0.40474891389029216,-0.025111333278243886,0.2960725515583763,0.5376446803222485,0.08151397810531602,-0.00328101238807621,0.25808777844554176,0.017377625829793963,0.5718360732638992,0.66525515264659,0.8167247225893633,0.29701231780787685,0.5113144031659038,-0.21606979716111582,0.02031130729865522,-0.3131992392646492,-0.1450779235501641,0.3494932890836608,0.6773738833148735,0.5021900204320717,-0.45990209067453564,0.2788570602886462,-0.5817153057556153,0.536323316101943,-0.04885997085467714,0.4656287256945275,-0.9521256482518692,0.7524283474664444,-0.3201377840273645,-0.03482193529849258,0.007554577841865082,-0.6522163154734604,-0.20214616973356012,0.6535366426028252,-0.21838348129546165,0.606735007548914,-0.7403173684439865,0.8256411661090907,0.7652314344757816,0.4676813017022725,0.6888653010682354,0.33832051822264625,-0.41181922953965855,0.17501229048881176,0.2914241497438557,-0.10554046072737619,0.5796586554251852,-0.15547450081757735,0.39410005756658095,-0.5300783643227286,-0.045862715968938476,-0.7786241085696091,-0.5182454338540109,-0.5758605382273305,0.3528614942220138,-0.8532388872217191,0.992013745428695,0.2703071143334752,0.611558929588771,-0.47741225519013764,-0.18937066481648251,0.956392533349245,-0.191143095782912,-0.2869225660851582,0.4652055469183609,-0.09800920060401852,0.02548939358113654,0.6846441766377305,0.9645189492265497,0.39881485275594386,0.3765069351663493,-0.9570263497748583,0.8365892174705153,-0.8653536470262184,0.927523299981655,0.7117858359089668,-0.34201279201013174,-0.49529575252870695,-0.2332641303500478,0.600042022430767,0.9667414702463866,-0.46007313897605473,-0.5638855792864663,-0.53662392418654,-0.5719616636145521,-0.9585458396875319,-0.19836961046482354,0.6923571424547834,0.7847563972298901,0.8052900524823741,-0.5307696022706399,0.09708604192694957,-0.3842609304123814,0.28969617365557826,-0.9781912580205256,0.448449222449117,0.23268223490404294,0.5199471554710868,0.0915964735833753,-0.9930396908436359,-0.41638683789563435,-0.9629801148911047,-0.29314507678212853,0.301633733422876,-0.24809602643261652,-0.8378907407338338,0.5636813989880031,0.7122654191634546,0.8041909560453628,-0.45360112455502805,-0.4133567830428331,-0.9195114248301962,0.22316885205338965,0.8646041648313164,-0.24229429662268798,0.09273536339641941,0.29766692360320696,0.9883701873056334,0.9477529073109696,-0.014642428806209345,0.2030673322787135,-0.8223426495672851,-0.5406039001952846,0.7569739690342516,-0.8921338388523786,0.73126740311567,-0.35573437379963146,0.4904297632999324,-0.6140115599404773,-0.6033939037988001,-0.07574179049304804,-0.3531422235124988,0.6556356578317599,0.37887111381003424,0.7502387408663256,0.04829560186440572,0.6869719368623224,-0.08195606808597737,-0.3996677499930687,-0.819003830336805,0.7255888441464646,-0.7332892818037228,-0.45523762734917605,-0.3805715827814333,-0.3274803606393524,0.8633708311983183,0.7730965145735549,-0.7931524366333269,0.0724244116032251,-0.9981800644756962,-0.9960004605371229,-0.16555569535492584,0.2760324063208533,0.6259585279633639,-0.9744736364112183,0.45128402070239915,0.19847719719786122,0.3041506259377522,-0.5881178994333971,0.24796453400068366,-0.5517241442284884,-0.8744802167716013,-0.012316038918802317,-0.2194980947462509,0.00892490032410831,0.45311083435466104,-0.7679304176096455,-0.5763782555330856,0.8744076844571267,-0.05075287289659425,0.8559368302360566,-0.37312860981382623,-0.04297318494674296,-0.10456491065260164,0.4616264935279817,0.0837665737822626,-0.6995013262857568,-0.6248507109996182,0.6549153558353477,-0.22852870059410835,-0.9146186666081433,0.8740647944095212,0.006709262859039876,0.022412363182145758,-0.076737421272881,-0.7793244595868385,0.45734761990008643,-0.5831647845438391,0.8487560771120795,-0.9703672575844364,-0.3319176650979492,0.24464006299779445,-0.09899074519044238,-0.36604833292384276,-0.004435255564788854,0.9062890206685879,0.2877510710005913,-0.3822736509565543,-0.22631683001443698,-0.3152636802184644,0.5457312530017078,0.5253149340706768,0.522562740880612,0.7342392854054722,0.7361768062244246,0.051412407404160004,-0.3904065065039707,0.4674467471247483,-0.06124043214202277,0.34926731777657444,-0.9696200744813834,0.8887077587659463,0.1842389378998237,0.7916417487072676,-1.0826360738579335,0.06277629178586319,0.08179652595765798,-0.01070797017636797,-0.21930428235683672,0.6952050958463463,0.48536298599894295,-0.5245749701719018,0.6755023452111555,-0.6075901520203137,-0.19320141991109377,0.10318533518419085,0.059148561255446874,0.9101829241803356,0.5124254161699755,-0.9003492080428708,-0.14064668343603065,0.9058969812023542,0.950623860986312,0.1840866587658322,-0.059851901110514,-0.8144675914313875,0.2533303568199243,0.052901131426731966,0.5859995763008942,-0.023369700460931026,0.30254122058383626,0.6560786264743305,-0.8246899870309596,0.18030126349970907,0.29184946130038814,0.6501181703586582,-0.745970151825396,0.186160977668411,0.34546407615125796,-0.4571986809261504,0.46610047569100815,0.8832167809135971,0.30768333414935134,0.27210680440477675,0.3599494778278153,0.7133532595170315,-0.49661624717420216,0.6332461004383161,0.8662354383405897,-0.9791728312474954,-0.40709447728558346,-0.7213491190724782,-0.030442204655515996,-0.8697817995244108,-0.2730250090248456,-0.9155733258231444,0.8451636676396119,-0.824668991067643,-0.2701339190077147,-0.48631987955022304,-0.468416081709909,0.32600328404043366,0.6415428175756822,-0.4952467677454877,0.4752744959868575,0.418550843396319,-0.6415578385060148,-0.14560500396313647,0.5823905847291673,0.7331080861303739,0.6831142666386536,-0.4891958567595266,-0.7620517009384559,-0.5571637694387681,0.4262257638587663,0.130950223293665,0.6028748097490194,-0.45221722481967436,0.2714863938368941,-0.7379078226882155,-0.6929860220709053,0.66200561419622,-0.5327761967816176,-0.7953937161811955,-0.040785670166176735,-0.59213625190198,0.5109869737874021,-0.7962774057849816,-0.5431370817349968,-0.029404047704029518,-0.22792309257772123,-0.13062571589190627,-0.349525684933001,-0.77133755020052,0.10735954893183829,-0.8408945559551835,-0.0013186326103635823,0.11199856102361608,0.27677518596496825,-0.5095102602355168,0.28826085229467846,-0.07616273804606903,0.2997029044434751,-0.730960717345075,-0.6139437630834969,-0.8208793440485671,-0.7920730470694897,0.39898315208385926,-0.6155182924079848,-0.9488303166657627,-0.6802469520309713,0.18036240640350487,-0.6183981634354891,-0.5505764631229627,-0.4357235661312779,0.4895593813447857,0.18817436604284288,-0.919305432223103,-0.49239954791068546,-0.057259169133469956,0.002438872251968865,0.6814230238774708,-0.16355443066456413,-0.7728802084757438,0.6793582640280525,-0.9864730832789962,-0.3533574954220433,-0.6860918506710882,-0.1542103841129803,-0.37331533474509165,-0.9702248543703303,0.8954660359747741,-0.2284520387614637,0.1986133747032615,0.04384205708632381,-0.172381837152504,-0.7020483524421213,0.9573655491167258,0.611722206334334,0.5815372998071391,0.8775655915172149,-0.5852590677676534,0.9509917042242836,0.4839831850283365,0.20581138624801587,-0.6594340835249098,-0.5408004795159325,0.34185061866061306,-0.513685821516341,0.330442126483109,-0.9240843963847137,-0.39564492491335607,0.44055656688891204,0.4966223453044626,0.4206348850631709,-0.39727269810183524,-0.5866369092379102,0.7863644363513055,-1.0026240718321229,0.02873729806474387,0.8476827514349317,-0.29162013176108575,-0.2760036351012421,-0.1533773034709456,0.7042702348846371,0.7711486077634546,-0.5380656800133782,0.8893670410887858,0.07680246828338741,0.7192259822794335,-0.785502860105741,-0.3299149776582879,-0.028485093329668924,0.412509122301212,0.9592652566653491,0.23292253169714905,-0.6151126719471364,0.4039540762906473,0.8396104976182673,0.9689036457587739,-0.6543073446526982,-0.6416078188305723,0.014824900446577027,-0.05146443310364732,-0.61514572591384,0.7736238682357439,0.9129184142340755,-0.09371125041395131,-0.9847847552106409,0.7253364101297023,0.34913159016495193,0.29740092672058727,-0.7826610683885216,-0.8231120022740157,-0.7327981263048003,-0.1727704898912393,-0.03208381341104321,0.6671492752848599,-0.8550711881461824,-0.5083615128257061,-0.707440609160575,0.9067389632696308,-0.3826863028399175,0.456447899294269,0.6170420432547891,0.33960367842569616,0.6193486331670196,0.9113246190518902,0.8674283041157342,0.18505498990657365,0.2666903583291086,0.8034069895304761,-0.09518525173128474,-0.30243704687525513,-0.32899747004436575,-0.047453199251234576,-0.7037392123899567,0.061593202137869216,0.31674066230934556,-0.6857599048456932,0.2946944488780612,-0.1352837858493241,0.26332551714949304,0.7688377945796543,0.10667285771045298,0.3884824138331435,0.10380214199017979,-0.5450469222793868,-0.5775522822729895,0.17482406601694267,0.12565641264243999,0.3801863244493857,0.8770242744379926,0.9354553690761076,0.7458129479632183,0.7123571406497584,-0.452715677136593,-0.06881503258536648,-0.24797898660004258,-0.4988923420708895,-0.37770495059286824,-0.5890379099424621,-0.6229878498638188,0.02995980326937686,0.8188415859485876,0.8311596484470793,-0.06237799172874414,0.34756843114334113,-0.9619741637772525,-0.5628250726020729,0.7973681850591816,0.662114398819986,-0.9345134856506567,0.17197470813802962,-0.009416248742156741,-0.07865606063058261,-0.5538117768474682,-0.421477971503468,0.4887108642333775,0.3480135484925806,0.42028731353749715,0.18323814738363042,0.323839990640872,0.4444171666179402,-0.8079236003338066,0.15777847568044612,0.14217951667504858,0.9123686009010743,0.10579028723943762,0.9766745042507363,0.9165135934738952,0.5273906953109143,-0.8259616495656491,0.744937075075421,0.3635530577870921,0.8954833839966329,0.46611378887655,-0.016739746927498612,0.26616876433564085,-0.8701857828769732,0.5138610921888864,0.616085448794836,-0.8414178011213675,-0.2797783566326078,0.7241132695732528,0.4718644990563792,-0.10326348497588389,0.43009341192611705,-0.18791789209460363,-0.7216095078263706,0.8526948988471905,0.2786606265139264,0.807686913930636,-0.3995027760705183,-0.9246525584561905,-0.6194319131452223,0.7594556282538267,-0.874790877267039,-0.5706915895615472,-0.9013016477997537,-0.4646998065421884,0.7838994764509032,-0.005439137590944302,0.15399640255578215,0.2985022685002324,-0.5599000107924351,-0.8427381657133447,0.7642882631823161,0.24166646409602682,0.45056837022708024,-0.5822693257083833,0.5645407105247534,-0.5149686042909528,0.7794649648839187,-0.49185825084644386,-0.5203740152718362,0.8931833827895583,0.4893759244727378,0.7546749562915285,0.691128616585056,-0.5409707178586619,-0.6326996671983429,-0.6140169481893356,-0.974487393391934,0.8872809504328675,-0.31225210274219584,0.10147282954067577,0.8316140165736258,0.7595333960558783,-0.07782675495770147,-0.7415876187235271,-0.9506507530809546,0.7574042222788744,0.8393312547579137,-0.3393990338252868,0.8171399455298762,0.5366486056616249,0.07898462964001762,0.2902649480255488,-0.724235270005624,0.24210699113137404,0.7414029923314631,-0.04153119646533754,-0.9367821821889639,0.4674309574009875,-0.982350641268315,-0.7411903699471561,-0.677168150803837,-0.07769900052440347,0.19317332902592585,0.07825527412278994,-0.4946036182509088,0.8883399972601992,-0.983738502381734,0.3056867395417826,0.8264414250112235,0.8313468716424997,0.393802645071041,0.2707527985539059,0.3531514493980559,-0.35296996914802964,0.04572828764847081,0.8339180722274108,0.38399823761676766,0.20198664377286968,0.30468724319712415,0.025792994338706753,0.28485905157014824,-0.43836603466830737,-0.7043590649793458,0.24584073277098417,0.624042542680978,-0.10684566914021265,0.31375788741791055,0.8315302775908548,0.9804027324363427,0.9397558126436993,-0.4968095439979925,0.3192146312431235,-0.9741642657670356,-0.4134474683577256,0.639960688628138,-0.7005887897879037,-0.7186102978789202,-0.04614023847928905,0.8390300278960152,-0.3943210516285245,-0.9755245651519264,0.4610172324623718,0.22578108968101085,0.1865767641130551,0.4186473877432363,0.15010055913379472,0.11792662184637326,-0.6006415141723668,0.4839708714337665,-0.8719749208402902,0.10151025118374468,0.8726230913003874,0.9801717179103848,0.6496116470279095,0.2931626022048177,0.3235375822030622,0.441205257982157,-0.6436118756455187,0.64821562264838,-0.9976549325240578,-0.8073262406259942,-0.8266816897381492,0.02398393664530623,0.833241812268018,-0.7303563901936694,-0.7757571233210867,-0.7771798002657797,-0.6613731605429307,-0.1486441663717839,-0.5201576901516494,0.020691128434807693,-0.699650192926671,-0.6332162929287503,-0.9448997966543458,0.3486025760378266,-0.25507474027103283,0.15686449924155482,0.749106435891659,-0.7700673066538767,-0.2832947807558549,-0.6463300688928376,0.13034590078743682,-0.1573220414111566,-0.833044152308117,0.19389825616687997,-0.5687159780034734,0.1645702602554444,-0.2734894527052425,0.38464786230609327,0.5745506053422587,-0.44528216671431275,0.2501510309024835,-0.964786326224875,0.6580194331143477,-0.7513877939169428,-0.22015267535637087,0.48400290834918636,-0.6767516719914687,-0.7929082486368921,-0.6175712847130312,-0.9790198133164819,0.6653428454918232,-1.0024763631898264,-0.9241893436053509,0.13726659414677714,0.38074892457109144,0.15596625381018878,0.015601572181543788,-0.6898014839505479,-0.49230052089216003,0.7088020285709569,-0.24869107411212577,0.9210644647142086,0.7641998866144477,-0.9389463521522275,-0.33088239611040987,-0.36171069141924916,0.6245162005132708,-0.8601440471929308,-0.14466520360147397,-0.07169105813322439,0.14187735060538972,-1.0736214361829957,0.4034799140397685,-0.3498146884536403,0.24579175841140927,0.20385962639338234,0.27259114831071757,-0.8403324656325132,-0.7287684217589832,-0.6065334368384527,-0.6862285817449805,-0.16446256527248668,-0.5266286758503889,-0.8883293774311534,-0.22359156874438946,0.7805348185655633,0.513892066397044,-0.02032109977431587,0.08183634649317577,-0.49746226224158124,0.594392190241483,-0.3293281580126868,-0.19263899591046854,-0.4502581810514669,-0.11546763938496528,0.2907669710968539,0.6607352666415884,0.8188064601428704,-0.5142776637076278,0.45229476583604145,0.30203443058050644,-0.5768176891918166,0.3934353358312199,0.7616029925382847,0.5545141182886557,-0.5422456500645456,0.25408966131185684,-0.03760667066036438,-0.21276897332719225,0.23755604856705514,-0.393246077230452,-0.4070001063515689,0.6169753165071636,-0.07431836257654342,0.8589084553197435,-0.40227328258031564,0.004213506171279903,-0.3032046676491005,0.7846827011947359,-0.6007445476499036,-0.14267602136501395,0.31619952565263754,-0.3097536228704934,-1.0129999343479144,-0.9568657384352954,-0.6228503533184206,0.2004676382262058,-0.4074493569529032,-0.06437658045443603,0.2698503757312099,0.28801745523559796,0.5851938422997194,-0.8375773885990337,-0.08934534362786281,0.5995463718142711,-1.0757836795364977,-1.0182969959840185,-0.7705575173739926,-0.8346144258873776,0.268703307225743,-0.7749102418615067,-1.1934054204101328,-0.2058516792703958,-0.7784793821788114,-0.07669831635521746,-0.9061301410967617,-0.31714807800406203,-0.12179103663223137,-7.305707858617297E-4,-1.0243620687665922,0.07285680608584581,0.013680365493383112,-0.008583347599669805,-0.03173432853370129,0.055652276149428165,-0.9255332787529506,-0.36057190767396796,-0.7270521931365854,-0.04888750185512711,-0.17422923484803057,0.5586667836498418,-0.4679508363790272,0.2826133480387057,-0.7372425744566815,0.253623291773093,-0.7649309943287051,-1.4009526834907402,-0.4423480623955426,-0.642241743210596,-0.3753414973855257,-0.8743231075985134,-1.0252759478382127,-0.8903677858371359,-0.9791004540127303,-0.7917074721475071,-0.22176901328457052,-0.8475117685447561,0.41177438897742524,-0.2568884912085759,0.29835107791890547,-0.019847745230178584,-0.4069648816110783,0.25248392216880067,0.38525348065043785,0.024553051315604923,0.27810966897649037,0.8701603105250598,-0.2774330254465351,0.5317230494111878,0.381066374546895,0.10054783467928075,0.7865312124371286,0.40915341762146973,0.9557826059030061,0.21989418682372008,-0.21471573995927806,0.39467712741203603,-0.21620614147416806,-0.20693348153217306,0.4365450917671321,0.6961964104161302,0.9314118206630699,0.6362560053858078,0.18705009726072988,-0.1371786030825696,0.2939779159920075,-0.6417205527677763,-0.6984766983351598,0.7458825448601054,-0.7580208374323316,-0.9491058102680351,-0.7666980738428917,0.971365660903514,0.5235189670667033,-0.7186150077671449,-0.5069928999183804,-0.1773028104369943,0.606644880190524,0.5349741219520698,0.28302233602005256,0.03617751041527403,0.8731510709119964,-0.8852646914014506,0.8173303979651483,-0.3704611874738055,0.9229720238608079,0.5206537815073728,0.0282758942351351,-0.139812070969219,-0.8125241248007256,0.24371967468762934,0.6741532314114367,-0.027829521033539528,0.4084284362351658,0.9768804603788395,-0.2911757698763011,-0.8726253507766442,0.6939046948907044,-0.6146822226827733,0.3199158784564782,-0.06524751390795336,-0.2904116402762371,-0.11177823897427253,0.39210713583644363,-0.6287519107168094,-0.15142767940095103,0.28465010502280186,-0.973088754722989,0.6454442500441047,0.5246406375238886,0.8720047490647183,-0.11099956367410879,-0.6799245518327097,-0.3230406345386809,0.5282764099490658,0.614654019688331,0.11408974501080138,-0.01882322018927196,-0.6146574941677769,0.3757179553601169,-0.8404719214226926,0.5845618493156668,-0.10150049879375067,0.8913173711306277,-0.34104383341208,0.13476780791549414,0.4628493881550937,-0.23515189645405932,-0.10752189669641843,0.6313910866902739,-0.8076852771405552,0.06779993371700122,-0.32748250473972645,-0.9977463350908536,-0.8093316992531304,-0.3232259522414376,-0.48000225867958146,0.7589441754994999,-0.3282197513056398,0.625001346607607,0.04326085995368666,-0.29912596927619467,0.09088346762581456,0.6602361260685883,0.733013271037112,0.875538440324768,-0.21636309871444515,0.3573191692750397,0.8335236669400603,0.6758564543770982,0.40145145523918774,-0.2721220930529095,0.05103688799648175,-0.3706354682035846,-0.868080015227627,-0.9091625931849716,0.535678292539887,-0.46207508336807107,0.30870256997039275,0.6494359362672172,0.6775496065232517,0.5049400101185695,0.9320359999741256,-0.1400347017065868,0.578983215394522,0.37852785266134314,-0.24001910953722505,-0.6237298122737329,0.9374871477972514,0.5277863000976586,0.9443394263935851,0.8886343557667125,0.888445161143969,-0.32931774487854615,0.45506969256755037,-0.04747422804258864,-0.6352323259991234,-0.6863146014500654,0.19629046899259878,-0.7864255405524219,0.4082782148996372,0.8638207489106008,-0.4283231534787955,0.1674731455774517,-0.45012592891497283,0.5948131786137273,-0.8286112408915949,0.4271644676294447,-0.7978798230021658,-0.11355885153163227,0.8849924673761586,-0.5769464559329349,-0.28123886367858253,0.8572223785807357,-0.6026531874977641,0.49876695260773757,-0.27390802891691535,-0.3925091997349178,-0.5242629836266858,0.7294475767133065,0.2720224255358116,-0.057832619452268016,-0.3197445312123935,0.5986089811018943,-0.4838164239196704,0.9650666861980677,0.12432574366475752,0.9437340685829052,0.13074318525652542,0.5586648042235753,0.2680068018957796,0.9910378079670252,-0.13357537428386607,0.960300119854291,-0.6264620307321814,-0.7280185139043995,0.7516849981815817,-0.023305814937679248,-0.497244508773488,-0.9207784237875487,-0.5260575613046512,0.9855533365020281,0.4359717274918727,-0.1664826522876128,-0.44863547546656385,-0.764967658424325,0.8353502723833223,0.9525865289747343,0.1365519517983548,-0.5423228588614352,0.04077667208787141,0.08150168076417556,0.09907050091084572,0.3115957270024992,-0.6931681266235911,-0.3327742544305448,0.3805523049798407,0.48151311961311616,0.7120942017907208,0.7631295052622669,0.4069760081903919,-0.24318514874091365,-0.015973017367211906,-0.8496459602298906,-0.16139852725018988,0.015346926549318043,-0.2627137177741736,-0.7166433286201517,0.3847708332565109,-0.507525206912274,-0.8267040731677249,0.12849598763921488,-0.4458307269744801,-0.4039050423064261,0.9412502669801339,-0.14699008118445778,-0.2998518510999091,0.6492571531910603,-0.08105514398830493,0.6896873245180104,0.9689714094555575,0.12809461858106275,-0.8905499900312095,0.44225338191381913,-0.19528184126417336,-0.04146808822799408,-0.7064669550643905,-0.9916437839751653,0.8193679644980132,0.7230468372465975,0.05358118234622422,-0.018288549432539103,-0.8991844474618489,-0.5023215947231634,0.9193216345097863,-0.7366736319689702,-0.2805311593681057,-0.693238749236335,0.5651386278345383,0.39764072766093916,0.5153497100974299,0.22957488184840202,0.6136710704874496,-0.30758770843891087,-0.23803808786391922,-0.3252615896403086,0.5042861290315105,-0.8936579072622542,0.5382951788284688,-0.9353466208673308,0.15561659688445267,-0.5365462816363431,0.2796309212207324,-0.44420816610061775,0.7130206280584734,0.8118351691719681,0.09579062779865088,0.6506972590678677,-0.6677257723902603,-0.9296885337634944,-0.7543697618810417,0.9558459625195941,0.9395151094414095,-0.8131505054195017,-0.41833418942442285,-0.3340613865198552,0.11018891309454001,-0.7342447689310139,-0.5318649378307618,-0.6720866988531693,-0.26438319898718776,-0.23606336720539223,-0.24061486025631237,0.053602254602686646,-0.9636637519439452,0.5360253626144995,0.6930231993474576,-0.4028981920540018,-0.9079045015379181,0.1510721150466938,1.002146659115075,-0.7389864481796937,-0.287435248568052,0.2439432026482895,-0.9194070730179116,-0.9956912540748077,0.03773177043262994,0.3138043078840991,0.6856972723886737,-0.07697018635758264,0.7310167819105214,-0.750027402326177,-0.8754469021574809,0.3959461236925228,-0.8253865459204615,-0.11557782655591509,0.9951711252927051,0.557416114721184,-0.404474005144543,-0.9562816208553663,0.10873428011594967,-0.24862627830329131,0.28186383817174354,0.2904306350573652,-0.23532133079479567,-0.8402570484346865,0.8651024460665204,-0.5233087149409229,-0.5543555421250548,-0.24455808974185045,-0.859920713025943,0.5573528526069762,0.746332603904981,0.10546126362536601,-0.5446909691848743,0.3936354521374219,0.35642320273692896,-0.991985703517972,-0.7090615825493614,0.8675148786019964,0.8099171094473183,0.901412915484727,-0.27568770859411895,0.2498790483134803,0.688532963614243,0.8527149869921978,0.8006770269030401,-0.8210163560996122,-0.37216394728934343,-0.1516649857878145,0.8053340861966586,-0.5183722711107381,-0.5496086969601316,-0.23864861577858965,0.31841561732960133,0.6009232302392893,-0.2421718518074092,0.8479426610117342,0.7248333813672878,0.40767212480714754,-0.8155245966019067,0.02272128290095532,0.030196301159345795,0.9480248106747664,0.6296330142892597,0.17067703542751494,0.1993144924413692,-0.7565600142322174,-0.8483838101669363,-0.4402109663891999,0.972868620720608,-0.894684907032698,0.4895668894184236,0.8080431325693413,0.011857652819953879,-0.44539531943402644,-1.0312596073573175,0.2043893502325536,0.9688075454324717,0.9279465772250468,-0.6646093768850031,-0.98576169988383,0.9293802950507825,-0.6064882885394538,-0.8444449285932042,-0.1475690796363871,-0.6785482106372992,0.8032816455709714,-0.008476318107331647,-0.04562561189661323,0.647507895143531,0.7134848553524733,0.9028801341364788,-0.34375825480164907,0.19716145740353636,-0.8240787392542962,-0.8823762265350789,-0.48567943164353955,-0.4163049075471641,0.6194962519365994,0.11731260516963275,0.5988137093609673,0.6477190651204903,0.3277746864202521,-0.8647205007210046,0.4915512369770263,-0.6191857575862814,0.2786969285955266,-0.1856010859070921,0.2640196935475764,0.3418394249135962,-0.6880331941197625,-0.5674266372150535,0.40955867203039564,0.22841657741421245,-0.7384121703040324,-0.23845611238445855,0.5478086687664296,-0.4829226466895061,0.7703395915546791,-0.2832476117323386,0.6589485658881227,-0.9704473404638271,0.33783657333994016,-0.12641839687444678,-0.7438011647514257,-0.5377243316615119,-0.278851754302225,-0.3953874592509727,0.7252642039425213,0.8850125628433433,0.7940887909023149,0.8254693632494245,-0.7869139604724876,-0.5958394926274683,-0.033400986456548765,0.13090106227495052,0.007448838916360501,-0.3622408350007949,0.39402940470855546,-0.7366900250881092,-0.13895965806489935,-0.20969887685201585,0.242609440553245,0.21112573899186388,-0.024026631805128346,0.2639069195863525,-0.6379367566748873,-0.48263909039954034,0.13380564378210233,-0.9323286384276113,0.862507674757482,0.7818559918688491,-0.8856925380680933,0.5281669931672872,-0.17044292481075085,-0.7413046172041626,0.8264557490670577,-0.3422469203643512,0.8913144869761613,-0.3154484540500451,-0.9654242597006375,-0.06910132306474467,0.5626991294306638,0.20016607171847894,0.8212210895887723,-0.3840369765851652,-0.7742986221929694,-0.866568741120207,-0.1783470359883429,-0.1711153317905449,0.3890238158888846,0.8953915603353346,0.5255218797932464,0.7916217350044101,0.6409957466033519,0.6503683173527246,0.21929575539916124,0.23602506931382353,-0.8119635660260437,0.6181969856290802,0.00952049951733791,0.9185955333013476,0.06216834037407344,-0.5723732665752326,0.003436453461660882,0.04201533883573481,0.8366367455491937,-0.6337431954659384,-0.5471011591824665,-0.579268624172138,-0.18557109641094455,0.7634846712337954,-0.5146576103454544,-0.8271065775441953,-0.9950125443039879,0.42883794439520645,0.502636639610907,-0.9212657478686439,-0.7675750149986316,0.60775114736768,0.20448109203495188,-0.16349505877966536,0.3151719986955036,0.06699537690114353,-0.33799793238949727,0.7831752361753812,0.4184497507918057,-0.9199729215485682,-0.3204700625283102,0.48991076990069005,0.29652884843558097,-0.5571736015717428,-0.550020636913134,0.7991224104737531,-0.6727968902450441,0.8236449181115418,0.6536305184570109,0.4260136452852367,-0.13317460745733162,-0.4677468882140989,0.7301209698458612,0.6844667083949677,-0.07540043790236123,0.273070212224108,-0.3590144934579131,0.4428760119708182,-0.10051736480339829,0.24842320993419226,0.4079192777051698,-0.3214091010447232,-0.21243917173837867,-0.8322065822229195,-0.7872237513297878,-0.20089413268867823,-0.5787981377175557,-0.3678870060977474,-0.05908815396411743,-0.44002392815556945,0.6556730503798258,-0.2816934186335807,0.04367390988372938,-0.6676171441053754,0.40885293044724424,-0.9421968466327855,0.126529864428467,0.06802155848592031,-1.0775593640317709,0.5402200251097643,0.2984922961419388,0.45017073254245915,0.5405388793780004,-0.837986251595049,0.14406848356524568,-0.4158509405223322,-0.9374314464975019,-0.9404419855314669,-1.129396501334341,0.7196790895717986,-1.009954745615351,0.34490457608965397,-0.4487550217588819,0.790252485467707,0.2476353779751045,0.5261996508046877,0.9866867308152476,-0.271421048543641,-0.3701155829795799,0.3358068108878435,-0.9535528417013537,0.8517334647962351,0.19366751758741327,-0.3560778880407802,-0.17148678189421176,-0.5972301316447799,-0.36545821935538747,0.06585270849849789,-0.060872924627370706,-0.4461197634169698,0.45576396198827807,-0.9718335666757092,0.5687399026030893,0.1797474692219272,0.6399779465962202,-0.08152467396579843,0.05222037113452127,-0.23305960395742067,0.5011710450258315,-0.7984293183712359,-0.35917677015638794,0.1841108653990451,-0.34086191850366987,-0.7652572166571942,-0.7719179257801951,0.25001700398746723,0.8998355922068884,-0.24821166802993688,0.20438380611457774,-0.22507363601080566,-0.31950780877939056,0.36343547201255966,-0.7459618289239163,-0.43662739025321606,0.9779767606631868,-0.22880786904933714,-0.3732049764173013,0.9640639957744734,-0.6422611238830882,-0.9094548209095865,-0.9654974927991561,0.8066220052979435,-0.537622796953776,0.7007383040366734,-0.6084638902278157,-0.20331780261693158,0.3252160991692655,0.16382655254010153,0.15979449782750835,-0.5280590274399376,-0.9166908403744839,0.5186592804839099,0.8160965072086273,-0.5654367243979488,0.13435998109866132,0.6619636477147581,-0.49436001185673795,0.6894647918183248,-0.6132092242075946,-0.7565868862940561,-0.7113879326232108,-0.21484506062810782,0.49197640918816266,-0.08458921436677182,0.011695203325307373,0.35494243200201336,0.8213133869225064,0.5797702012463744,4.973769847032017E-4,0.6000878181166318,-0.8870226682067595,-0.8980510034892659,0.1551625155443288,0.7606983501531354,0.16958924767045072,0.4467896252081948,0.9477798896204715,-0.027870290322323424,-0.4751983374638399,-0.8235078799326874,0.8737396200144357,-0.1916583483254913,-0.07472681456815718,0.6559515033763932,0.9368086402471787,0.27251815421139114,0.8731558601566975,-0.24279566417624396,-0.9174096774105849,0.7702612786604423,0.9354797103386215,0.8068759100054573,-0.8119315636555747,-0.5060441660510107,-0.8692840586744807,0.17621393958935613,-0.5979980051368426,0.3701068475390787,0.8926104465639276,-0.8920628285514096,-0.17979827502209475,0.6934691971546645,0.7014871717705674,-0.5993125618804604,0.7632860541731398,0.24485446858489635,0.4149372287863786,0.13285819617858863,0.4139586696807403,-0.6985954897940194,0.10779013598128473,-0.8203857779682686,-0.8667504723998823,-0.910457565331087,0.23376333026723803,0.5740436598701817,-0.5882352741597296,-0.2871735422361118,-0.721163231109083,0.1722482593097358,0.3947902515061808,-0.011355911935439372,0.07207134456229976,0.15046516534634646,-0.9068813015014742,-0.336629298716502,0.796036244801769,-0.4997472496921372,-0.11905718477422678,0.40438582630067127,0.6528192110185269,0.14701695357915914,-0.32944406221624445,0.8840994847839551,0.14242297953142335,-0.0381818295445968,-0.5216068715462099,0.05741772861382828,-0.8105919514884132,0.5997020171040153,0.39614564783910833,-0.41359864790222545,0.5126089361512998,0.3446148737839134,0.14082473325433598,-0.22007362210363035,0.11289409000500372,0.25726663635218266,0.49059142715046633,-0.3767273761448242,-0.6735967103198383,0.07113040670909773,0.9333531389011718,-0.5334563602368911,0.31849656045077124,0.05549165958675406,-0.29318194852015744,0.3421739643778887,0.12978078657271375,0.21335738406822435,-0.056258966353728734,-0.9101776964955708,0.5918752912468122,0.7613206682079684,-0.8737400946032328,0.45982189838911425,0.649586735081854,0.86416090431482,-0.11178555581272143,-0.9501040918599857,-0.15762653215381683,-0.5634267698545985,-0.583191071727821,0.27488065620629576,-0.1312725527043802,0.8554822723605651,0.530494527559243,-0.1860723679053573,-0.6459145939475901,-0.5253984547106166,0.05912289035717033,6.372274218644874E-4,0.8619344951053658,-0.7824226004336269,-0.36665580430602795,0.43943020141907213,-0.39442200334715066,-0.025165269822749508,-0.26606229833079387,0.6294399883127184,0.9137486358677462,-0.19539165887253404,0.801969634767548,0.6659720880155727,0.9058668141717862,-0.49722695502434106,-0.06837245393474478,-0.8438153256115206,0.2647929466616621,0.1150195991782601,-0.4247301115864046,-0.1445467931287447,0.8607207528546,-0.648129813705836,-0.5202874783077917,-0.40682774642277475,0.10734565824822043,-0.777313337841375,0.583899195803951,0.309394684913779,-0.579663928601119,-0.04671479526554334,0.2308135701696863,-0.21235376208139953,-0.8746731027522442,-0.044370570120196184,-0.032030011777415934,-0.5169443844850319,-0.712450646170373,-0.9927345595116126,-0.6305192959856003,-0.19341136910721887,-0.2311191049238002,0.5157413803389561,-0.17268811528682934,-0.14483957522016838,0.9803425464760078,-0.24986242451141694,0.477031417937003,-0.9323438211443555,0.5121711917722498,0.4631137894361087,-0.06160996959389453,-0.7817120279245391,0.2908741169656017,0.5088211852809956,0.48535139631651236,0.8385181462038203,-0.8190690250110757,0.9409715600790418,-0.35108675510038345,-0.01319615090453615,0.9572583860398374,-0.04073787405347659,-0.4481734389482932,0.769895010526706,-0.0833780915155186,-0.7938106235566876,0.7589848817489295,0.8049649209274125,-0.19319291682139372,-0.31189566070861846,-0.9486273426713617,0.2768344981318436,-0.539793454333584,0.06651840938144948,-0.5539674766660057,0.8639154883653847,-0.7091224185945653,-0.4944820931800072,-0.3761101665765509,0.3884039796926959,-0.36510257985598793,0.6081725204413029,0.5977712049856602,-0.923306466800147,-0.31260883135462336,-0.734011104330594,-0.0306520064411213,-0.39178720786411,0.5295933626277733,-0.6019601782569133,-0.09416444442604367,0.7550475738869337,-0.1304091445225802,0.7100637776764201,-0.14375761835597414,-0.7614687239441835,0.07075022150776081,-0.726161209528632,0.34594753310695164,0.3195720622701383,-0.7497642219072743,-0.6741097592653131,-0.07128087910294416,-0.5980878999480979,0.1308570818087177,-0.03832640567084039,-0.8866510459025091,0.6786317976807668,-0.2744866965756405,-0.5045575335993464,0.06760172200646995,-0.5553804305357166,0.06350209937962382,0.13824172698755074,0.28517257587289585,-0.4288523765082225,0.3424392861577855,0.12475340695325265,-0.3822421854834205,-0.13112691593152295,-0.5238407869529459,-0.07670768599316502,-0.3937908090371256,-0.8217255784696273,0.22663435833396356,-1.007843126843744,0.9827174363493604,0.359464093496478,0.06238185325842671,0.6069511971704454,0.2681264456551187,-0.46049384449647496,-0.653744249019098,-0.48312528265791305,0.5153344126974355,0.5564596673730279,-0.3134863009206764,-0.2716405174127772,0.37797533952426915,0.4626608841291939,-0.9205338995677695,-0.5126324939977033,0.5910338759939996,-0.5644327964225352,0.788500241266957,-0.03861620322654356,-0.3244014017541263,0.2560578664589682,-0.6850764943663892,-0.27637510473938165,0.4807347198570631,0.9105100703106438,-0.6354602681435215,-0.3795769624977555,0.8810489518563747,0.8717641575669266,-0.36875658624536106,-0.3492600744514731,-0.689103486738884,-0.29350681416660207,0.7679753595179764,-0.453193502165798,0.49239548797113697,-0.23903181812306737,0.6226584374193177,0.07111638952434698,-0.11429537561798311,0.3833151928543212,-0.36980261441179874,0.9235444404725116,0.4609125737652246,0.8485956648137746,0.15325072481698895,-0.9127523681438141,-0.1836691638324836,-0.8684432920874543,-0.24035953677116306,-0.7972399916594877,-0.05495254088757995,-0.28549347535904807,0.9024520006057919,-0.015527220857502928,0.08033397851407963,0.01926003276393939,-0.6075507456433078,-0.18374442742061833,-0.6413453042654385,0.6758261698389553,-0.9981215000562318,0.7709040291069973,0.3387986429020116,-0.2647132828395443,-0.570184410454711,0.08168257033144523,0.737923213016031,0.1389041504518811,0.550901938929577,0.7685503717729126,-0.6610227199622809,0.6547817442938125,0.2601703959619801,0.28004109845864733,0.19901801845618117,-0.4778100790547397,0.5619158834094461,0.593158569699328,0.16892994226049332,-0.8774409294208418,-0.3418360953070799,0.0766837040300053,-0.6357490752766405,0.013008769009395635,0.4337882984349056,-0.8930286913773119,0.35062041648138753,0.5927959912991725,0.8201001742439276,0.2709700997830418,-0.9221737305642667,0.4133200168313225,0.1192140733534808,-0.10030009100761927,0.5606862708219698,0.900589631118921,0.4370064343058482,-0.5279233884511934,-0.013841097432800622,-0.468470194071981,0.09613522101552108,0.41490594147263704,-0.37271509247553436,-0.10989974365824098,-0.9810018994595435,-0.2535308845453724,-0.04252126084573682,-0.03447248328245704,-0.26379830892938116,-0.8660105277877526,0.6337876527025454,0.27537894964414156,0.430460811533708,-0.9311943880810297,0.6573806290539925,-0.5542264098410847,0.44902435868770896,-0.9217270592841249,-0.550594229789227,0.2240398426713046,-0.3074630073334408,-0.44816471348925224,0.8850167590565854,-0.7356456249416004,0.3351443958202409,-0.5355074417832126,0.4796234543069804,-0.2628964748161379,-0.311831769781433,-0.2554738132436879,-0.8949914141619794,-0.8869975245526387,0.458338612055045,-0.038996256452697366,0.18297042756733503,0.07149980498934459,0.5801023814440964,0.9701556963217364,-0.4358318229353246,-0.9788220270787515,0.46328383005680446,-0.20851972548057637,-0.8930466115429982,0.6646653888559533,0.3579181804805111,0.7331351545274938,0.13124428550842368,-0.41594893308892433,-0.16268128972031934,0.633066523820545,-0.6376347001996596,-0.1993417219516065,0.7468192855325729,0.8775573319486213,-0.9615893567611121,-0.9480935816898843,0.6764572937502737,-0.7541784621233675,-0.16246971574173386,-0.15517141701925075,0.7851321510313163,0.9703958342509981,0.9794103612231736,0.392585905430025,-0.002632666453870341,0.7257354723967773,-0.7255652123974615,-0.1927422083210557,0.49495632452817095,0.6823654611019215,-0.528154572622642,-0.4568942954601225,0.10650748352850237,0.5486596039399706,0.9129258632208646,0.8654376122980582,-0.5789008063086815,-0.04113841457020351,-0.33593690915918084,-0.15839794894933612,-0.931295166196997,-0.5395608622804896,0.9012631033952963,-0.6015381947487259,-0.43424038769340045,0.9939799643694738,-0.39316524182605717,-0.23448858527631078,-0.6486331854330094,0.5777762180715569,-0.9021710993027261,0.5842139531189838,0.586833512840568,0.23554476420150627,0.47532817889216283,-0.9962455134198185,-0.25165531649870565,-0.5131825300322366,-0.705044675971719,0.8742424569361611,0.8626055162651687,-0.14337756604725893,-0.3790269516608731,0.5397263591666459,-0.25811349081154833,-0.6363007251532504,-0.70842071525824,-0.7434272186423283,0.42981174602778416,0.9324092391624674,-0.20747478076664794,-0.3589626557659773,0.2091020634232319,-0.7947608947623217,0.4165449947824216,-0.04769930626617658,0.46963533727257434,0.12930731399800122,0.5154144501830047,-0.002745621344570237,-0.7597236797993874,-0.3866263235766376,0.5208880491617882,-0.25916932207411514,-0.7237273859430398,0.16682040114050367,-0.45381372422010036,0.17171080756049206,-0.6943132429890906,0.174528050119374,0.18458262507935186,0.250427244986438,0.9180836909146088,-0.010988503561007711,0.023447458185494204,-0.5320432093650086,0.367889022643558,0.9481803037026284,0.32297141996890355,0.6529070807206903,0.9812288313228633,-0.05467226736374481,0.06609335931318502,0.3963423805631785,-0.2880035974527073,-0.11773640286127951,0.5052096749202397,-0.8861161725182547,-0.8557557384737235,0.39577547014288705,0.8299752063671592,0.6888412434615283,-0.6450308755410665,-0.9221901314616676,0.990822034223744,0.0035599044745107146,-0.7416784301873693,0.5084885997667504,0.5878844996454021,0.8842539951471827,0.4972692753382158,0.7817541118250176,0.3825956354128897,0.6832567096207132,-0.4146282233983618,0.49441959160216337,0.5268793916189242,-0.5873644889301994,0.15355899744291324,0.6537953772587294,-0.5842083896520753,-0.48337957316256075,0.167143256785363,-0.6861784152118949,0.699648200196346,0.959881006159814,0.5470583222232246,0.053543472190057624,0.6497298348333006,0.3107276203280749,-0.10312895712127676,-0.7827610684287485,0.504212236455153,-0.4033836316691161,0.7568679369464696,-0.9053366606420388,-0.848380835062794,0.7892599277959609,-0.4651717171098988,-0.8825683657767169,-0.3626351538204504,0.4082099490870069,0.4528443394399451,-0.15254779166908872,-0.7884181370698745,-0.15489780272134213,0.9156715214667965,-0.3952523686362963,0.7012203972755873,-0.8592355588613063,0.1666280287255646,0.6271816866880027,0.5459162835245448,-0.10063140894625278,-0.20433837825447754,-0.8117955515517629,-0.5367026998529401,0.7219176982647229,-0.73083975564265,-0.5283914547674662,0.46216711052334425,-0.5431817539026877,-0.9616777403571518,0.5084288260287558,-0.6110332106780668,0.44340247043137454,0.3984559551033049,0.5471254001240884,0.14651235441106958,0.18347567720958863,0.5874960413836254,0.94201335334356,0.22360272403867376,-0.9655856153074381,0.5437741515611241,0.36984546371277816,0.42657622891931024,0.6918580638049303,0.7576567751928311,-0.6108850945423439,-0.32986833992154607,0.8943631243023608,0.5485973785379327,0.26141243474818093,-0.16703651094065386,-1.0413886345986072,0.8725890112174709,-0.6731562004990068,-0.6553173731480729,0.5275167621297973,-0.08285028374056747,-0.656669714829716,-0.07154770589864748,-0.6947834895415075,-0.8683977602181283,-0.960927717577577,-0.7184526553995766,0.6178142893118742,-0.5463822204318726,0.05280109914259823,0.037780494505467804,-0.8820159509119401,-0.9150136050672396,0.236564444136909,-0.23304718302007996,-1.018427113469533,0.7481591910810264,-0.7564007544859066,-0.5189292345542058,-0.09184590963475533,-0.9535861366394581,0.6233258839660681,-0.9235092523469373,0.8317255563056554,0.8295529573579795,-0.4303776489164956,0.9134216868003421,-0.7825128705780707,-0.30343522519791266,0.0033421050642949814,0.15128058829368116,0.7882820295418967,-0.6271086544160553,0.43136677045914157,0.11638084348886714,0.13281485372605262,0.2629267074794891,-0.9403767646514604,-0.25712238208238625,0.6044021474592861,0.3236648616133234,-0.8462316469499854,0.11341076533370205,-0.3368405528311785,0.958636048659386,0.8010026460186536,-0.8336179299075676,-0.00879902876316646,-0.6842722279212942,-0.9007485036105092,-0.7962838650702808,-0.305513366831327,0.23895860334560923,0.7332384781046902,-0.702731295575214,-0.8742966673818731,-0.21728413115554954,0.7668998953788251,-0.6027305979572937,-0.28915019387920554,0.8402484517740707,0.9878913357315067,0.3390613618581999,0.46895195808005263,-0.7691091621287576,0.9566786004911932,-0.03634511595307144,0.44531941765270805,0.6751977776894733,-0.8395858873479816,-0.827786005420116,-0.8083762579773612,0.45164707787889435,0.5131268279553798,-0.16644757941891303,-0.8393345650997278,-0.6034853651737139,0.03309293449832085,0.7198270373308344,0.19986588391906118,-0.7969157882686957,-0.4676133498586212,0.44373880544202593,-0.4915575530545277,-0.06492027008353984,0.2336122171035413,0.26100589125900486,-0.38226526068044,0.8505238548090039,-0.20248460556383158,-0.8877280640358676,0.3963854574549752,0.6506675003135871,-0.5218415551315969,-0.20251020586589524,-0.3064197213596053,0.2773344719023992,-0.5948810371666737,0.5827569566441098,0.6971206581668375,-0.02603209000537648,-0.07027290275234328,0.6404270143243845,-0.730853425156405,0.9560439405443342,-0.7115664271379356,0.4652683550597575,0.413689473525647,0.8847609666815858,0.48605939960515065,0.7965123148702271,0.23180410183948097,-0.2467362890110366,-4.233781401110586E-4,0.042129333625355245,0.6280081616583437,0.9502840954174194,-0.727470807788842,0.3585005001555701,0.23127715524139375,-0.5762536350830412,0.5865347801575008,-0.5490109833025086,-0.6675454095491467,-0.9238018671142434,-0.08164998541638833,0.035258927152892,-1.029242009398355,-0.6555581390282387,0.49228130946102405,-0.7015138116084249,0.9011729717484188,-0.9653030156213167,0.2051577315426671,0.8353297305102669,-0.6405894621418673,-0.37189832186433175,0.7641430652605969,-0.3032444554180287,0.19678756475318923,-0.681326607215513,0.4682820171690618,0.48746648248230456,-0.037240212467153,0.8636389547077975,0.8431712600724754,-0.1259241528376276,0.1335767047802948,0.8417938659367825,-0.16699883609019223,0.14215478075258425,-0.253880041144524,0.11853752628381052,0.7501990372444636,0.5433852720928608,-0.9350165307951526,0.36888032846319746,-0.3340842259476071,-0.24882512859808523,0.32586121805637575,-0.2632340028321982,-1.0277506169976633,-0.30895636250309955,-0.02367190990293715,-0.1157371451465246,-0.8185787894367883,-0.11964753320809352,-0.538341799051415,0.6010550118387626,0.27786886156091395,0.21753487334947236,0.7801361378798419,-0.3328378792556967,-0.2647570015868086,0.04117045132728147,-0.8227746974022685,-0.2857214355178443,0.244348126163067,0.5208854034592422,-0.04196111251102248,0.5394379915018974,0.1377388204817094,-0.8843459184724538,-0.20700425330613006,-0.7769553332770276,0.5044109125482439,0.41476535061611,-0.40704556268501924,0.35234296479570715,0.22651665114700634,-0.7820769138900208,-0.7408194584699499,0.8837384153642653,-0.8782354887968977,0.6060885817430801,0.03417264390756802,0.4219912516177595,0.7612012059858214,0.49326232748622045,0.020563644060272557,-0.3948971153904661,0.8977494962597785,0.5353252353556008,-0.8053446086448799,0.4324409107238123,-0.8703649637173911,0.3516955919345195,-0.8641035441470981,0.23204419216153238,0.19509356308040338,-0.955210766742798,-0.7484233210615816,0.911966746128952,-0.36338948560744777,-0.26317942015865503,-0.3983025913650179,-0.5757282471831113,-0.8266686646004677,0.19999095945217982,-0.02181724620165726,-0.4898566209321942,0.26782209153959236,-0.676763398382066,-0.04892758241080464,0.9519237109355936,-0.11997173004284312,0.656661283525472,-0.6229723661082411,0.08728075146574099,0.3008794518429043,-0.920429594502411,0.09869840890661696,-0.4683798857416299,0.8817604198962611,-0.8463336907681005,0.6177706685424971,0.6153685935791495,-0.7503207121654336,-0.9850526028806184,0.7973687079712665,0.39093685385784993,-0.19579935817946637,0.9726525057152895,0.38878593931248095,-0.6545952824671573,0.8822151158139208,0.8589596980633651,-0.743808727797126,0.6073357617453204,-0.29039885958901523,-0.35037982951167124,-0.05401011703273153,-0.354792705247508,0.7049484603904516,-0.1686026090257373,0.34026891309752116,-0.974297813279565,-0.9421581781438194,-0.6147021473702764,-0.7628918198193951,0.6547601402805945,-0.7638090005578921,0.8656309561163105,0.553275590656244,-0.57674410294265,-0.9298047220795594,-0.8830907362908837,0.8086165694649624,0.46586899695945116,0.45137403063341613,-0.5159686978040188,0.4506124386767343,-0.3295335153211123,-0.654226842928075,-0.9115638105702789,0.5419431829576209,0.7972551145622123,0.3688165281278983,-0.6441967240874263,0.9132589807414386,-0.6161313375574001,0.7851888656656989,0.9108236288508567,-0.9722695732745475,-0.4442305636219178,-0.4229272789984944,-0.32285497061711305,-0.6787338392031733,0.8287198093740209,-0.12394901144145805,0.5090940389021347,0.3812810902591324,0.20213105181364444,-0.7063099652519602,0.6258780609511964,0.8232311967135256,-0.8157872506650191,-0.6796892823440145,-0.7311139015099252,0.1707823760402563,0.49035230087512316,-0.5864820343222866,-0.8771569440668826,-0.6021341560370616,-1.0167703447214422,0.8577249319742533,0.6407153632667671,0.22693215225179345,-0.5498350267979353,-0.5935032184811532,-0.30864083864947234,-0.055937718225852875,0.8376104949427319,0.41980619383643536,-0.29475208650685225,-0.23784114634471212,-0.7612251666966592,-0.4288787338006404,-0.14792253017132825,0.545179893196885,0.11054514495547471,-0.7994528599985267,0.12545844724872598,0.11227957520458631,0.4921309929779035,-0.0467522100921349,0.13962835842257798,-0.08222974156923228,-0.48993288720855566,-0.19229100353893117,-0.37844160749233946,0.028605235897933044,-0.31585545718994357,-0.920870387328001,-0.17296443288714464,-0.2650594114549487,0.7125028381172904,-0.5517247512558616,-0.433355914570426,-0.649863277292184,-0.6555002761632291,-0.48438678157974363,-0.5922189186319097,0.7923582513001357,-0.011288308872688693,0.6500423918558776,0.7295302704980456,-0.017333582533060082,0.9040357873625718,0.21308737004586872,0.3187305278148855,-0.9057247917366376,-0.27805138611129154,-0.7663424398815893,-0.6482219876084275,0.2407588404865817,0.8525019050540259,0.46165908322692045,0.06178351800665522,-0.6377992622070975,0.16607007812412616,0.5815739814467653,0.7629620162685274,-0.7403237143010789,0.08033070175263439,0.4357925260976184,-0.5911650049815431,-0.6375661432209923,-0.566397760950867,0.8653078336824396,-0.977054847198913,-0.9331105793920059,0.647390735233714,-0.3423726694152176,-0.9436565196684784,0.4519373765159226,-0.13611102114488097,0.18982888608590415,-0.09362582640814114,0.5427875356043672,-0.07333783086585487,0.17194853538101842,-0.08628127387270014,0.9396508793096562,-0.3103432343613211,-0.1424544898174785,0.656927816114544,-0.8971972054862776,-0.8337583224323136,0.35391709616729017,-0.9356537463510864,-0.1450209582625283,0.026170337347485917,0.5988281053438145,-0.30599442508303043,-0.8745724885283268,0.39650740535796025,-0.5776916537711194,-0.029285801060475514,-0.5290053654023634,0.3948508394153283,0.33373612671934927,-0.04838832687751182,-0.43551094842328486,-0.8323332325947652,-0.869889121795788,-0.42607937360716175,-0.6238861581511947,0.25174239507173635,0.16460739581860628,-0.4702712961485558,0.7440491248830179,-0.565339148812531,-0.04523085709062191,0.22524509093402978,0.05154030046275615,-0.7101806754155906,0.4230281043217916,0.650414331577875,-0.395803831049355,-0.2285375562021703,-0.07653738784809505,0.916385267848594,-0.4390463430537084,0.9425058885520465,-0.7765739370892137,0.8616524307725473,0.28960700207486934,0.9930171437295312,