[{"type":"com.wsr.layers.reshape.ReshapeD2ToD1","outputSize":54},{"type":"com.wsr.layers.affine.AffineD1","inputSize":54,"outputSize":500,"rate":0.005,"weight":{"value":[0.13190344022621905,0.6820453398624532,0.33322823124424494,-0.988174430647174,-0.35787544033874447,-0.9592014251672094,0.06800500149680021,0.38424987955791945,0.9037853269359208,-1.003386708927547,0.789948005311201,-0.0841513644670785,-0.05539031934202403,-0.37081481358394214,-0.63454883018847,-0.29496391971968433,-0.7942478109058253,-0.061202819611786786,0.5914162769180795,-0.6706611758596358,0.031178379420777884,-0.43754985907495025,0.040859658373611774,-0.4866523716731961,0.7311462102181516,0.6127365818778645,-0.7703430363781576,-0.8649654829991887,0.25102852004070814,-0.17519824214782684,0.8409569509292406,0.7761059506081776,-0.7240716892080477,0.0671175240706524,-0.670562280304648,-0.4188351020466306,-0.8120148455795699,0.5679273699247288,-0.33724118604911973,0.9581589137136973,1.0034287739431693,-0.8288414341615034,0.9314397015096211,0.6934783109401891,-0.27739448690052404,-0.09578101962354554,-0.6919558259688733,0.17191648973373588,0.04111562062487276,0.1356865681475384,0.4691334484835407,-0.5693767376008768,-0.45646867541907243,-0.10946438887700816,-0.1467074932506205,-0.16708542527970263,0.26577839113245705,0.1993110375561641,-0.43705969884628554,0.6458562488309819,-0.7640424502405719,-0.12453905562970942,0.41494733936943484,-0.9964433234955269,0.6102598062276902,-0.6189844069068527,0.966560013004807,0.6261124709762859,-0.6638220527351257,-0.6665294455968166,0.8522628447098387,-0.15050262352116384,-0.7964144216312468,-0.23999703607954043,0.7728511540281576,-0.6301476155731087,0.17798046383877383,0.1741778558899332,0.1776947860469966,-0.4183117348700532,-0.39548117768025165,0.705417105991252,0.9720863449155751,0.24293017068869718,0.5551906136871254,-0.9511704880012114,0.12300860993449782,-0.6228892558362896,0.12745835224784904,0.5754682624496142,-0.41840092958901026,-0.5364259383480819,-0.8351360799754393,0.9707669515680705,0.12639967254378615,0.5665992287079239,-0.8853682646076982,-0.6686237176120062,-0.5566373975602563,0.10355085820042503,0.5973529584160261,-0.7788860314652556,0.42835079981888824,0.17637847918981067,-0.8889539420477851,0.7217580391778562,-0.9287039146746314,0.84599318751214,0.454510436545236,0.06523013573171832,-0.03435760264048817,0.5443395024855406,0.9157729068699002,-0.20913674690148823,-0.002916292698636679,-0.8869983655521756,-0.568923042706942,-0.2296214948514053,0.003355051599488755,-0.004219362009108219,0.5553123274503424,0.6464368781452836,0.5685494202825478,-0.41418546317208865,0.9659860856308599,-0.9142694895395777,-0.7628656927843933,0.3553226089355242,-0.5465605982092832,-0.30417800109704174,-0.30572994875180187,-0.3226594031454267,-0.46817418808501243,0.993979585659637,0.9404025729569442,0.35657250609012897,0.3193822983673217,-0.04594825892813794,-0.9484427524912358,0.08940387126998392,-0.5902343651924262,-0.6405889210861533,-0.611180325042069,0.850850346780733,-0.912918119965295,0.8248631635381134,-0.6913213652348719,-0.21428942337129048,0.07565740654802197,0.26176817641989397,-0.7823377172300665,-0.17273544791305345,0.4429799771033736,0.8637285727804986,-0.6552251887795102,0.2281047636483547,-0.7288320805409167,-0.2162775494721364,-0.5725960096557494,0.581525942011458,-0.3763731536852857,0.9728969536475922,0.8976597375866573,-0.04908395573482711,-0.6737678089576565,-0.9447361534121281,-0.4986875518224838,-0.6015330287929694,-0.3266095355222808,-0.5078300409463258,0.723465606296459,0.11123642653030949,0.627247935612506,0.24438225488746027,-0.5163009065530441,-0.7961787623396592,-0.13631130976103278,-0.5601289009093569,0.07670599036642603,0.1800670720288481,-0.7620126710976112,0.4741703717489838,-0.24334043250063514,0.3522290704947218,0.6716855134700019,0.44461533241021334,-0.9898014951330408,0.7622548407613263,-0.49564834132832586,0.04314214321609265,0.04623987390289829,-0.46273667415922837,0.7076868514814555,0.8619854581281282,0.5104288434695391,0.11140882766649789,-0.6715476431042602,0.34171227014648997,0.8104441775712639,-0.633781974555779,0.968196056405175,0.7857006620211144,0.8766969077058417,0.9060984816565453,-0.808819970023931,0.5239157615952028,-0.3097120903558858,-0.33570738275065437,0.4752192267010001,0.7253703683376804,-0.2897926183145433,0.2766492294610672,-0.29190599482850116,0.35444524106472397,-0.1298453763863539,0.19834717214418437,0.09767580300284849,-0.786051079799161,0.16487934898180365,0.4661684178680933,-0.933485582055212,0.7372980031770215,-0.19734346739061873,0.7238875656699653,-0.42976490516895255,0.5443492600621523,0.9472711948813631,0.8542775762901587,0.6563321344093879,-0.927774819605148,0.31696492162441864,0.9674679382833192,0.9270606065467871,-0.5544566359437239,-0.3668934611246264,-0.8787494787523593,-1.0048050340680772,-0.022144443889779066,0.2424497603134426,0.3148445466940166,-0.3624865851775519,-0.9519456992533751,0.8442706638948465,-0.8109026471366638,-0.44810736614780194,0.09014968644345571,0.9708749370680465,0.2427704911233551,0.5211755159931108,-0.7800357751819371,0.7465453298148357,-1.00241479103736,-0.009398083532534005,0.45866006733280823,0.29547983520220933,-0.24598679759055578,0.03655744118601085,0.17126691620408047,0.8693424700641594,-0.8749972868662123,0.09062566969897878,-0.10930510914486052,-0.7301775642986783,0.8542765108748964,0.2938424262286916,0.6534148113815851,-0.018559501476166203,0.35352511469419784,0.17516733695641848,-0.061105255250113795,0.10771534846193807,0.22210775949167444,-0.7180825413169475,-0.35377513321325144,-0.7234116780476324,0.061852107053308805,-0.6659587823105478,-0.3332327865448947,0.9679651738836808,0.822242168995754,-0.9690589981445424,-0.2830940499260247,-0.9093201001113863,0.42772943407728564,-0.6818098689971436,0.28211473402322035,0.7157613665388357,-0.19484157303196467,-0.040740219540647084,0.07494468731863399,-0.005351201005102068,-0.33268275205914605,0.06855664566415488,-0.5536112221377121,0.6081908332292074,0.1416418724447777,-0.29203654665521284,0.21584066159958984,-0.8444662717319736,-0.7375211969402554,-0.38859992747746425,0.14624124284574305,0.707090666992738,-0.05046761039266017,0.2871240806981738,0.9215401754048271,0.0433984345310284,0.840058416497561,0.5584306290046818,0.38312909495106706,0.31058736043416457,0.13135409068690668,-0.30911715004958035,-0.14056745869255347,0.7371508374834151,0.3861223558698118,0.3021763254895854,0.6850211073008885,-0.4857432141779718,0.15452420049006013,0.5500951666276908,0.3460335574255889,-1.0129923062189117,-0.9587220433761608,-0.36095729487850176,0.06266811967750424,-0.08990880034185751,-0.37417497176027886,0.4880488511648047,0.9834904227227936,0.8123310328456996,-0.6313980433135478,0.020970211366974495,0.2769314664308716,0.7828090806078315,0.5318093059950085,0.46101125321896674,-0.9244082346713879,0.1665124216487815,0.2849090521035722,0.8120700736742466,0.208208096816811,0.577059277905642,0.8200962649761108,0.7244608208222301,0.5972350514451864,0.18684556263071708,0.030808142824299896,0.47864393126627686,0.8492699560271766,-0.5754421006750065,0.6751636394671151,0.22581870835181517,0.6251515799144463,-0.6841543126501156,0.85456645494927,-0.11753548951223602,-0.5769781869164967,-0.4778165075527702,0.7065553253759331,0.4427614875430726,0.08425944375824931,-0.7375677417217851,0.7588848957496622,0.6244976763698082,0.5183540581960528,0.943242259542136,-0.9747233243283033,-0.6988666735046957,0.04119034471759245,-0.688907727835101,-0.4542993732393448,-0.7975000346547766,0.9991739426752352,-0.10655661074590381,-0.5644162396193514,0.5987430493025341,0.34675711640664,0.3520314978118111,0.16414156790023407,-0.7161011368221943,-0.3464022130754145,-0.7651944729406467,-0.48297272996167345,0.44404866853942293,-0.4900472688999799,-0.40382325531350977,-0.05960683778455197,0.5175790256813877,-0.7526588959312077,-0.7648429887779297,-0.97645415236081,-0.0505638274348025,0.6211517466499431,0.11085657574437784,0.9443248577537824,-0.7365229475416883,0.7098376269192982,0.6521914094411954,-0.5411661072683189,0.961600314035516,0.9153643698884685,-0.12353465604571544,-0.8658635085358399,-0.08689361548161381,-0.5710779583802847,0.1627480910392061,0.7201085682631734,0.6636953984247684,-0.9770292854750766,0.23140775604712766,-0.35553712861112,-0.11887182097058972,-0.5370125636514826,0.2881954123116206,-0.9686851705907434,0.8619116652683181,0.08448775977630574,0.4660040353114021,0.9433145423462991,0.6729134019910313,-0.9656019525331633,-0.7414866011734899,-0.779619056627952,-0.4350952211302342,0.2326804666633254,-0.8590409689721198,-0.7983025028309951,-0.9606387204638019,0.08413143516477863,0.8779148007653907,0.5192928029436601,0.2216586324282517,-0.13022326249523797,-0.3846665983476467,0.025690582696086185,-0.6204725891627259,0.27927808674451315,0.4855607923199705,-0.7414709715121793,0.584375147248791,0.3956937213265764,-0.9361345361927267,0.18953402434266992,0.7692953043703227,-0.3567165701094929,-0.4316573097365588,0.5386669454598825,0.8022412521007825,0.4301579134725328,-0.06426561074131919,0.8125148832355193,0.09153920549817912,-0.0578653550516913,-0.3101510336538921,0.5263644048381068,-0.8016360662293214,0.1354130239284009,-0.25967706138553237,0.36213264677290996,-0.3612936535933884,-0.7739677810703943,0.5625532700468446,-0.6388986627714036,-0.2566973721847745,0.15867039588542936,0.08804496106647809,-0.5126753981897021,0.029329143331734482,0.23399284593544556,0.06597446216748287,0.01138285337235267,0.39019924793837424,0.7699072526910355,0.5839018444966361,0.5926840176978192,0.18313724587042401,0.9145916310141472,0.3189646087680116,0.06497443804467544,0.017523180004547053,-0.707416514366703,0.15045443440550305,-0.3595358171807475,0.1785038792812965,0.19679756287621794,0.2264281355529891,-0.43165286395176555,0.6404397709257779,-0.32004215728188606,-0.6511731461579455,0.060607554307481236,0.07062854656722023,-0.18299511349011402,-0.17365460362777682,0.28407790225090473,-0.7201495131989427,0.14881956919302608,0.9296401155614165,0.7450569242809484,0.1616535782863058,-0.1280787225408015,0.914095574599809,-0.23265139557307685,-0.7848149948411611,-0.43991009144992094,0.45977947265283725,-0.3591631669462517,-0.08410075513073657,-0.9509751432574478,-0.3707997604486492,-0.08750577971033259,0.7832215391309589,0.9057048904497249,-0.8325694335825103,-0.4672562280203839,-0.03937124997449512,-0.9165554769786288,-0.9850901993643747,0.45966561124592614,0.6067464292806662,-0.8854863774060525,0.5770541670182542,-0.991097027131676,-0.3622462715356572,-0.06887299609915122,-0.9810612231715191,-0.6462634961299988,-0.033067405189709305,-0.8309373239656977,0.16191928178992546,0.07384167422009691,-0.20739072444052667,-0.19707416216927026,-0.7192829647697487,0.27537866945174444,0.7327511466271426,0.1465758720683883,0.636989957703095,0.5896063767703985,0.7182538775478468,0.5849534884266814,0.8057805852248637,-0.8382084396726432,0.8861703268230852,-0.8285325948606082,0.1762033281142106,0.23210784874542714,0.9389806568188112,-0.6950315440774235,0.04339730497514173,-0.43953867906250405,-0.04844387515252814,-0.7160529751892397,-0.2187655262048605,0.1696916901708384,0.6730712733423496,0.6121423736176143,-0.38175561442773776,-0.9512276616974137,0.792306344563921,-0.8430170132044665,-0.10343253477467751,-0.0637690581029922,-0.016732046491340528,0.5028888199534574,0.7183937703931472,0.10405779881131565,-0.3191343531191617,-0.6594549693629695,-0.5862045934607373,0.11192791704772144,0.9623845344328842,-0.6200624065260207,0.2867078194048189,-0.2700021860699393,-0.3895445406591702,-0.8033795210530651,-0.26612623663203966,0.5879918862823004,0.12238493056934684,-0.22226781281319008,-0.7014114517345703,-0.22933479795873746,-0.3154052262872946,-0.031375243170884685,-0.7991345442550195,-0.4036683295438552,-0.2547765554566659,0.7858781532810807,0.5803692830717578,0.9230851032029728,-0.8142253654820921,-0.3099092375371852,0.03258971196266759,0.7770791536539529,-0.4998836988074505,0.22388839990685921,-0.34974833586159626,0.2397360171231899,-0.6905507729202324,-0.39781225550044297,-0.5555480225011045,-0.14543766196742008,-0.3746844910894168,0.534093939333612,0.04725155839116359,-0.4334362028270815,0.36917967587740425,0.9660074822356945,-0.8435060301679159,0.7548903561154765,-0.2902592172330199,-0.3462341566413791,0.3287356033880503,0.8679512846804346,0.9295341108247352,-0.7256368666810412,-0.4150838378574365,-0.3228617546128456,-0.33456364151514634,0.36983713180006644,-0.21885185803225432,-0.7386525317891952,-0.5276618144432743,-0.8926294072905239,-0.8460230274211457,0.6716981122985038,0.5521765611486671,0.4056407606606772,0.21414338284963055,-0.9673647753794088,-0.5225051347047025,-0.9153832526527745,0.7110481237990462,-0.2438646178294907,0.1833454515826361,-0.44629449271686067,0.09150118157900285,0.5163773447017915,-0.1991762746876826,-0.5073043378393375,-0.7553368517009126,0.96866012641106,-0.867961955944062,0.9079374943117982,-0.6642230906457117,-0.30664014998586436,-0.861061831427292,0.9968664864880237,0.8339444612918823,0.3942759038718936,0.7964459409096275,-0.539011109846295,-0.2479742746838693,0.09076759897771905,-0.05748315689131624,-0.5489895036073111,-0.5421874551441196,-0.20553635019899585,-0.12707066028181865,0.00824089119165703,0.7592452775907496,0.4939388208940209,0.17864141488697985,-0.839232929687543,0.6780881860493903,-0.3937112929768151,-0.5455604572225043,0.31783035988626335,0.049423194287669885,0.0303456650012622,-0.7580545979122859,-0.9365316851150636,0.5795215510147957,-0.8339920873237704,-0.2611229080715713,-0.35020938157323517,0.15285337213032124,-0.19044347750512755,-0.40892139499553254,0.21749593175353166,0.31857335325984837,0.022642398791051687,0.7160052272815466,-0.4357245385583319,-0.5913030335378634,0.2345339272643836,0.7229409570430875,0.7180367262933965,0.23917564649219109,-0.07773131093222158,-0.45590835147072034,0.9669177486053349,0.9977320135170756,0.7688259694994242,-0.0670768832102015,-0.5418168337170597,0.41402310080388627,-0.06633358415103405,0.997096701183659,0.24442420872910955,0.6941907468849868,0.7217646670590974,0.6478519518815652,0.9765472660996963,-0.09105868205947017,0.13462643175199648,0.31526281309498777,0.4298331538051675,-0.9112821993155534,-0.6589957541772703,0.7637736392085006,-0.8281778862608935,-0.7860319955277074,0.5216372793270693,-0.12630426010486248,-0.9154085433966123,0.9317195901301079,0.2709329554912287,0.9295457829375954,0.7453577124779813,0.7683593119355593,0.09410219908047501,-0.5128465796695642,0.5832930752592034,0.8516302963666955,-0.35178437939046797,0.45956146901376455,-0.5471700140507174,0.32993152074354526,0.9471883096542206,0.46462180430689776,-0.9770522154071991,-0.30060185620127194,0.21183462455124422,0.32539840608617027,0.09841332515139281,-0.7656096341292731,0.6336335505455328,0.022617870626592623,-0.8934744822671211,0.46614524175517863,0.22109815009095796,-0.8699110751491168,-0.7619704469667611,0.6363122663099613,0.19759881905112298,0.16173272922775858,1.0011229631896903,0.36793986171428766,0.10065191304966277,0.3003112780962542,-0.866434324190989,-0.8876849680675888,0.2190041814028711,-0.22241559994379323,0.3573072331772789,0.9624872692668824,0.806491313257776,-0.5733268455324199,0.8621506523184709,0.13387566556358704,0.9112133173939946,0.880880581388272,0.408276811268661,0.4721741507511132,-0.7377810597777228,-0.15365572497677174,0.702032075215816,-0.9575474191091188,-0.3014388348895362,-0.8523645538837576,0.3112108647567977,-0.2383938828093089,0.9039872643856769,0.13236155723674964,0.6017339130010452,0.28761074899970557,-0.18011383373171877,-0.5818078951626426,0.866269592607536,-0.8371266353879234,0.39845471116260417,0.24919301829854806,-0.6509529825282678,-0.19941532843279908,0.8540337037590784,-0.10886930197630255,-0.9750324019281825,-0.42529620023817566,0.36993151086921316,0.13540749027720309,-0.28426815965375013,0.4166081027655858,-0.2283571685791657,-0.22475249168232247,-0.21869918351407222,-0.4511698457706856,-0.4319174468489544,-0.3554864343263777,-0.7678888965789897,-0.7350506577598459,-0.24189493219151115,0.005282177051106871,0.09020487659539228,0.48950356285283114,-0.3757803948728394,0.8692820556975106,0.37378814152088624,0.16759927711527012,-0.19965959280923623,-0.2937683409845714,0.010612589082256756,-0.5715096012158107,0.6410369358471585,0.15541198784154142,0.8738607916650486,0.5372309833496822,0.36680917985061595,-0.6401575587858362,0.21920648334527412,0.5994619133162205,0.642021766852235,-0.9681272356544625,-0.4535054015024131,0.7617654473080004,-0.803889264750403,-0.17560052537906834,0.6042277399468787,0.7282934590287364,0.25331035576861705,0.5103831421946269,-0.9094528927072415,0.49456478508618784,0.3601035204073244,0.08591830435860037,0.9041639302738506,-0.31176223526978364,0.5166059449985114,-0.8184409282550845,-0.3146329318771153,0.28237359313214305,-0.3465338922300239,-0.2677314972525657,-0.9952061617490598,-0.7286617221024064,-0.025212072192531843,0.47400562581044164,0.6421526939674805,0.32382264870136546,-0.918917212692078,-0.81862470844167,0.02198317010679786,-0.5910603602665596,-0.09785551543716352,0.5612270472336255,0.817855746572661,0.5905485164998642,-0.0886023742462586,0.2793216654918767,-0.5006214796837432,0.23655439907860554,-0.30968593437348435,-0.3656976217592201,0.2258926877383245,0.4876024110447668,0.3643627358501584,-0.42821710642221733,0.07894756214229888,0.334855220941344,0.38970490787614015,-0.3583877837279381,0.5394497747349629,0.7465503199653438,0.5747209418144942,0.24502260224981198,-0.03334917360841003,0.15272044479243346,0.6658928971279396,0.14452597364978573,0.13375463257041154,0.17997329642311083,0.29291365265614894,-0.8324534971924987,-0.9980363427751533,-0.27667764852603155,0.2943094458530888,-0.7600317350439744,-0.4392085918988792,0.3569739267109207,-0.6577324504297685,-0.13934063811988662,-0.8576273376805373,-0.7009495771834781,-0.22754261561208677,0.874796495326341,-0.6265683707778748,0.3599482875898865,-0.47935530579796787,-0.8064619792779711,-0.017277856771801246,0.7682430362263362,-0.4480384266048487,-0.8317703017826252,0.1890044528182354,0.0134831665717002,-0.5586310261540794,0.3544966248112322,0.8374471025434528,0.6659064930379508,-0.5792121393967365,0.44310266555237876,0.8323372200921353,-0.6884710128397372,0.4097690147667313,0.6810767013782395,0.4285211463339635,0.07791761824772701,0.08561139880119739,-0.7081391021454895,-0.457666977959402,-0.8457451379672063,-0.3230244220670791,-0.8742910296979033,-0.2991299572674094,0.9490211415515392,-0.8072856074068608,-0.9527559629543043,-0.07575509374018145,-0.7137994081375153,0.29506330279461745,-0.6889983095333942,0.07137679318818105,-0.6803218788213288,0.13384909826237115,0.6058848739351637,0.601470863644115,-0.35253238828962175,0.20471973593238454,0.47694745700245317,-0.9193653436884954,-0.5810813580457216,0.4257150147972595,0.594719728440203,-0.9188308768577718,0.4514615437409189,0.9018744210934954,0.2752171344869353,0.633148243135583,-0.10435469789011395,0.6560844401225979,0.5056593458715344,-0.9565187612410398,-0.8312096515860355,0.7333490983028289,0.7679555698953533,0.7635562377587245,0.7325474219708578,-0.09441960403970659,0.23340259146793407,0.39649868134900784,-0.6098658636812881,-0.8111160224493211,0.7480879265683887,0.8461849299056985,-0.07609872567693599,-0.3517321397708763,0.7534952222920878,-0.06805339049571892,0.822088988822384,0.2687147828146783,0.7418717352459177,-0.2982693930938259,0.15920182241208808,0.906044403114264,-0.012071272647397477,0.6527607539345445,-0.7806000198611446,0.9358022551960294,0.017021236467819688,-0.8971921426337898,-0.18036616953058449,-0.0026670583161655373,0.2636653176091898,0.6550559426285038,0.5017397240258693,-0.3821480141712169,0.6443446989290057,-0.9603368780475465,0.13634295314105913,-0.9230293582543434,-0.9018509416309115,-0.4489017626043515,-0.9586145704770775,-0.2697859583918265,-0.9030915148441279,0.5096607037216269,-0.8495488759621983,0.9127468634190515,-0.4950813213108654,-0.07507948209433825,0.5275992589550126,-0.2367140861276061,-0.37654203461185837,-0.6587435462014569,-0.2394187034412833,0.9666004276359512,-0.9790462587933688,-0.17279709706891877,-0.10960482391004807,-0.0065025646059351985,-0.6862552418366479,0.8806042977323892,0.3646483796850976,-0.8266081974558869,0.1468487768815265,0.11418874847715214,0.1188237050600831,0.9040852277116747,-0.19994931170982325,0.7435026097428497,0.3030301755102653,-0.9177975987797679,0.8325603939434618,-0.8066708302130953,0.6476644641669714,-0.14035804596501783,-0.8801028971400225,-0.011267765815494784,-0.8698376162981564,0.4056729485725433,-0.6734244039728977,-0.6706436420836728,-0.13666411121289282,0.05632465849753931,0.4526412297160039,0.09609750578623147,-0.5867730683279303,-0.9484498983520513,-0.048327111083726906,0.057822844186716627,-0.4018785743975167,-0.2796280888932879,0.2010900590447572,0.09652136251273583,-0.45569286709528106,-0.2731042431668265,0.5121718072543002,0.8855170751680549,-0.30603439449975944,0.20245840440870527,0.9831896747800691,0.2132626652201524,-0.04133058379109302,-0.85286680272373,-0.5902209732370353,0.04810054912739474,-0.3911061728513717,-0.020782052617130106,-0.1663415272973657,-0.4624436725924404,0.03125241485107776,-0.9355190780134085,-0.4709818625261024,-0.259935409227765,-0.7280074027399454,1.0157022911797204,-0.591502799467265,0.5260406649150755,-0.17839059132961246,0.05089846200846016,-0.16558785132669024,-0.40355276309496113,0.3613590322188812,0.49609583167061394,-0.5892020980357522,0.5900577497019274,-0.22691536512242866,-0.8199184668399374,-0.6964777677439487,-0.34401452299006263,0.08891558242795534,0.9704300275425184,-0.5090448677666322,0.4618818962493961,-0.9913169066036808,0.9447684565147259,-0.20571972529170954,-0.2913158559065479,-0.8851957328110995,-0.9700524367765987,0.5509183664529166,0.8877172558758368,-0.3198864024378861,-0.13168635807324047,-0.27827298276876533,0.47984189389690785,0.8042805996341884,0.14232409269268212,-0.6689375609581301,-0.8771227910434397,-0.1363506811862643,0.45641497754988913,-0.28568105914775155,0.4482367358516117,-0.9139749142132013,-0.17046706281626992,0.6758345704928381,-0.4797259295011985,0.14474222817390928,0.7995801102145192,0.9178063783513374,-0.9501993646267094,-0.14468102899040172,0.5192274698650868,-0.6085157081083052,0.1429467243688315,0.39211424361496094,-0.12530186727658202,-0.08251145216908151,0.7355181313687792,0.42421835275667213,0.8934436396681371,-0.3891687011731864,0.22338644287397783,0.771816257965863,0.6391967107600149,0.9132302744142896,0.08605210821953747,0.44845410751016657,-0.9843583950912076,-0.5964225479829022,0.18417111383832607,-0.09401657871440056,-0.30515363549268737,-0.20005470535294745,-0.8511428336309534,-0.1695967135934873,-0.7947677400766291,-0.24802743148763773,0.6036531978751304,0.16688595203101486,0.7234093703872536,0.5791681300917089,-0.23139226031171148,-0.5161943377555585,-0.9993093287959195,-0.9357491007086818,0.3779773419828635,0.7769971833192839,-0.21962384787537645,-0.635185127495249,-0.14804830110827816,0.26049748071677836,-0.43126541394701273,-0.41729053662338417,-0.813609390988754,0.38580923077837065,0.2923105766749423,-0.8866184929087336,-0.9130679686896134,-0.488017287905369,0.9010806326346815,-0.8332819931836035,0.328303678699503,0.9005469425015785,-0.2699925482731078,0.8260941414872615,0.6043904474668144,0.3364837153051419,0.7042018011265099,-0.43197862166747547,-0.32111934440369705,0.6532820678615682,-0.06217317364344793,-0.5699988100408676,0.2557164185340584,0.7962622819753065,-0.31278274961388336,-0.715458759053278,0.32830281647147963,0.848462340851013,0.9122188191197409,-0.6213905187356799,-0.24663028548804364,-0.7435634439857789,0.760923063098064,-0.8532691156463694,0.8064019944233767,-0.49350252598368843,-0.9527111918811055,0.7782876189154391,0.29200868014940806,0.758009882541949,-0.5977329884432802,0.8041032964273616,-0.15725856466011723,-0.5480785356228851,-0.752167105662315,-0.9508509559463882,0.42141072458644374,0.5922713449741215,-0.4041098059384609,-0.45249733099065453,-0.5500236234055962,0.09893687780249427,0.1635094082182517,-0.9236848140739663,0.24420674195313077,0.1111152466696395,0.9469637972545834,-0.8899661277710084,0.9601452828089064,-0.2980074678362602,0.7461644103119821,0.2928289045276281,-0.12092007351857754,-0.7872213029558025,0.7506573037720256,0.15334219775556115,0.10771726173603441,0.6026264924314936,-0.5932477239606108,-0.6015509574854228,-0.9841962356291742,-0.873556958614101,-0.8397476978443845,0.9802954213598171,-0.3381208085038773,0.8122889954195335,0.9763673189601478,0.15857281950875207,-0.8525204222187168,0.7493678028866062,0.9520661317788558,-0.27207978546354616,0.3585398662574989,0.967287293745487,0.9905992223446549,0.2826340452944785,-0.5829726538794704,-0.503660379847666,-0.7466167846728339,-0.9144166849160813,-0.6018598023690762,-0.9602452184727576,-0.2596400555383962,-0.9036318411817796,-0.4253644345139453,0.6607255647673844,0.09396590433853663,-0.7914392929749945,0.8162501201567773,0.6649789927751845,-0.7166322259886825,-0.16786476719738197,-0.2625457324631353,0.5758101875090247,0.7621221907031732,0.7410063548999509,-0.5948783258571517,0.5756678951669988,-0.5147355129326029,0.9230893189431627,0.011907534435495632,-0.36303598144044347,-0.7883112542573641,0.799218376953799,-0.8903753750262128,-0.11072779524590914,0.5952855371019895,-0.33469460153082875,0.653061463984482,0.042299087682986854,0.8231888430961509,-0.8887697675355667,-0.10717923223185612,-0.9182043327808751,0.7731648720427328,0.9129011854784731,-0.5693910076421814,0.10837006005871107,0.7312806292055534,-0.6339951254990207,-0.05395731639927971,0.8815887213959589,0.9287013566035126,0.2294841702120944,0.5686568818989852,-0.6227401356129578,0.7123844048140746,-0.7782670269696552,0.7282392734494647,0.45519445567102296,-0.3914833912873528,-0.2334641551173321,-0.8000720948700606,-0.5963308533827246,-0.3598931698434469,0.12586119626807224,0.945002340047594,0.8547005138546877,-0.806170532215257,0.6590273051639143,0.8510869571803625,-0.21307981960308145,0.6139054756878347,0.11803598695708835,0.7269394534959678,0.8710942582380778,-0.7366427913565607,-0.7591497879809482,-0.7271838203393887,0.5229054163104886,0.623544147299786,-0.823691047144547,-0.39208838216664166,0.23649995157147327,0.39820287089543777,0.5102346040001299,-0.32270935278092855,-0.2324336384414523,-0.02977740131501147,0.5117875367787574,-0.989476795829305,0.546992311263391,-0.1634871633190991,-0.9611104950984588,0.881415805039975,-0.07681763684410346,-0.9282689118622554,0.6310380085204871,0.22254658476365977,-0.7880079438061169,-0.9401624784275221,0.635423856827652,-0.9668634186427113,-0.6824166146048573,-0.224564057717652,0.3886288580106008,0.47506135170813074,-0.9896470338147284,-0.38601701163282265,0.7454755334439309,0.003928598441834375,-0.9615984206021566,-0.8739292687733172,-0.057601056973786306,0.5587331998546603,-0.8144663647464067,-0.7251387503022152,-0.5093966144830099,-0.40621928540555524,0.38668733091921875,-0.5333016263306753,-0.7819823176180227,-0.19117852875667002,1.0059955617332044,0.09964736407505724,-0.1312492178634001,0.2737395137116404,0.7358947027016615,0.6584952045549447,0.2421328333242453,-0.7757300867932359,-0.08203816039365257,-0.8596652789195957,-0.6055478426933243,-0.9365478537695484,0.9590194367712033,-0.8564285397634309,0.5438874231831191,0.2544956885449659,-0.09868695360131739,-0.4349932455794921,-0.07695547240437242,-0.432088224839005,-0.30076620946782745,0.2759483951738474,0.5295879485119066,-0.7799228334440692,-0.31083597025438053,-0.1392500990046843,0.41701793969050427,-0.7458579857833672,-0.38165810604654793,0.6602776346954604,-0.14882847044762665,0.10530738540480679,0.7728628111118535,0.7080641619051175,0.771425946963797,-0.9108878165753318,-0.7856384252154771,-0.7615789327124209,0.6515632573553157,0.798675545342273,-0.3455026192320212,0.6374841228101469,-0.7747870428108404,0.9727376347689222,0.47637128081719293,-0.20512137721246249,-0.25740017050975617,0.35079791046265674,-0.034579580303312075,-0.8092088683489056,-0.7907334904201645,-0.2187645257971872,0.5582094411464712,-0.07256398526709952,-0.5290289422969952,0.5047477508432293,0.27280243456958275,-0.7387004477099646,-0.3946915899477067,-0.7725258956819382,-0.7153355587572466,-0.276999654929253,-0.2798399458297638,0.08614261959773512,0.5860541833735986,0.41270855413943053,-0.9147318258385418,-0.7635292599370538,-0.44120346369924446,0.08344920414949077,-0.8149932070170502,0.19103652928005324,-0.4515058850911022,0.5669218610902531,0.3322728254393844,0.7879201918527852,-0.8499505370477237,-0.10481469171721147,-0.9969814876500932,-0.7338589487957532,-0.004667552339472304,-0.6633393118349842,-0.12934382645853237,-0.44388370846476466,-0.7895600895790013,0.6127061587566636,-0.12217169119398093,-0.925869718715402,0.2512951881484604,0.5270972109562249,-0.30608754478004935,0.657367719203536,0.5144646234244188,0.5082279734684947,0.295209869372906,-0.8494247699144373,-0.8155913158094025,-0.8561483205405801,-0.8895662589172183,0.6638126475390024,-0.2775837213554456,-0.1619799179451255,0.9356992929955028,0.08406565830650789,-0.16388110385953578,0.956967020923984,0.7597955307531737,0.3875687849592433,-0.5990056002943898,0.7624616922363454,-0.2544229936788768,-0.6667292771006553,0.5891558477062669,0.19352998351571377,-0.9015501423215925,-0.6179698918800903,-0.7399448095268615,0.402173899055589,-0.28583168009024323,-0.48122798003196504,0.31701486840539117,0.057874907324002196,0.4962620358726936,0.11539651738627153,-0.21692085364461464,0.12876595751922043,0.16143228562092374,0.010981939763147168,0.9949070730046677,-0.21519752676152432,-0.07450979666503027,-0.5166399777824241,0.04071719742860613,0.32025392380165685,-0.7146942589504226,0.7922556363487873,-0.9459412261076015,0.9904868897320129,0.6927993934974218,-0.19030943595016406,-0.6274071114976311,-0.3745421781259677,-0.15834740919611465,0.6530058991132356,0.40285654531133,-0.7533695072662092,0.8591176750689737,0.7039421372673156,0.14943307196468703,-0.17073376401260587,0.15492652242857316,0.7241147849592816,-0.7554472671145808,0.773480225281934,-0.6824907068743506,-0.016544045328812772,0.06782854164460798,0.05952763842879926,-0.479126690000442,0.08118802855744948,0.09877554667460038,-0.13045048941717463,1.0195441250400212,0.6138959802012144,-0.6019475271281719,0.9805509152023012,0.09585566697721443,0.1948093728110113,-0.9278153272708531,0.6667246283138814,-0.15781716689999298,-0.9320214284294037,0.08444587458850338,-1.0010821794073284,-0.5703389190061572,0.7243968492590823,-0.4635775138682716,0.8745750007500499,0.09075581307850995,0.7450517574581779,0.30543119631810717,0.14058030930524612,-0.9539042366503236,0.7561141533133898,0.022213193543426313,0.39594875688116,-0.2955590454029002,0.5673736255233752,0.20570604055296338,-0.31834716665012597,-0.9778512177359433,-0.5833564577636231,-0.5583671285784361,0.8439228310442066,-0.12304999396574014,0.25290154027006617,0.5885288434350047,-0.5603118251529725,-0.7470479200460203,0.4872834226084668,0.9254288532219321,0.9269330554574678,0.026912603117721128,-0.6004627817516228,-0.9067543550439924,0.6005165684281216,0.9344713007476737,-0.7039613154419171,-0.6447651741888066,0.611473722681156,0.6003556609833534,-0.13638115532488285,-0.6097964773412481,-0.8999531673536504,0.04706582766885727,0.14712248476612882,0.03622627490412372,0.7312560346143214,0.714401645675174,-0.9342794755280955,-0.31052501833797364,-0.21823931255454831,0.41337467360528535,-0.3514100983053078,-0.4149137669358238,-0.8469941137260721,-0.8794049877517174,0.9747841249372032,-0.6271437433998989,0.8439318055381223,0.4275737597222192,-0.6768830243204274,-0.7391549190213225,-0.43429121566419315,0.6923166305994823,0.5862246298329187,-0.98780849998615,-0.5626703042910877,0.5675062243538114,-0.9523756982218685,-0.2502599976345635,-0.8777740798228336,0.8681362494597871,-0.8865266571963883,-0.004317104258619169,-0.04395522669854954,0.1523099289037223,-0.03329959490975831,-1.004654000155609,-0.8679514848474543,-0.28207521601924057,-0.009737367885494357,0.5812579350788233,-0.3716870279019121,-0.818113659568559,0.8311684206248292,-0.2769215566487321,0.7306782029444839,0.9756366746977856,-0.19067861701933045,-0.2766423124994474,0.5121856515439455,0.5336977010736776,0.978765113068185,-0.06873432623244795,0.6092289359448955,-0.799638259924052,-0.20682010818650906,-0.24632068982442168,-0.8631765878916887,-0.3087911844936186,-0.694803812225804,0.1288860829175673,-0.3996713321420733,-0.9657379059649183,0.6902106834119358,-0.5924844057318452,-0.8402939042761687,0.36904085615381377,0.21596647566449892,-0.41883374204593665,0.5150340422752607,-0.239755724117173,-0.40174318315130936,-0.9499710662361164,0.02243181708985415,-0.4973913113415529,0.6450954269076825,-0.06079134820394594,-0.11669888393940969,0.17659420294196565,-0.7929177086877651,-0.7520803780576633,-0.8260331421308286,0.8911901329755196,0.9569966980100106,0.49434716447019067,-0.12370806155856773,0.311060769574457,0.4894616893371216,0.2833830655441238,-0.3806401989927364,-0.7190375493960331,0.33125758015851714,-0.6665199215919422,-0.9089806422805163,0.5734834276560841,-0.20357344172553166,0.6260365398518055,0.808953209204109,0.25904040589101496,0.1735954940457607,-0.09719012036718588,0.04659044384705172,-0.8697125539511485,-0.5621264070363157,0.6882284722402501,0.9675769424298125,-0.2974465301867721,-0.6931623502165207,-0.2956618121209798,0.7879444732845318,-0.5497383893526392,-0.4012088413100563,-0.4005720668878097,-0.12616096169905616,-0.6440730207788932,-1.0134930570568073,0.06298918444384562,-0.6568057592694629,0.19813788511490552,0.4147017174786704,-0.5568211616136949,-0.08891294223520609,-0.036026606519608394,-0.12444459019096542,0.3971197355779365,-0.32013029212303895,0.22695562671101627,0.43291371278416085,0.8374792605178548,0.3446977838000473,0.2120990958550075,0.9560583093137452,-0.28115296823862423,0.8950644968438372,0.35200253349008753,0.23814331245126152,-0.4345484766116319,-0.7612770370521881,-0.17792278613371412,0.7998212052842597,0.6508671237245973,-0.0622659892650556,-0.4250313362054534,-0.587052815481237,0.0589180123949468,0.1951466427783867,0.7489300217918651,0.49430622014541387,0.5925785052508687,0.7141340501694234,0.816877001864904,0.7996709513369936,0.7089215436291707,-0.8134071294455375,0.6901365695340226,-0.17739421775097264,-0.898264206506138,0.6859172074357426,0.05641204685693686,0.517674685860072,0.4429099648497807,0.87521468697744,0.225317983440676,-0.7565776775730871,0.09557343441985734,0.8642469545295017,0.5488692591946669,-0.6373253386133211,-0.3914183113098099,-0.7505667554899105,-0.48842072332016984,0.74854485378654,0.7076007220354147,-0.6333102661379261,0.051921824181905836,-0.6346955605967985,0.0673619803684495,-0.4808732740663321,-0.7293385969060228,-0.8527358783355391,0.16264122699825134,0.23602025824386552,-0.4012535772884313,0.1429688922769833,-0.6742969439620414,-0.34057275888587046,-0.1403612455792586,0.3605204908264946,-0.9053619832856762,0.9819143793837299,-0.6672511283362176,-0.08645522725096257,-0.47346289908322414,-0.8553612546249476,0.9480973644049479,0.4948282207749815,-0.05668835231591136,-0.6802656696732979,-0.992175025349969,0.47340054731670334,0.25974076832639653,0.5018686496413071,-0.43370713660908883,-0.22379679099394809,-0.6275744433440208,-0.2460749843165425,-0.7372640337445774,-0.8413636233802992,-0.7756046731028897,0.9984187720983563,-0.4057917689762457,-0.3326054130776034,0.4431000563582999,0.27095006617889,0.782390165344549,-0.7180380531573207,0.9965392506975075,-0.5263839216777,-0.18845175789800497,0.803470812357339,0.7939406381388303,-0.5165575720048756,0.8736319437104171,-0.5896707185230458,-0.5615897848219664,-0.8648725411757414,-0.8313780666093054,0.19174366128460543,0.6891060758392672,0.7328171854864363,0.18946857597775835,0.46896733422430437,0.955458171981632,-0.2833957038956044,-0.7105014783276824,-0.9822846367686461,0.5621623049497089,0.09879198844189686,-0.5846684269997726,0.7773003314563823,-0.788221388588271,-0.967993711246956,-0.658968186865515,0.007887929546256611,-0.023434207306022775,0.6492842598621009,0.8081554591592589,-0.11440206801032463,0.024618853812946515,0.29842056585274823,0.1582602427904787,-0.015956709920917578,0.24298600906216375,0.8806188928538603,0.31089620183411504,-0.27425302326115714,-0.47953611925384687,0.08409500260121845,0.4765622561396895,0.5479405003129745,-0.7138069620120777,0.9031574120251564,-0.8361262183058311,-0.694001728805908,0.6078189244720867,-0.8337477504171372,0.7671852682100129,-0.5166962601012713,-0.4366873018451158,-0.7463757123297929,-0.903410744913127,0.9566897159302059,0.9736135547638315,0.7431005233601722,0.06102761992249379,-0.865712221773392,-0.6147147186147116,0.6513353761772476,0.13793537046042048,-0.8590819922190231,-0.21114637328774694,-0.9773302768094081,-0.3577658502415811,-0.7157828569513911,0.36814440222718176,-0.8986335743910868,0.8494362708114395,-0.5226361934131251,0.23014195198887863,0.29170308382058996,0.007483940807049931,-0.8380535759983455,-0.7615570538552913,-0.2755765544698991,-0.11014977981243802,-0.6203292176507954,0.06140612308478506,0.18391582952311852,0.5860337238159493,-0.9252022578918523,0.9270856812653911,0.5890196738160287,-0.45496857751640346,-0.36923656491009155,0.522682381251753,0.49510736943554345,-0.8721663016411093,0.4433730413697291,-0.049078879769498665,0.39356802595133744,-0.3150348498612837,0.6766880541237332,0.0482684589387682,-0.45888746554747045,-0.8964257102993443,-0.005572601785958903,0.6707665382420688,-0.45584159187296713,0.04711130077827226,0.9458721710780627,-0.9140611081731381,-0.6571330845671326,-0.4198050594570281,0.16625213718218737,0.5565633489603082,0.7906405430597899,-0.7011642385661757,-0.6182994748351814,0.08922562890829243,0.6519159013041823,-0.2611231578888819,-0.15825629862303223,0.8008973061705766,0.6993088704457991,-0.4153040001845993,0.19751817966040983,-0.36332460528391863,-0.7578754966528267,0.36488194383404415,-0.16027660088767676,0.8940591073911406,-0.006054648648499074,-0.010228392729391097,0.8056045204312258,0.18613578261451785,0.05256587840367224,0.017331649275730422,-0.1645590506935818,0.956205610861779,0.7601511030290391,0.01903907374998657,-0.3024736616656907,0.5937081059947842,0.6048668537232559,-0.9573880663595467,-0.04373115800242887,-0.7951798875302449,0.09607391194396818,0.6519615621876276,0.584154594248151,-0.5755031501051237,-0.1030467801219519,0.588017954909316,-0.47556770277377663,0.46771129871064104,0.5715311019360182,-0.5581456177423784,-0.4529841727862185,0.47326312320475394,0.7887792568172646,0.050727158900786225,0.6200158079351639,-0.3833168782790225,-0.666587407008836,0.01604467607593165,-0.23604804976197669,0.6126217344833474,0.8294589281802252,-0.28368733253800527,0.04171610125098413,-0.11707637291794479,-0.03213412426715413,-0.7100347150614336,0.43663349429416737,0.060869960072859323,0.29057506634519875,0.23981078993268895,0.3319150615019028,0.9738095498575773,0.27159609165624665,-0.6532896908505247,-0.09416043589997637,-0.36826958862775816,0.37874154297368073,-0.8203056565433697,0.6855293314933213,0.19660081296413706,-0.6000079694473495,0.4045982818256821,0.27608139922139185,-0.4020372056767928,-0.7990498961256388,-0.12281966354330229,-0.14318010824036068,0.652853536020005,-0.7373757886297195,0.0937193728190822,0.550787303524839,0.6892064636591726,-0.6163320921345387,-0.05681717954483879,-0.4363679628648491,-0.7866115296290895,0.5512968392639455,-0.0665887993605235,0.8752061359173939,0.7625529126157286,0.8814150324694537,0.8520920993363521,-0.5663885083569324,0.006132321488065393,-0.4658988137792234,-0.5197868898137452,0.8894986588120758,-0.7877831885779293,-0.6478832263080385,-0.6144563989582351,-0.2590431029301759,0.3316003643567811,-0.08578772438830988,0.33710929118011496,-0.14022021367395082,0.6988889138167699,-0.9177093883183568,-0.38772283877532693,0.6663151000795551,-0.705761040764665,-0.6773333138007491,-9.687685086425993E-4,0.19666060770122257,0.02651384698739469,-0.43507792239192433,-0.17903373026829225,0.09169282947579344,0.9589242695276893,0.050920811462045204,-0.5987185522634579,0.80424562342521,0.22096726331673172,0.6128015466013226,-0.9000133883621025,-0.8024025051376724,-0.07183654933539049,-0.820069606465655,0.9512935149408476,-0.07195854282555604,0.09569544720529924,0.7012403751429401,0.6578456050659167,0.8718460547298424,0.1513248897548413,-0.6396354831534115,0.8737503167487524,-0.7877757955441947,0.22200127327125974,0.9836838479243663,0.12516937261088318,0.7840166345105661,-0.3304194514546219,0.509676632004054,-0.4850614130117857,0.46878994999030726,-0.8717345783830873,0.04005617384900438,0.62457709586626,-0.590409774706593,0.8823381555385884,-0.8063444915350503,-0.44525692164236125,-0.43678869345148363,-0.29386216047657326,0.825887613640043,-0.7652212977627276,0.007263854932759396,0.011014074757116972,0.5344249163813739,0.18444174375353015,0.9736351106808164,-0.3331414680868079,0.30790259948494536,-0.4897954380725451,0.7619319761550818,0.6489455113927817,-0.23635777320062942,0.46024470695062625,-0.36356224750909083,0.19440963055673668,-0.5021560818051,0.0927371696068347,0.49678625088352285,-0.46276270099434264,-0.9585812943277835,-0.3596955609303427,-0.8112545365099626,0.8198886336844383,0.6620338211355298,0.5422443833209498,-0.71897247407107,-1.0006310072515743,-0.16254333141019414,0.5461778783381159,0.6927217572049057,-0.5371150886347639,0.4192736894659352,-0.3499915973373082,-0.7046786453374211,0.2306650107849507,-0.2746177784816223,-0.49270346255420194,-0.28816307895985027,0.501495318866762,0.9123070577164393,-0.09362664455045992,-0.9584968457750109,-0.010320003129547011,0.2540546485631999,-0.8884339200525894,-0.17001892414465342,-0.7931884578250255,0.5037348399849382,-0.18922568607242707,0.26124790023515576,-0.35473167829457974,-0.997107658855046,0.8564607128381477,-0.9486263303567797,-0.8372753188704736,0.8491024302152749,0.47814621216451864,0.7438077499327964,-0.5471060198520229,-0.9138163559913359,-0.2243937221291963,0.14029354906212646,-0.22165739015894126,0.5440828302996175,1.0007025631402546,-0.8570136860296399,-0.39678349860165285,0.07990579980759291,0.46054325179743755,-0.6910517099484089,-0.9442642367486802,0.34670025471897875,0.6423699612517032,-0.12859444459168437,0.20289832990219903,0.38151733842605673,0.8301029652926128,-0.3872217205563722,-0.9029343718270535,0.6694806766008472,0.38092828030676973,-0.5562597320962095,-0.48138879155630526,-0.14041715561350218,-0.25639401958555214,-0.06848048645218785,0.24763843865429108,-0.11933859132781091,-0.3886148367408983,0.499161075593547,0.8765047836780373,0.10693948989030584,-0.43266399229222796,0.781337685764746,-0.06592185743997837,-0.5714213190316507,-0.48687030581249013,-0.10231321838378497,0.018689351936240647,-0.06998509186270485,-0.5064542850451603,-0.49005294414991957,-0.49352662768775263,-0.7448052825418581,-0.023673345354689453,-0.9237890629151384,-0.6240419926821564,-0.5521346429689624,0.41611329614997955,-0.8559424058056053,0.34531948045440425,0.4652210099721721,-0.9596303412647286,0.9485749941393903,0.3708133564368076,-0.271685391649375,0.7437227794005761,0.8074601130993796,0.9324903237115951,0.155556656405384,-0.9652105683692397,0.70976091594068,0.2422038497994572,0.2780226487044763,-0.138557654069626,0.23007323453915288,-0.5017854521854938,-0.8663862750904097,0.8757962473570504,-0.6456871638350341,0.21537699155919782,0.8076700506303858,-0.8165400400878404,0.4198503098859669,0.5228690075552203,-0.8307438460753762,0.7515731618196572,-0.8570666241715347,-0.9961091960361165,-0.040887141114280955,-0.5535375545668796,0.35954470188932325,0.3730965625089326,0.797354635709437,-0.8921031361658537,-1.0112568756937153,-0.017157207520348428,0.281890760115181,-0.18378613570608493,-0.11552608936430704,0.10377682474225161,0.5472299646884571,0.5070573402583806,0.09806223168548424,0.5669167391985045,-0.40556928387046154,0.2249532627403812,0.38639999603198916,0.06936037023085796,0.20895783142199265,-0.09615636329040948,0.6390183836995689,-0.2940575627847288,-0.3631726122194464,-0.24100481400257787,0.20079560750777406,0.8711486789648697,0.6159675816842182,-0.9929409721591317,0.8057292032302177,0.3671053280183636,-0.11806984397754182,-0.5175592001985856,-0.9151789076499988,-0.9912177354060991,0.9701732948060308,-0.6313132880699764,0.3019347531307043,0.6698081525435531,-0.5061082128809724,0.2804605176155479,0.5934715825604946,-0.10017428991351805,0.09824819856121222,-0.6604227595239024,-0.5821423026030264,-0.259049855041346,-0.6520478530988789,-0.4363292909089779,0.4513058639016424,0.4554040137715104,0.6951717011576313,0.7143711443204669,-0.9693753838327435,-0.42979288790696785,0.022812671813969256,0.2081459234763367,-0.3456830149984825,0.4937809852281102,0.3712874461488897,0.4834314937105887,0.02821104729352546,-0.9708205964466812,0.200872369333224,-0.918549793894726,-0.0030428751153566266,-0.36349141816729175,-0.06764182553749933,0.17203684687863366,-0.2757689001357539,0.912814804959002,0.8501701410321039,0.39467884595171115,0.060270277296943946,0.9871456955640646,-0.09289726993343042,-0.5711221203353067,0.7710269869127302,0.5406615274426525,0.9981778870685527,-0.8948478119326615,-0.796499927800049,0.5829004330524821,0.8379266698933324,-0.13162195337826296,0.49006150342745725,-0.7751593651577494,-0.6793709863878578,-0.5135184729377646,-0.842352288979281,0.858498538297575,-0.12021364800296419,-0.6145807071750182,0.7588071802038845,-0.6642108435266806,-0.15160416658569512,-0.9254893826417794,0.8145248768434796,-0.7457623067171679,0.37415910738213387,-0.2830062698133756,-0.87795593950298,-0.5781068265738863,0.03551818072903415,0.07310647386277447,-0.11419747005313807,0.23253638312443003,-0.9288396909913352,0.5968880287962958,0.11659538393488422,0.7870414584496772,0.7411470470449538,-0.9001913431460873,-0.7607564159551656,-0.8852304131541611,0.16569514776075414,-0.8712126539295776,-0.24249705093576598,0.6400494703654515,-0.1500889952682058,-0.8723327879762737,0.7111557072590055,0.45990652118453845,0.5741410322250357,0.19267844951291557,0.5121366578127633,0.3654472117450971,0.11754382835847438,0.12510437062344557,0.910277670730304,-0.5879560612747061,0.7871044560422706,-0.07340933445223875,-0.2828736053378921,-0.06198462734333724,0.97743917563887,-0.5525499060061091,0.435023729715376,0.8899281984776544,-0.47262676819224175,-0.4369017869096004,-0.8881191757407491,0.8539203208681336,0.43571285727600045,0.009109237355776342,-0.10624529183496703,0.7680950430372657,0.19793118174954968,-0.10225310895274467,0.32843451804018403,-0.4593792437392258,0.9787512441856606,-0.7878675840773651,0.8110211080886065,0.12180082653748509,-0.7088504305503556,0.7571243130809183,-0.9204898591769227,-0.16290503654665417,-0.3608957089612093,0.8814359788610221,0.22878590512806554,0.35521572259600104,0.948528558534277,0.07656173783257256,-0.5047552358900842,-0.5613832820958894,0.5252208700940061,0.9824944042729075,0.16296453341085568,0.1428324821044099,-0.431619542247658,0.9789676854924507,-0.01343876115124147,-0.7812876407055231,0.44065506324009796,-0.06007360345411174,0.513675210990366,0.6875451111535344,-0.03231552001171051,-0.6003729427856466,-0.09120891409754021,0.8872421195314641,-0.7621045502423877,-0.5770414358571726,-0.8177378560716453,0.411697816611865,0.30499201881983357,-0.14484628032924374,0.1191223341650822,0.7660853430566943,0.7346996284204598,0.3070548247604402,0.20904434984792186,-0.8758148533023584,0.45931886982505177,-0.9266811491849338,-0.15968951423585667,-0.997968751210331,0.7074805705790215,-0.5888750749096012,-0.39622018069694537,0.9892693052021074,0.6232401523545853,-0.9109690234700087,0.3838585751026622,0.6874738847903111,-0.045119157491395376,-0.608874940480834,0.6339870999247018,-0.689037823564618,-0.8374745312751279,-0.31262578986666245,0.7558134538542995,-0.6621774172256794,-0.8413936111962516,-0.9165756405214405,0.42086681530322023,0.09225633093500771,-0.3747932897046614,0.01550896127295863,0.3336748073543705,-0.6292700624931382,-0.6910880648268221,0.569221252549308,-0.39940707895135574,-0.6832068384118146,0.6627862520693165,0.28510630640506873,-0.13053724229015348,-0.4666914054517368,-0.10121055683080434,0.38771346703392756,-0.8403617691801295,-0.13816167536192156,-0.2753279524997871,-0.22328748628434494,0.08626710161411413,0.12831534285882262,0.540658889571294,-0.519133579811051,-1.00417059538225,0.4026712107477529,-0.6830290422852829,-0.814983967455457,-0.4785467747143733,0.5880718976059509,-0.05059686827151064,-0.33787907932769157,0.17896878618243295,0.09104834710038236,-0.8965719262270611,0.1509083829776895,0.5857909617122856,0.8959330276468942,-0.9853510990946053,0.5877509032250605,0.022504139934655474,0.4619725174788898,-0.9509702691348355,0.0026430942926462513,-0.22150741267016025,0.42323743878384706,-0.035639035508604915,0.6568763786287023,0.7333803348782867,0.8927387678084118,0.5325018070261235,-0.4807610968487513,-0.8518935093601048,-0.8541710168859559,-0.7832327449579378,-0.6126203186523972,-0.8814959323651919,-0.9264562031274488,0.25839497349120333,0.5324294656725577,-0.7539552561120043,0.07315464865859317,0.21655484021824567,0.7489722150784913,-0.4229272200920525,0.34763672128318657,-0.20372004201889624,0.773801642793072,0.2016032638465966,0.8504800722526903,0.31678943664984166,-0.1417029873861802,0.10457348550729115,0.11465414651454896,0.6039972421970863,0.7124502046840361,-0.5149415426557343,0.27192095800869626,0.41440541289506505,-0.5138610089247513,0.2135915111786019,0.04985636404047564,0.46460310673022037,0.15736509621056866,0.5257797286411775,0.22067069805178438,0.2903804626524363,0.3774798459337228,-0.5344198034610231,-0.868322017681098,0.367507270421949,0.48579289379990914,0.9163282633112824,0.7626741428366799,-0.8982594317350726,0.6933784777561383,-0.10722717281990105,0.2880943147836182,-0.18402631579334514,0.33748443610652196,0.43133011842289176,0.014811484134844597,-0.911021123253901,0.6790838283699423,0.08204665928931311,0.876585177558671,0.6097506469571933,0.29239827659349066,-0.4492573396499374,-0.8306785189063486,-0.0648975202663912,-0.3291608257028487,-0.39057322190389865,0.13458867884999134,-0.6891766426880002,0.17830786453652148,-0.80962927690757,0.5990318870999065,0.569997689795835,-0.4806324022949297,-0.7838496963737345,0.5726996229409043,-0.6850902936733122,-0.4196636987601034,-0.5492139190424351,-0.9986541297119615,0.6830513688445472,-0.9458455537934839,0.37417499919845204,-0.5083126973580272,-0.8839148606992612,0.09891411071371635,0.4210867940385149,0.09386647109526823,-0.44063459980562225,0.6703611909991343,-0.02335199857545416,-0.6069478426243256,0.22941380441110018,0.7000069910172337,0.7652221485568257,-0.24120430199874,-0.3732677420574977,-0.5758766090392511,-0.35389907904635004,0.054098227280629706,0.8914386413501177,-0.05976826096029224,-0.949777703850581,0.8659315674971472,-0.255022379018044,0.06785666328360213,0.3210287124046011,0.508764958264177,-0.21197952607781384,0.5614266041748811,0.8117914889064779,-0.47880705151096264,-0.33056800673684794,-0.9637205089011854,-0.5798636727783147,-0.8759778716220292,0.7491432914318071,1.0015603874340808,0.4122430440546479,-0.2561285297984463,-0.4379347165290526,-0.4480502170561275,-0.03131122407479095,-0.5751118312581134,0.6225159145656878,-0.1614726345951351,-0.6437909269252042,-0.29638736914151365,-0.37888735068679597,-0.5899073255771274,-0.5172444348349501,0.7434746771603781,-0.13672229796362853,-0.44355840000645497,0.35489650010764856,0.9065047036849968,-0.20489213072829432,0.6007581271855623,0.48036829415166327,0.8736671549008788,-0.7069051198312678,0.12748268175841512,0.6283131828799773,-0.8090734062102425,0.4222136517079861,0.3762618896720698,-0.1260300893384715,0.5286457732770424,-0.9337776659680438,-0.5435307407544343,-0.01328473497020486,0.21085840392275712,0.3596110513165904,0.3482229710889839,0.7357709293102801,0.28474739181007686,-0.37853929371903305,-0.7850839711042997,0.3668190652917776,-0.6942552626713538,-0.3487538484699938,-0.5558922385061041,0.30359639549164513,0.19391676054268558,-0.36218352545394455,-0.4060981359914034,-0.04252227676878663,0.295462706554825,0.5375051869172672,0.08464996125550867,-0.0030936971334755035,0.26206076325860017,0.025920292606729123,0.5578068162844544,0.6917513231915359,0.8352317573114144,0.30520252511812995,0.5092794453232194,-0.21732426586268874,0.04965434770957403,-0.3133281994510464,-0.16245776621242558,0.3462506734492273,0.6754314724347904,0.49526675358006145,-0.4644760081410186,0.26849255471227346,-0.5944989928012281,0.5409243407062885,-0.0408637453582793,0.46062198509708085,-0.9469138811346433,0.7518707866105242,-0.3149960811223442,-0.018854996448605166,0.002513342688031486,-0.6520588981102619,-0.21496518956243152,0.6481254767966756,-0.20311033088390185,0.6094818091603025,-0.7378363733221971,0.8428600763929923,0.7876902405431985,0.5152922205196638,0.6988588321867971,0.36487930133870655,-0.4060958858109438,0.1695162438896742,0.3160356035240137,-0.09377324145892792,0.5849326247185251,-0.15234932236204002,0.3951589105950196,-0.5019370833624602,0.020925973465982194,-0.7760790307831333,-0.5074472930189501,-0.5765965813064761,0.3765326543075929,-0.8703246836281511,0.9899459808632651,0.26517293104372214,0.6434940685978279,-0.47782091928079223,-0.166090766385214,0.9623051674150727,-0.13295326259477494,-0.282305445493265,0.46490044947057535,-0.11054063955400564,0.044656512142921385,0.673525950237119,0.9572452035156039,0.3900754677850958,0.3993153398436265,-0.9453325486063899,0.8467924973477532,-0.8414485264209277,0.9481724461000771,0.7190023336306296,-0.3332364877514707,-0.5028634489974383,-0.2288411176913548,0.6024940769818659,0.9601880715627127,-0.45898881564845956,-0.566641508018321,-0.5376814770510897,-0.566035151421924,-0.9703577587945958,-0.20140084936075134,0.6854002523465114,0.7866151050837938,0.782990867635228,-0.5323475321116597,0.10098354246361217,-0.41826681821641487,0.2923783610241683,-0.9704893694609906,0.4619433723751322,0.24712366958564624,0.5205659735930016,0.11315206805591438,-0.9940100045823836,-0.41256237980438615,-0.960431433108438,-0.29922730927642505,0.29611775221811676,-0.23856604894369635,-0.8360703512572513,0.570435234493316,0.6940446022389809,0.7981692425754152,-0.4486737917246991,-0.4062656110066659,-0.9248008426404621,0.23113268748884772,0.8722243365066726,-0.22838051232668244,0.08996822219233667,0.30784118433610264,0.9912692209379084,0.9521169517287874,-0.014551907385313978,0.20978267148189556,-0.8197822285510246,-0.5473851993164192,0.7589234563964428,-0.8972075743549156,0.7295313992841913,-0.35639200946111743,0.48127714102877084,-0.6277864765483384,-0.57930110331827,-0.0802004007042408,-0.3487030509732627,0.6572435379372903,0.3763707317357269,0.748956874592595,0.051397906164969365,0.6939480348437883,-0.08246589092079945,-0.4077298864207936,-0.8217631598094467,0.7151244705099048,-0.7283651365369023,-0.469655254398976,-0.36814157075430715,-0.32675928853851866,0.8749643907063681,0.7710475755353476,-0.7915158259656194,0.0563510280348044,-0.9981800644756962,-0.9882869107056169,-0.17453430326654318,0.2851745896467921,0.6247159954133866,-0.9587310109252654,0.4508063699470142,0.2140308134326765,0.3016599374666626,-0.5855198039469275,0.24631384785487087,-0.5421229765038678,-0.8737326044140554,-0.004307682951847598,-0.2190068168551814,-2.644106221497285E-5,0.445565842148291,-0.7653757217658764,-0.5816633615151992,0.81989342806108,-0.05487695123052816,0.8567974676717097,-0.37314228197000016,-0.049109842399280464,-0.10423455175296267,0.4589674669760025,0.08489018063956283,-0.7335348745584167,-0.6289265323327929,0.6846061200692201,-0.23848194324677913,-0.8482472606379966,0.926318924745123,0.0017443675120560214,0.04746273661728663,-0.10060638338334117,-0.7823135565166832,0.6104891778964128,-0.5679915763598,0.8827362004971531,-0.89069575417848,-0.34907179454215453,0.25484329687506546,-0.11445398421355014,-0.2674035111853604,-0.02035648891368417,0.9384916503360246,0.33455745690951305,-0.38925046722211315,-0.12025672166501666,-0.284264907898526,0.634354976569507,0.5268595128024313,0.5807116701818382,0.7214056384180547,0.8098231799863383,0.17547470119989453,-0.2906052431087771,0.5925095626300023,-0.011374000208827003,0.34257222398848336,-0.9103915718194009,0.9142073394134692,0.34408302582199657,0.8209756751999437,-0.953840253202896,0.06190524599438812,0.17013308881021616,0.136442973545234,-0.3135989368257201,0.6872968567731623,0.5334673654352061,-0.45034815276850343,0.8102655964026316,-0.5343045825065512,-0.06562183553573518,0.2691122010471459,-0.005532863165941057,0.887127160785565,0.5366530802949914,-0.8356799271644769,-0.10561631278597922,0.9162499525641726,0.9631636913896566,0.19759507654558894,-0.07989948404128301,-0.8124341500290165,0.2585440350297888,0.052589330092333395,0.5752817087457333,-0.007911982497235962,0.3014685957278536,0.6902498679724772,-0.8273154990613976,0.17925017606612753,0.29227695460696046,0.6237627201062588,-0.746887521229012,0.1722809812703345,0.35171759549401516,-0.447773097054063,0.4653692283338877,0.8577980593106956,0.34167655212341813,0.2646559267323667,0.41513923118862744,0.7185399711033906,-0.4930485928480961,0.6271869168287428,0.8638927129541665,-0.9713900719519329,-0.43146540984724246,-0.6480614772024903,-0.03428489526151362,-0.8712295142202612,-0.2839266153750748,-0.9160326340428272,0.8558602563904047,-0.837071104022491,-0.2576304062312234,-0.48618802109680265,-0.47117480068871154,0.3098609426846056,0.6802976610015834,-0.49200840764760073,0.5384989497855948,0.4173362233338571,-0.6398213009088697,-0.14567584535747763,0.633638709256823,0.7453691729119784,0.8750819174965928,-0.36786145610286963,-0.6181446585685894,-0.4645165274489995,0.43642898527031176,0.1297800075714553,0.918650037413367,-0.3575245875906279,0.4668277662722252,-0.5004650199494848,-0.618041840541219,0.8583562841857934,-0.5305080041020093,-0.6552375821675893,0.20175642484925949,-0.5371682310526584,0.6286033399301796,-0.7080204157449084,-0.3734698948796618,0.11617003791504073,-0.012785650989915576,-0.09830648350146615,-0.22849818622145987,-0.7746973556819466,0.21712758024592277,-0.6445899340747743,0.18585100133508428,0.34289798961564755,0.38591868648551597,-0.4283809723698405,0.3881438293162103,0.04605000654003821,0.5725116805890934,-0.6822671649141789,-0.3498926198024187,-0.7512175327634842,-0.6440099590220483,0.6570511773727231,-0.5537527173416555,-0.92088218597371,-0.5640539708106995,0.4163167208095183,-0.43409976495387803,-0.34072125685323384,-0.18710111275356336,0.7235282324306835,0.2480639628854014,-0.9254469667643109,-0.45088141504559887,0.09026988139153092,-0.024674670158447872,0.7041031564592255,-0.11731437092052945,-0.7687807626182858,0.6459489139424381,-0.9819422022250772,-0.27017090872204574,-0.6840346219745512,-0.12316374056448844,-0.33916241422004406,-0.9504634023366051,0.8598894001568829,-0.22743106591085374,0.28207747463123306,0.12369768516172387,-0.18271805385849837,-0.6615380269786746,0.9750659134857588,0.692774731143742,0.6192034591038342,0.9474977690345652,-0.5882823721940825,0.9762642101698362,0.4839831850283365,0.17838614778862574,-0.5523356332157886,-0.4306514443186174,0.5169429919463535,-0.45463988644861014,0.3155816643771515,-0.9075395052463028,-0.5317559211704558,0.5339941779410431,0.5212039878233388,0.5729444239399291,-0.39217373983183484,-0.5260720945962574,0.958317122488824,-0.9591016342629851,0.02944831040171908,0.858811503885548,-0.1875575877628265,-0.20300019346167564,-0.05833198856448904,0.7515175233697862,0.9128619303336516,-0.5659642657133607,0.8793593452035009,0.04840091150108859,0.734579836143181,-0.7983420884931388,-0.3135837488734885,0.006713627687885722,0.4146601954560169,0.9739413155903625,0.23168533283531137,-0.599713646438071,0.4032409596086875,0.8500566591513746,0.9689346282994443,-0.636270392747032,-0.6285131406412412,0.013152860001698349,-0.03134531536684673,-0.6094053604199777,0.7729128284897296,0.9345419958927843,-0.09276357211691448,-0.950028352670876,0.7262354702748703,0.3533310023207015,0.305401033332298,-0.7893370060150472,-0.8206701638000133,-0.7514724344015372,-0.1600355411271569,-0.00838726719788789,0.6900634984274373,-0.846948693783321,-0.48838335850400116,-0.7057593404873015,0.8874334073905689,-0.3817935461490995,0.4621381808513838,0.6388998861365928,0.34366079472857314,0.6335408776379061,0.9257971688048405,0.8798925637619127,0.18394138400348126,0.2647552533918029,0.8211166625703729,-0.11188439753598595,-0.284071254349441,-0.3028698655140408,-0.030531311670805104,-0.7067612188309477,0.03551509893100638,0.30876216584567606,-0.6701698925313713,0.2932538974222826,-0.14144022879388896,0.28705856814864306,0.7900523491804003,0.1160930756526904,0.38701002537641965,0.10606480390966778,-0.5431346203139864,-0.5805946924191547,0.18166761633253106,0.12295960223922694,0.38939854702853594,0.8752329798567181,0.9291753562298499,0.7494561121405925,0.710684599359858,-0.44877088316064867,-0.06558429133237931,-0.25308243373218564,-0.48481321539756567,-0.3778297447705289,-0.5903927451387331,-0.6219807675395228,0.041498332464793244,0.8238443714660807,0.8219974998339726,-0.057156744337811226,0.3575823241205488,-0.9564401696398861,-0.5624581509263341,0.7862473932496495,0.6484615043206033,-0.9515769864903679,0.16698034573241285,-0.011942486476424779,-0.10082187659192197,-0.5653902323397231,-0.4136282994964014,0.4992936856725122,0.3515564542024747,0.4194558196842491,0.1773899743486253,0.3279478710811836,0.4376990618472485,-0.8071562737019289,0.15994185869883085,0.12778439620367812,0.9125389524040844,0.11618978905919153,0.9755280249837871,0.9975166662706224,0.551177535333058,-0.8033641971620864,0.7643433949702625,0.33958712442640154,0.8876902783082834,0.5605443474897921,-0.012333802606600438,0.2786111582895648,-0.8405822933113082,0.5133883810863485,0.7110831259714159,-0.8366162614517532,-0.26641662650647685,0.7153283868117453,0.5207268036093261,-0.0899019936531218,0.4342110285100474,-0.1738105319533098,-0.7437353078223543,0.8610804045153875,0.23990383959454836,0.8758112481156278,-0.3908485170215517,-0.7843603087210121,-0.6021774842179898,0.7787084552132213,-0.8639681594164028,-0.5610386855426697,-0.8932214829565516,-0.5121740183207888,0.8906728078651736,0.011443391691309295,0.16245217767011302,0.32164043635504347,-0.5337520431134862,-0.7744471938707732,0.7714584894707871,0.3093458402623878,0.4326769387890008,-0.5761841590783441,0.574329845982829,-0.4596264063805447,0.789359523403658,-0.32363677551326786,-0.4988063191065411,0.8953700558618828,0.48820221272926534,0.8679230560613785,0.7533568073135115,-0.5393223154599538,-0.6365338452092347,-0.6341371906347802,-0.9846224289364123,0.8858804461061152,-0.31232329871315884,0.09929857971356276,0.8321895790577195,0.7588579021006995,-0.07072266271281959,-0.7300433781002117,-0.9257657851666244,0.7663072014124306,0.8437586258955344,-0.34660259468165316,0.8144514515422302,0.5403555133623033,0.07599179253020853,0.28866905059446113,-0.738489738298827,0.29404688131149054,0.7382064204398388,-0.03395260656107194,-0.9449614321254733,0.48102466045423825,-0.9898683398510041,-0.7417653593309905,-0.6878780766150603,-0.08128147944903319,0.1759507666292141,0.022366308962369175,-0.4946036182509088,0.896580585514964,-0.9787847624183119,0.3050197360219042,0.8104527393056694,0.8377591233709865,0.3978881034624557,0.27942328989050963,0.38585456577235205,-0.35342205023551254,0.05708976345134108,0.8321040204423679,0.3841264158409089,0.21146780868273451,0.3071588427863892,0.022771789886452863,0.30709385276047685,-0.4349706769564232,-0.7007277819325212,0.23362846985542654,0.6234849932466834,-0.1075242741105318,0.3137501101872466,0.8451844997157623,0.959772751084748,0.939843631761329,-0.5058794678562992,0.3176301656787188,-0.9687683057643891,-0.41677899383382927,0.6390764009657766,-0.7146967167895222,-0.7194305092989404,-0.041351495694055225,0.8824571657836031,-0.3721727722564661,-0.9747593856512824,0.4572581536146771,0.21682609667525682,0.1888250229058749,0.41250871074458184,0.1590483759403823,0.11377604379702116,-0.5921787244289387,0.4796521648485818,-0.8890628207565952,0.1044930673230861,0.8616358665344824,0.9702998345264383,0.6096827008147069,0.2915724682839243,0.34365357032473437,0.441118103512244,-0.6264855904535614,0.6540705979991854,-0.9919170859664412,-0.8063593872499734,-0.8274102160432737,0.025645937543051556,0.8347254401479064,-0.7303103865577151,-0.7798004509847798,-0.7761845712181341,-0.6475795626434795,-0.1516139450055121,-0.5201341443080956,0.01940926682214409,-0.7174858279279448,-0.6241706530980229,-0.802120443941897,0.4502227653829261,-0.14974156585727577,0.2307447647952721,0.8331380289158278,-0.7629484749748431,-0.03193111938150462,-0.5752632539402881,0.3004033433717603,0.029406993072143804,-0.7997026014368263,0.43222947828636304,-0.5687177335267136,0.23496307776184852,-0.1360202576848556,0.43661557069065215,0.6479892456549768,-0.39164695157571483,0.3377272101118923,-0.8598065332667788,0.7612205278033979,-0.6785649283582172,-0.10924823843005121,0.47996248138519704,-0.5017661163167877,-0.6958201893265531,-0.503938853685136,-0.811972208436788,0.7145209465797986,-0.9705862947671393,-0.9201206247356657,0.29105368930706155,0.5531566101076905,0.2346737727386064,0.1999964951880927,-0.5686308729038976,-0.3703216615269396,0.8865701024921132,-0.13241401596431396,0.9544004364973554,0.8817928980666863,-0.8195606081637118,-0.2266085627458767,-0.21047732541856953,0.7916657507943974,-0.7386599820976292,-0.043724082173618624,-0.10542777802070603,0.25891892929428995,-0.9586021399011652,0.44078571283749046,-0.36320957247327873,0.2503132397659219,0.21793515486248652,0.2828092995714075,-0.8423456214279899,-0.7317474371517263,-0.6034651704955925,-0.6928105850341625,-0.14679519269787727,-0.5187345640166426,-0.8901344521288775,-0.22968634885999564,0.7758698934476039,0.549223970448761,-0.018212275173969377,0.08594701709092176,-0.48212351514080437,0.5932015919406147,-0.3242773664904529,-0.17583367737632913,-0.4457756881624005,-0.09996825559608213,0.30655798106840637,0.6615230790033402,0.8197839385709185,-0.5134080626333717,0.4522438402653334,0.3061506842398506,-0.5516948287888913,0.45188592561551183,0.7809979648228713,0.5692288813653206,-0.5497818741360596,0.24060992943442755,-0.03730008055513553,-0.22360264036149563,0.25581364578978916,-0.4417449202232872,-0.4263563534482721,0.6215278112128607,-0.05165459451981001,0.8642611824036687,-0.39078740503339476,0.0030301468655735595,-0.2978894291374472,0.7386137295883547,-0.5967390992330556,-0.1452396325208343,0.3208205185253284,0.0019730218485349985,-0.8437639989767886,-0.759709984129387,-0.49139116679716827,0.26472088536953226,-0.3621924200111401,0.3672200865405222,0.4075568908070353,0.662339929069522,0.9921596582431454,-0.7845574623501549,0.2703385064985378,0.6006303417397166,-0.9410953772158299,-0.8203815060921364,-0.6204813069077302,-0.6844846536910583,0.3311040830166555,-0.5876998139653754,-0.9417685961707504,0.0566359795766533,-0.5949070881942959,0.12976242889186312,-0.9127458295846299,0.08873063516572348,0.09854663946702129,0.28998279643274466,-0.7457897018836008,0.12074720417469012,0.09013577606554135,0.11136599214585798,0.3002674105358859,0.5371806946483698,-0.7927197972418388,-0.004993523301096311,-0.5403668312492009,0.17185233088670981,0.16443838298271068,0.7103079546201218,-0.4451043574922297,0.5273058011170657,-0.5020972885394508,0.5081495344699116,-0.44500980139294355,-0.9617720373694032,-0.16668527521794776,-0.5175900855335926,-0.35513962674438004,-0.7196851241367377,-0.8134657467090075,-0.8840803574243387,-0.9809813325762594,-0.7762384214630434,-0.24787586207488146,-0.8674646330629269,0.41343351725402416,-0.2815566513978381,0.3029743857330951,0.011941963268862632,-0.3799429643308576,0.2614951295793437,0.4196200313727156,0.02314971413783211,0.28816574946701756,0.9363841478020851,-0.2936019779699331,0.5342776983595906,0.39824533808698154,0.1048465175647543,0.7888266982213531,0.4608325708758873,0.9531469762545481,0.2557878646338182,-0.2178134786049609,0.4024968582102494,-0.21593738284791394,-0.2013032355658573,0.43508571286057474,0.7518748658052089,0.9395287832177912,0.6905744370829864,0.2233525953789408,-0.14077303611478292,0.28056170851269574,-0.6422482812255643,-0.6869489972537904,0.7600583729446615,-0.7590014020720575,-0.9910924762210411,-0.7851741539443813,0.9777612701206952,0.5664863471946208,-0.6991424465928356,-0.4949551388747505,-0.14598571332175464,0.5922773045728424,0.5306572020603717,0.2880543197375981,0.04330682045481009,0.9070917118575066,-0.8639048682147435,0.8099568886330812,-0.3755550935601207,0.9177810550677413,0.5172053616541087,0.04010589720666586,-0.1413181348782269,-0.81082880874524,0.24320732994007627,0.6689156526669127,-0.026420578165075013,0.40789438586523347,0.9909891561083887,-0.28183482802620313,-0.8627393116612274,0.7066907031666232,-0.6041135265639753,0.3208717921098978,-0.05997856719238737,-0.2810178940684763,-0.10526009941416681,0.39185138962492955,-0.6331284420839373,-0.1225385456750134,0.274980821920751,-0.9914886123299128,0.6434664477476593,0.5281555092958261,0.863343615512476,-0.10562495323624106,-0.6790052260099521,-0.329677715431913,0.5276129989830532,0.6158376637249996,0.11517013175784183,-0.0163110349712096,-0.608736276092831,0.3786863170054638,-0.8268565940429582,0.5810427964196992,-0.08569135531021568,0.8891691022104715,-0.3432725345277431,0.1377295039424597,0.46373505249531327,-0.25052764224651214,-0.10904725102798346,0.6303692381528974,-0.807381769851916,0.07046461329976943,-0.361469089811756,-0.9600506050997845,-0.775849231291099,-0.31708617691207935,-0.49346658421846284,0.7535434733838948,-0.23620814579877994,0.6424436590488669,0.08935067387095405,-0.2902069422705107,0.09244417133611432,0.5917553832371337,0.7321772508146727,0.9627125759306852,-0.21622447829036778,0.3456823504744858,0.8788403745502903,0.6752377177810686,0.5144585140967983,-0.23576117341422756,0.10296941602304391,-0.36677024894830373,-0.8864540655489501,-0.9061659630972695,0.49527757591013033,-0.35954000526227525,0.4228906255393796,0.8000255402443534,0.7252446031460886,0.5127326848209481,0.9464540386604245,-0.2690873065627439,0.686690579865857,0.41469917087943303,-0.11563607816893097,-0.621047511031722,0.9932868051141956,0.6766035131761632,0.9822478088117254,0.8874259982928172,0.9045321692319006,-0.2604757507983492,0.49585550111557114,0.02235070608662447,-0.5722315296825045,-0.554426100812474,0.22818103071438825,-0.7911160766998759,0.36993780422440836,0.8964427888178844,-0.42850510132254016,0.16988458593768974,-0.4139236188380078,0.6269737224176383,-0.8469207712334507,0.4263275078184028,-0.7963275574458607,-0.1242692811618013,0.9270338626741212,-0.5614968345353455,-0.2844233159281599,0.8745846994260092,-0.6050208797728353,0.5141564404944604,-0.26991082300295643,-0.3949919796217007,-0.5091864802819732,0.7362557597607312,0.2910931493040801,-0.04111111958181112,-0.29764035215759693,0.5982308116200001,-0.45414655180665964,0.9773807025438681,0.13712297970490095,0.9653831607498055,0.16554396894254664,0.5937928215267659,0.2559045108137672,0.9913878721754489,-0.18385086789239685,0.9610061332239359,-0.6431527895976612,-0.7235826974904985,0.7829825500289974,-0.04671404485345757,-0.4954354651305271,-0.8858070735172234,-0.4756214361406086,0.9899509798309846,0.4375640545632255,-0.15533446266043222,-0.41717295411288974,-0.7620563350565941,0.8729783535429312,0.9951130963747127,0.1425934266258009,-0.5118109844732058,0.053380063759547354,0.11824528036671324,0.09825468909395903,0.31158306069949493,-0.7031296941025262,-0.341685469480739,0.35005105211948184,0.47264165458725677,0.7115205580477163,0.7672796615824975,0.4056862228732732,-0.24882577519376464,-0.01657554865856367,-0.837519236341527,-0.15556403863396123,0.012432950537684572,-0.271256194944575,-0.7074367109926403,0.386418601743692,-0.5050916281357211,-0.8291233035900514,0.12176088575887464,-0.4485707915743314,-0.41096122449595135,0.9420679726147879,-0.13666419925183884,-0.30113009553330233,0.6469015844457143,-0.07814369588629741,0.6834077250690523,0.9746508116554075,0.14052955278626847,-0.8885189689465585,0.43832418775312365,-0.20042420015476303,-0.03937020001672226,-0.7075352680020551,-0.9926324787375438,0.831732714159393,0.7114496385111994,0.04868424545046474,-0.042186467234819655,-0.908044154619466,-0.504377145154654,0.9031907835838017,-0.7336411059700741,-0.26591639413035606,-0.6975415527097789,0.5646407404914493,0.3831538052083776,0.507283203488239,0.22875764473090682,0.6163918557545733,-0.31881735345067513,-0.2574923617770096,-0.33623455304270755,0.5180491099557438,-0.8808506188624754,0.5148287746846938,-0.953457681737105,0.1532962018691733,-0.5266437137521901,0.2923189992662772,-0.4212633770967668,0.7222415707325138,0.8174468422112641,0.08726571346486645,0.6551732655946507,-0.6654283208963241,-0.9310599403468579,-0.7562166956190168,0.9407982437168446,1.017980251081656,-0.7866883552393951,-0.40139417656080173,-0.3438767844941342,0.15658441610548596,-0.7447168394152878,-0.5176006606433103,-0.6854961802377796,-0.2678710757745495,-0.2547557111968019,-0.22759228947676755,0.06413400651641399,-0.9718018490670883,0.5516057467192026,0.6927248260048443,-0.42138999465968185,-0.9001536292249485,0.1639894016614498,0.9242768295571319,-0.7068605019691874,-0.28991854104312437,0.257122514579619,-0.9164476828201138,-0.9970225077658076,0.04609127679690542,0.3167818702010775,0.6139275351890598,-0.03806065592291391,0.7429119538234937,-0.7458525626139872,-0.891541259145429,0.3951540567859464,-0.8258677058549255,-0.11564740254976506,0.9990887795660065,0.5324649040624052,-0.4061415636365398,-0.9676303078235545,0.11183426325342775,-0.24763513706904192,0.2755694648326571,0.28624791568292846,-0.2553367138915676,-0.841295042866368,0.8714026954742117,-0.4711069572590195,-0.5278234190830225,-0.24375627056376348,-0.8613835067236546,0.5436471947862944,0.7466649545948185,0.10435812501546932,-0.5374410782475205,0.3893914036280964,0.36669913868215903,-0.997337212828713,-0.7272315651673495,0.8654532438757357,0.7983692281438484,0.8995823871623571,-0.3004019822573536,0.24820825036051197,0.6983464547824788,0.8498163294975087,0.8242292967010776,-0.8158747719181273,-0.3659179405124546,-0.1519277158405046,0.8015753837064545,-0.5183722711107381,-0.5481670366953062,-0.23866991513140545,0.3202652182248102,0.6022685445460685,-0.24115824137516595,0.8457353964890257,0.7264641894332976,0.40421536595636887,-0.8367210484761506,0.03146331945433486,0.05053169817998262,0.9499430936140305,0.6610051550851553,0.16445495033774823,0.24589163958744978,-0.7567059250927654,-0.8064243108129423,-0.4358949127954688,0.9738586692628726,-0.8512529984085723,0.49712959738825463,0.854406539977387,0.00955904963271376,-0.441164634985804,-0.9865402697252826,0.19191575859208115,0.9697077085383647,0.9410080460919678,-0.6541862901197116,-0.9670164427482795,0.9421874624702622,-0.5952349233112009,-0.826295011053146,-0.15165883900374877,-0.6821109844755999,0.8086681475304831,-0.019111280969961945,-0.03846111468132405,0.670665428910924,0.7253746897139388,0.9029489462405894,-0.310030071376377,0.19534894906112782,-0.8185452408810528,-0.8898108878568866,-0.4830409052500626,-0.39683006427212986,0.6237766457470714,0.1122571575955706,0.6097470521745598,0.6633298950513766,0.3514780472572767,-0.8674457245565607,0.5190972669020704,-0.6585339195306911,0.2825136244975283,-0.19289224766920132,0.2451747213206786,0.3794879935870487,-0.6903259317996008,-0.5398890841264921,0.41421716092777455,0.2326208534579818,-0.7166707577679596,-0.23643650863687615,0.5403391069298962,-0.47804063647324385,0.7740305232692,-0.28029535803499334,0.6922424108672405,-0.972421450222383,0.400645612879181,-0.1343092871602481,-0.7464798580876585,-0.4685779115672833,-0.2782553950056816,-0.393666908186443,0.7479600296602472,0.8886567615113352,0.8280310307939797,0.8522466699094464,-0.7655406226160865,-0.5510650421727524,-0.019090790031748798,0.14947564471178557,0.014213876584031412,-0.34487278761035856,0.4358619376483316,-0.7271579755401484,-0.12676623176743287,-0.1753244042170803,0.2628285328955404,0.2117183527631729,-0.014926651561070956,0.28563473860462874,-0.6362977247779568,-0.487978874086494,0.19792106544967342,-0.9364843166360292,0.8429228824762349,0.7888417884831407,-0.8417990254533325,0.5375023122500089,-0.1417021651176774,-0.7423571683190807,0.8417298091648859,-0.3577024711217084,0.8516509995946232,-0.30264135944818876,-0.9595494263866226,-0.020265098763404276,0.6163235051493479,0.21296713930371697,0.8599647832791661,-0.3428064071752898,-0.7676045622742822,-0.7645773680419566,-0.1799188706220198,-0.10409414667841672,0.3817209591573639,0.8987364899150447,0.6190891379083464,0.7939446281315038,0.6655106049500461,0.6519279820107099,0.2589247076706785,0.26844408952182486,-0.8226054183378535,0.6907371843277668,0.049286828439322874,0.9766805077491683,0.08919614318951091,-0.5444271876705745,-0.00459264989568222,0.12952887974444016,0.9220876405935348,-0.5768622473714413,-0.5048706167384476,-0.5797561394722447,-0.17339352542055583,0.6857262704188495,-0.45785538714476465,-0.7522519883369293,-0.9401522165356044,0.5223411571339861,0.6019760581473734,-0.8884097983553076,-0.6709478772817035,0.7362714177051115,0.21824401736940505,-0.11002005240258927,0.3792872507301177,0.13271870880683873,-0.3128746295506959,0.9426415428891167,0.517958361984605,-0.8892892244740987,-0.30307006777734563,0.5322033660104968,0.344313519879745,-0.36658583330279654,-0.4320926045626318,0.9307149078053055,-0.6254173244438658,0.8743318863957968,0.691052679276664,0.8005049984417524,-0.05697704633034195,-0.2408829431498165,0.9450787201663426,0.7234989059287771,0.12261526020705607,0.273070438525056,-0.19066842663050315,0.6054251699581817,-0.013477833604366154,0.3708225696434828,0.4641424104025683,-0.1326860430130074,-0.0408353665710995,-0.6117519411069987,-0.6991261147649749,-0.06128086610103957,-0.5826614181917186,-0.10790678282295453,0.15507416542343253,-0.1973879285631155,0.9302928128179938,-0.15268921826072196,0.10720459629054346,-0.5453235336445155,0.5374682121532053,-0.6511384409597775,0.23161092303036657,0.39499494134608526,-0.9245858151310283,0.726498982588543,0.6087620120611735,0.469439406072085,0.5303036889784384,-0.6756478674552032,0.363793628414563,-0.18225857941372364,-0.7321899320614533,-0.631664248851937,-0.8695752991194095,0.7315103123412986,-0.9801734999566071,0.4678162929190469,-0.29172254609951775,0.8144881344409376,0.23678389312118456,0.5206999945389252,0.9839772802918947,-0.2786485009535899,-0.3561111095611433,0.33392608812940777,-0.950136040875078,0.8460264349520534,0.18692185561441937,-0.3531794384193455,-0.17080269329497466,-0.5807842416412773,-0.3523654424236203,0.08031697512204662,-0.04506688820716125,-0.43221268434525634,0.4565206147745403,-0.968417547549242,0.5788244429402749,0.18778369256329416,0.6331583034941294,-0.08334602806840738,0.08897130318280053,-0.24493442347159342,0.47969407141213133,-0.8009120388229334,-0.3553649503139388,0.17387208961297124,-0.3339722205442137,-0.75880823395747,-0.7813940135477551,0.2548330428760049,0.8993393222866425,-0.24780263544131026,0.20902857057951324,-0.2191899320580558,-0.3185575322335724,0.3827445292707307,-0.7495922816021234,-0.4219924253074485,0.9805839272614725,-0.23113335730844164,-0.37047522420839624,0.9647986390442997,-0.6617854193323486,-0.9101237255759985,-0.9387985105352901,0.8054776424939182,-0.5343171216989592,0.7118507002065736,-0.6200509245035299,-0.18971993907820803,0.3387230600361289,0.20688663274075367,0.18380089446868816,-0.5177295446252784,-0.9169854932959502,0.5403520592450939,0.8045048617798116,-0.5715769389905255,0.16349702292970686,0.6619636477147581,-0.4854923703282409,0.6900448074840305,-0.6071281337135608,-0.7440772344824285,-0.7089590968461453,-0.1954574778906739,0.4910175206099829,-0.08445239672233665,0.06257115327277181,0.3574300142831973,0.8228155861978216,0.6176878324177961,-0.004033091837283461,0.614465234213558,-0.8816785542049104,-0.897626335798447,0.1635018497791974,0.7595282012527166,0.173329822392197,0.43977622762159435,0.9784213921693811,0.01167531527679994,-0.4258370382023055,-0.8203633377771065,0.886093605538134,-0.1939345590374347,-0.08096288108292138,0.659326184319706,0.9368336583257133,0.25192151966871845,0.8717098873557467,-0.20543434496596705,-0.9215870571599379,0.7671035792328021,0.9424260070647411,0.821278608489658,-0.8089518815991783,-0.50310741456616,-0.8670332536950925,0.18938095836180532,-0.589122081487266,0.3419642099356832,0.8931463000701355,-0.8857769745563738,-0.1732818417988131,0.7094466076798082,0.7246909997919183,-0.5970791414658375,0.7719542850677138,0.24419823330250195,0.4102806492128898,0.13377872762278056,0.42315450739808863,-0.6951485190989228,0.11035460761235197,-0.8231394226387537,-0.8620274822161312,-0.9157696103041234,0.22862101254596057,0.5830786539575014,-0.5743414287253631,-0.24144921119312818,-0.736149368521145,0.20468508443367625,0.44684800869537694,-0.002855569397253464,0.07170666454159498,0.1514720087181835,-0.9196564659048408,-0.3188555091487213,0.7900207687570089,-0.4811099299095552,-0.1372565026503043,0.4235820877493987,0.6964665840659005,0.1469913254347046,-0.31951616395471377,0.8888073047871767,0.13600521089315176,-0.036808559272571005,-0.5096044330360007,0.059920493546281144,-0.814910147291802,0.5910968483593633,0.3967162753130883,-0.3868687639194858,0.5022340614445046,0.34695795084457504,0.14471294047720293,-0.21757306948747468,0.10416442625221466,0.23992129915893193,0.4827841420739603,-0.35610848344457996,-0.6716234088330811,0.06536948458115407,0.940298576508106,-0.5337901652793113,0.31837035849036,0.05680225088821964,-0.288242418189836,0.3348289357158343,0.1218374801516212,0.21424128151725494,-0.04966026143796798,-0.9124300834404954,0.5826230099084249,0.7592552786915241,-0.8679793644901433,0.4556538009368101,0.6404364901974504,0.8643504184995878,-0.11192040744926249,-0.9555656283656135,-0.16067213174012937,-0.5563082205394783,-0.5942189107776108,0.2723669091595188,-0.1523763844783944,0.8564120626318203,0.5260603489619675,-0.18411070307437433,-0.6459145939475901,-0.511227290276981,0.05316440281604134,-0.014686409940956047,0.8499530073984017,-0.7842956788466764,-0.3700005198483789,0.4253409601256975,-0.38912201350731956,-0.011605180137839044,-0.2671131341826231,0.6176497532383459,0.9158425627809195,-0.21138759501895943,0.7946150543798326,0.6749093888388,0.8876461187274799,-0.5015415695225249,-0.06451847401269528,-0.8493274402394361,0.2533127473679482,0.11573522916953764,-0.42330496284255337,-0.1451312241809594,0.8617987692472123,-0.639842539761643,-0.5103020003878384,-0.39824273082970263,0.10984295495846157,-0.7725419854582322,0.5752826161930118,0.31230163991467724,-0.5789753234587713,-0.05051007065408817,0.21905770939795832,-0.19480460345121495,-0.8736421733878074,-0.03960090708474587,-0.032030011777415934,-0.5143743866382106,-0.7138322627543858,-0.9915714419435583,-0.6348165377252516,-0.19003583253504447,-0.217592867620874,0.5210359849843764,-0.17121305496837547,-0.13820053317499298,0.990716273512004,-0.25040655141155344,0.47438801536618763,-0.9312163825652685,0.5174634965757205,0.46347046949512893,-0.03632081164954107,-0.7838164175828302,0.30132667470424235,0.5081872700315205,0.4944505750225516,0.8210365223874662,-0.8156037953467082,0.9384852275876598,-0.321019393408728,-0.013238815864021522,0.9727956058745758,0.0067797906267758334,-0.40765849649361163,0.8127592484268145,-0.06867976030213382,-0.8047360493365966,0.7523970578091917,0.9127752786060496,-0.147003770776854,-0.20875591337373034,-0.8590517249177488,0.29797596987578845,-0.5221621298539905,0.06435607102736236,-0.5189504885667325,0.8741178426904609,-0.6846272433523056,-0.44226870021890596,-0.36751283271688673,0.41968383200279485,-0.3158678221887718,0.6494026162398372,0.6352731460031507,-0.9026674421256554,-0.32203285703933315,-0.6953038575447718,0.03333603635986939,-0.3303074063616933,0.6132679888351237,-0.6275554097319755,-0.10939397363366811,0.730665383513728,-0.12057371366613084,0.8741879942096369,-0.11225162353148943,-0.6844026740070733,0.08306362752282592,-0.6829213806318386,0.42105210106477253,0.45218242189061514,-0.744137931056249,-0.6265993381442195,-0.025044799827014207,-0.5472480134791975,0.17586701906024424,0.06795237206393238,-0.8043452246861797,0.7707018178570127,-0.27091276628878297,-0.5129445186433191,0.10698558217639881,-0.5141352370081947,0.105210306098539,0.16215474112060801,0.3311141486806558,-0.39864036962056315,0.3420007070804158,0.22216252146967627,-0.35925134779140605,-0.10265836183225541,-0.4628242580341903,-0.05735070213191626,-0.31827625710036506,-0.8186377121772234,0.258689178907153,-0.9718871847883095,0.9911087996656238,0.39947004056342367,0.07293445619088386,0.6566929288643115,0.3207505889622053,-0.43887524248460313,-0.6005745221550874,-0.4523009264715963,0.5116092301037749,0.5886450709542839,-0.25335875568213584,-0.25172661927206363,0.46490447401703056,0.5098325930260357,-0.9117959743336639,-0.4937596429521498,0.5937928517810028,-0.5076367672122141,0.8076520152913147,0.04359848745110918,-0.2904500552366093,0.301814554673951,-0.6000435502111714,-0.2616765654715685,0.4977717139297974,0.9400318131467919,-0.5897224045352668,-0.3271254689375719,0.9393244738734147,0.9193926044257956,-0.3029674672592769,-0.3254698106986147,-0.7224256535905916,-0.2561671294423017,0.789355081712634,-0.45569054445023033,0.4872894373107586,-0.23955868109809,0.6280383820040514,0.07047923336374425,-0.11700650753364564,0.4701914634022174,-0.3634960191293331,0.9583300905834148,0.48549549519381446,0.8424945000139394,0.1275947371325086,-0.9204154704937028,-0.1632506997672995,-0.8628158155673288,-0.2368090332570701,-0.7727003158939914,-0.05227798178035449,-0.24558064672177754,0.9241729763481917,0.013284682272762157,0.07701873595651922,0.007415844267470464,-0.5850465323582823,-0.18390026999320136,-0.5912184642793407,0.7211333618933563,-0.9409227404579867,0.7906346171856856,0.3392264818759387,-0.2620533281631648,-0.6309463470135187,0.14315400516376467,0.7471461393244869,0.19765950050958567,0.5477562570111442,0.8051047465903107,-0.587631651857195,0.6636266882312338,0.2535183430210729,0.2955303580805927,0.2323504216729202,-0.44045407169761447,0.5935433326408595,0.625418266657157,0.23629976956485144,-0.8812631848003828,-0.3280771442065074,0.07070775288634053,-0.6072991505861791,0.0077755506415086925,0.4312771200342657,-0.8988890996603902,0.35800837867854257,0.5550226563628545,0.815799869323985,0.25697872543236155,-0.9104889003651457,0.43917632942320545,0.12796237931222362,-0.09723873491833183,0.6046046824044785,0.8997703164439379,0.4192921221183846,-0.5279134899890571,0.0044376329641350985,-0.47472631927482006,0.09746916667396925,0.4163999286153562,-0.37710033511475527,-0.12432780660424152,-0.9577472187629045,-0.2451903247749405,-0.04181129359382694,-0.030350267600760917,-0.26750158741202157,-0.8581079938191067,0.6248011169184898,0.2503893599432545,0.426771426322099,-0.973740849270292,0.6749721778276199,-0.5766292679017333,0.43111956119598877,-0.9380794688094687,-0.550196187669983,0.21920009334131949,-0.30139693007936214,-0.43110567989022963,0.891855326575602,-0.7349450748978614,0.36021060858933424,-0.5393567830141883,0.4759876787100363,-0.2442573159273605,-0.3179248436694922,-0.2300686044727814,-0.9047131000540142,-0.8858060684192534,0.5063586347305838,-0.01545687400136276,0.1991192435928266,0.09139014691423547,0.5723966719465898,0.965944432420915,-0.4342725375352849,-0.967011008798055,0.45661171132850864,-0.1886298116262133,-0.8892935178366516,0.6665718776569732,0.38727824716855935,0.7221489041143477,0.1244777772384174,-0.4173675642400679,-0.16516014278870905,0.6471008579113212,-0.6377435731691408,-0.19731828726393535,0.7595457296519628,0.8715669770192059,-0.9750386061001127,-0.9425362949610858,0.6777412645826512,-0.7296526031576965,-0.16023907014645447,-0.14010937185933292,0.7846858983908498,0.9834138223006661,0.9801881931450868,0.3835114187258399,0.008452723724214906,0.7456459191582624,-0.7359369027947282,-0.20458131586540035,0.5015935706933801,0.6918375225832507,-0.5344693084033795,-0.43999244917562325,0.07044541309737073,0.5545292503129904,0.9047995564951375,0.8676901301211439,-0.5881389500146372,0.0011855585685660323,-0.3377212786028012,-0.1741228661184773,-0.9273610062150041,-0.5234824104893756,0.9062244123517732,-0.57857835427621,-0.4359331023924736,0.9887153547913314,-0.4000366791609597,-0.23018754232742233,-0.6461013449890801,0.5765397965923617,-0.9139759963195,0.5895245046827232,0.5885896182177012,0.2336498226375946,0.48063577027699317,-1.007093270523828,-0.25632834204395233,-0.5098517357026368,-0.6964255570731951,0.8810690642461403,0.8633727206932508,-0.1133649281966453,-0.37756619946198006,0.5437887449283935,-0.2564431650184165,-0.6755231937184778,-0.6906085180306606,-0.744588448347149,0.42718861638623135,0.9404389140850483,-0.20707140041533514,-0.3614047968434062,0.21615750346264187,-0.793013435150002,0.4287316126974365,-0.048340135275623475,0.47225237340631543,0.13945441072932943,0.5146200409117482,-0.0038909502963523582,-0.7522142316587244,-0.4065748819715538,0.5177664079431581,-0.23477418384772444,-0.7304449046458826,0.16847488728209956,-0.4488270985579414,0.1723742440873326,-0.7038902352839888,0.1911242009144463,0.18453964032506923,0.25011975332547687,0.9189712380020542,-0.023206985998828044,0.027715793444762733,-0.5058153509408543,0.38988569557442,0.9117459857268401,0.325613815023662,0.6943036960295236,0.9818360304264965,-0.005166391344990073,0.05419986694086219,0.3847629810613416,-0.3337977144565987,-0.12860466575299093,0.5493250548422208,-0.8864226459438636,-0.8711332747714108,0.4529682885760048,0.8409582997982981,0.7486601703232705,-0.6421220211593933,-0.9324169203289464,0.9960254863888582,-0.024360062797464523,-0.7424285172448097,0.44900244688940705,0.6547648667778287,0.9108736448771859,0.5518038175037998,0.7801112368084955,0.4001012332784179,0.6097911909319701,-0.5004283932808737,0.5645487573463941,0.48800409338881084,-0.5142036724646407,0.16695344514688842,0.6804775986579296,-0.532439687091015,-0.4385433005510408,0.1438631571041393,-0.6953982011450168,0.7275350746297873,0.9947185541253805,0.5663636146500628,0.06350087950236917,0.7150165204458108,0.3148340376060453,-0.07990018036160876,-0.8165117609613727,0.48863787332183717,-0.4005781789709556,0.7600084538144526,-0.935243331186147,-0.8521983686576494,0.6977969694362313,-0.46548551379216824,-0.8852431012142549,-0.36490031923128596,0.42131092690363736,0.4526837498200479,-0.14825129948667123,-0.7939045774562596,-0.15749160913635243,0.8975411370157294,-0.40063848827913645,0.7138108546716428,-0.8555725358836438,0.20497803972829062,0.6264074865251504,0.5526646797914389,-0.10063702341732426,-0.23238070835027042,-0.8089616560510857,-0.5353753501576074,0.7251377250178698,-0.7312994857820984,-0.5169560401133378,0.4917948205312351,-0.5438458331991717,-0.9629997360615505,0.5094967632992934,-0.6045108990572503,0.44668577374702556,0.3901427245285684,0.5542330029438779,0.11320482733904154,0.21333748582296072,0.6027865545991569,0.9148583068199782,0.23439748679293188,-0.9691782618847156,0.5398755989266577,0.3575541225020057,0.42529888372087055,0.6892784693931348,0.7671490248031932,-0.6413973645326234,-0.33093890795873915,0.912481771290965,0.5205612196850157,0.38005499038124274,-0.07665393575247786,-0.9311072978213677,0.9152429427465957,-0.6421054682655628,-0.6330655193526592,0.7289087465441727,-0.014059443481897737,-0.48698235534046613,0.18633260539207863,-0.6575921866485501,-0.7400545598629628,-0.9638813532355579,-0.6581101159987326,0.7287024119895681,-0.46832415987612497,0.11193433205744131,0.09228717476801475,-0.8212634945453403,-0.82002051909286,0.3803449508994766,-0.1345630567477144,-0.9229527634041937,0.7217480987037074,-0.5805884790868684,-0.44190141645464465,-0.007574054276588833,-0.844927244697172,0.6682445145184661,-0.8966797472543182,0.954868989318659,0.942733300967767,-0.2274263647524041,0.9651789659344033,-0.6134880789194036,-0.22057465006582785,0.09283098047978204,0.3030715924247008,0.7426278056053601,-0.6215171214813814,0.5481288387881016,0.23163489382901475,0.20943451300379143,0.4437347838890962,-0.7985745895367132,-0.16579927728229105,0.6601931575489344,0.36482491836453546,-0.8471865209632723,0.1939632154585273,-0.3442922897053878,0.9054264091958096,0.82766721607386,-0.8335542838256241,-0.03395545961846845,-0.694964101908274,-0.8847573088774398,-0.7923821638625538,-0.30112009382829763,0.21480082140391976,0.7131734968553636,-0.721714066130701,-0.863803870545896,-0.21316238296490797,0.7834570655439383,-0.612875231936676,-0.2831130517222601,0.8188925988525262,0.9818114358049898,0.31790432554039966,0.469165390946007,-0.7760981545210108,0.9585822755642621,-0.03308934801780377,0.439353948687013,0.665879131413913,-0.8456064118053884,-0.8429427245960112,-0.8023335830336494,0.4757158590299521,0.5076427949711086,-0.16578364748895624,-0.8503685585919837,-0.6029197116998137,0.028263428611665153,0.7189661507337378,0.19281781527677982,-0.8033197112890823,-0.4673416666177809,0.4866868344538336,-0.48769617931467374,-0.06628364717988428,0.22875669569209411,0.27580471402090273,-0.39265419154806475,0.8442938887265587,-0.2258311841405625,-0.8518715675555433,0.4013676803298801,0.6656671730584087,-0.4879434288205196,-0.14264197083877425,-0.265874201180916,0.3191765737957153,-0.6168071357313363,0.599488109835556,0.869626105782711,-0.013854048741126923,0.019250222099384866,0.7227201366377816,-0.7221963692756818,0.9342168034484584,-0.7287726985565101,0.5761979265870186,0.45159784050132423,0.9000813158341265,0.5508989520539147,0.8228481954521368,0.3535294152412868,-0.21243280332661765,0.12531168916339638,0.03384158034369923,0.6671315111531546,0.9298209783105554,-0.759029380384135,0.5312128056398616,0.34288619689478556,-0.4147845604920287,0.6315984831666718,-0.5429734383561069,-0.6998297402881385,-0.9753412165908567,0.06469663662222258,0.09286442821378348,-0.8414502475294976,-0.6410635728147605,0.5788642947370358,-0.5309274823266915,0.9783561542404865,-0.9653030156213167,0.23136834904603126,0.9839473096350101,-0.49243257201412427,-0.25697515183987507,0.9133820005302569,-0.08552652883007691,0.2215973290982544,-0.6745316252966874,0.4204367702233756,0.543109361313838,-0.05414622557916264,0.8808668979296371,0.8445324090396612,-0.11995414967698889,0.17424741957252182,0.857416820407664,-0.1014359224679883,0.1431832566279238,-0.22840343666004473,0.09826935115663464,0.7510118902723152,0.5180369730780741,-0.934427149378023,0.4368107348200227,-0.32306228644029517,-0.26122736869917157,0.35127312993204507,-0.23599232797753245,-0.9520053419273115,-0.32083389171798105,0.01600121868353211,-0.06158975463108943,-0.8324662967613231,-0.12535281934604525,-0.5592478924685391,0.6688478923473673,0.30342815432613773,0.3216444487654156,0.8121794102401152,-0.33289138978357224,-0.21758847920212082,-0.04351847013968997,-0.8256021569421164,-0.2392107928648613,0.43318079414571964,0.5615077924429881,-0.04007405038007856,0.6446849411498825,0.14239892993886133,-0.867824118034633,-0.19515096719498312,-0.7305340611312349,0.5242596289650172,0.44100690445921,-0.41159524511704415,0.44001804034138986,0.23238256342898234,-0.7793313088310384,-0.7978000296670971,0.85703853561839,-0.8778567275290108,0.5928899921930205,0.00952839866042496,0.4299244674385466,0.7601636505539507,0.49330906118938844,0.0736434072519969,-0.3813153818504954,0.9032139548656726,0.5524846543822547,-0.7852845970367365,0.4317323357489569,-0.8541604278095957,0.32687122176171834,-0.873737230758912,0.23031640453909497,0.19454872383453148,-0.9502824263600823,-0.7529646014760344,0.914169058153437,-0.3332723824823245,-0.26631084988275133,-0.4176785325052368,-0.5744390253886964,-0.8222443406674719,0.1985175590398611,-0.023994609881188855,-0.49147557835153377,0.26940621188051306,-0.6756729202380278,-0.04865388558077595,0.911172519098864,-0.1296032386060985,0.6629151517458337,-0.624122336166984,0.07686782336848032,0.32104393583730795,-0.9146018442262689,0.09509630976131367,-0.4576238665165047,0.8759739852389333,-0.8445964224943621,0.6046726643096559,0.5875967125152303,-0.7496333856397905,-0.9798727826594992,0.8004680001452487,0.44036936572592567,-0.2002547558788724,0.9882871511559632,0.4162653142735028,-0.6596077714648589,0.8960917204874191,0.8596075704536119,-0.6790894467813613,0.6166572537842947,-0.25685775205725003,-0.34209693492078846,-0.01765853642449444,-0.33633519102919424,0.7135116061371913,-0.11389925799387016,0.3385940614773029,-0.9871387807801101,-0.935004267013206,-0.5818642957376969,-0.7418229130925196,0.6582991560380927,-0.7651582688138582,0.9340699707037152,0.5787561467024012,-0.4897099944454791,-0.9306862361749922,-0.8867526981822372,0.8843437259355639,0.4468112902797084,0.4792259139272877,-0.5074155393692251,0.45370430424248404,-0.29675329723924293,-0.6423308479347984,-0.903600520240384,0.6017619382023022,0.8211136339078674,0.381118210631522,-0.6381099478141891,0.91707852963744,-0.6141332651944345,0.8267979536456664,0.9203722833387341,-0.9516588974727854,-0.4127168744869616,-0.42567442420782053,-0.3149426317058517,-0.5985774853961296,0.8205529386684869,-0.12785130239610962,0.5159113439453785,0.392512098774044,0.22830089450912477,-0.6373293229347953,0.7215254460053268,0.9089894985255156,-0.7560745124154434,-0.654727795470592,-0.717599077628236,0.33730040928477056,0.5268100818142878,-0.3681021399782005,-0.7460574181783186,-0.5662420583623374,-0.9021627217361139,0.8470985884642892,0.7426107800465426,0.3553896017929681,-0.5012876526274413,-0.5101540062972143,-0.26120512183316913,0.055210360650673626,1.0027550060742534,0.5591303962194065,-0.19936791311215132,-0.19221290200827265,-0.7584120457456198,-0.3624612317763935,-0.013106325854480936,0.7170671577009315,0.26377665473272854,-0.781122261799688,0.1518194397554182,0.14642004947504694,0.5039205499572115,0.168855786206908,0.21268657207009528,0.13193042370395475,-0.43016763560041865,-0.11581776806386926,-0.19666348870427178,0.14416237672605461,-0.34954459961940715,-0.821085162389743,-0.06276891710171217,-0.210171542819291,0.8804310592918446,-0.3966971373665186,-0.2764653679580428,-0.604125126868758,-0.642133241880076,-0.4968237955580721,-0.5001996613621701,0.8537774672038189,0.018127182079416347,0.6807661739497675,0.7452606827230769,0.038764844634943875,0.906870261227719,0.31373885045580996,0.33384385503852776,-0.8354331777260522,-0.23899106715130577,-0.753575540551271,-0.5755236661138713,0.20574563283243655,0.8517765449511303,0.5241021622995554,0.10077941768644778,-0.5973072545720431,0.19083966578387876,0.6367059469136929,0.8127915067892555,-0.6975717050223066,0.11353661975515797,0.4293067456940028,-0.5752262396374491,-0.5685955275437277,-0.5137125232094993,0.9389809912102849,-0.9167459147179613,-0.9286283166058731,0.6528207454360827,-0.37068002255306226,-0.9171644096680073,0.5340001634235267,-0.08681365696600728,0.2693242015085721,-0.030755548413648224,0.5822640640323679,0.002324302461971511,0.1907901491495858,-0.08356987915701795,0.9888626163816775,-0.28059736750173814,-0.0979790167544656,0.7030047202477513,-0.8105837710764384,-0.7809329693687987,0.38733302589923063,-0.9493330798119936,-0.10266434211767542,0.06074243707496349,0.6285355614463882,-0.33091260896046265,-0.8371994407523905,0.4235918249659472,-0.5885920413675697,-0.010266570576716273,-0.5413733373473859,0.39482773244102276,0.35205288703419924,-0.05488853592515713,-0.4478351092150479,-0.8238613837146563,-0.8824294251323781,-0.4135625382875563,-0.6244182583169094,0.24586448180734854,0.20468010696914496,-0.4573287469290154,0.7698471021120007,-0.5650484741192138,-0.10023367951059092,0.2425998611661919,0.05157547660977921,-0.709912482425602,0.38495178252971635,0.6565702998713856,-0.41759827794853605,-0.21577894910881046,-0.07207456838446041,0.9517424381587638,-0.43852133607721594,0.9218293320461008,-0.7414450379730219,0.7940725907906572,0.3104035771548121,1.02789101995256,-0.032851472665369405,0.21380805518210247,0.8059604654930206,0.0906795564632807,-0.0267454669277713,0.882365749243782,-0.017382157676597575,-0.9127939993478659,-0.3312606544239873,-0.7398562274170576,-0.8620685351037336,-0.06622214979438859,-0.5969069944046292,-0.7450575069688539,-0.3962093405892213,0.4834949408532631,