[{"type":"com.wsr.layers.reshape.ReshapeD2ToD1","outputSize":54},{"type":"com.wsr.layers.affine.AffineD1","inputSize":54,"outputSize":500,"rate":0.005,"weight":{"value":[0.12455381856767653,0.5005243422326792,0.3171716902736411,-1.0205853277442576,-0.38798604212700327,-0.9517354033285131,-0.2677211914625207,0.28460535156506683,0.7320640861395107,-0.9844898411161087,0.678576848064203,-0.11119918405218268,-0.09498172120801653,-0.3102723710770173,-0.7243727669576875,-0.40783966929059323,-0.6017714001759473,-0.08739774700210752,0.4298282484364955,-0.6776370109714748,0.1723568729244386,-0.6264077611692968,-0.2049453632016531,-0.634814228764011,0.6585495834607271,0.563755467282892,-0.8320514915337104,-0.8960762257454199,0.48036044920189064,-0.14175965283406095,0.9292313193305338,0.6126497304499573,-0.7609392708183729,0.04440640910888155,-0.810546138698139,-0.3911966171312869,-0.9871976792905536,0.5446184506614282,-0.4096300831885067,1.0023083381688613,0.884832284725317,-0.7431939584722512,0.7223206687244587,0.7376521075740684,-0.13186689087227263,-0.24481635101383512,-0.7532329810515775,0.1199974713388142,0.059242477177504714,-0.06599684276949756,0.49941487068082924,-0.6009354110521513,-0.6709763685674979,-0.15243998115245835,-0.576870711714135,-0.20792148561221316,0.07914641599690424,-0.030945004711987585,-0.5667465030515453,0.4131453567149854,-0.85740830130318,-0.21769046543124634,0.1757284358898344,-1.0279498245547956,0.3893513678742614,-0.9859695237096188,1.0357696721011933,0.40641504425896363,-0.6201095197762548,-0.7181137226890414,0.727956183780377,-0.154393133579402,-0.6681982912409546,-0.27462647026825776,0.40641931177272367,-0.6150870761285261,0.04014940325713551,0.1796082154415951,0.13369938466063544,-0.24151388036731267,-0.5130032370364273,0.7767847150116504,0.9553851239964405,0.1527329170954435,0.423627292654986,-0.9880380014791216,-0.13715197914192329,-0.587509070957256,0.0396039835909575,0.5284956834825955,-0.26199338598889893,-0.5772295491819152,-0.8446357174841799,0.7938865243954819,0.03997883070583072,0.4170375908776662,-0.7892059935218555,-0.7033607819153919,-0.6507409399586367,0.03258164316282674,0.566345038611488,-0.7070705119455409,0.05581590750120087,0.06008566030630216,-0.9908680074254305,0.6640647023650457,-0.8341662529372977,0.6969454924032685,0.3421543630886309,-0.14072710169192854,-0.03765368779246754,0.5470050396413292,0.7574329217428557,-0.3888739988645694,-0.08485990135233246,-1.101491628162385,-0.5775591441597757,-0.4174271901741825,-0.19509147147387657,0.031648700632324445,0.3603492744158246,0.5183291393678516,0.4700738525775019,-0.4643784988697067,0.7719532315954276,-1.0250084867797926,-0.6545184795088239,0.2294127582227186,-0.5144505274943789,-0.29683595058148066,-0.2990168812101573,-0.3348954349090121,-0.5065610119097427,1.0253313392716585,0.8351344523955427,0.2527572949852736,0.3328556832980651,-0.11802343305821936,-1.0514237432204094,-0.19061729605922925,-0.7343894923455101,-0.7943390450590357,-0.5723335481925897,0.6579031421360496,-0.8224870852695206,0.670289501314886,-0.7229819115910027,-0.47011564777594383,-0.04186666437307983,-0.016503763977724132,-0.7770277061832477,-0.4538923681653135,0.3876087236105519,0.7069404320879733,-0.8203909253148864,0.012976786148809656,-0.6831955646294026,-0.10807817096148924,-0.48816081143482687,0.36918438318904856,-0.7781101612922738,0.9564896629680995,0.5684440598010656,-0.12707617394560006,-0.6275508638246309,-0.9145020148004239,-0.4097112667186858,-0.6553282347418369,-0.24401191781408718,-0.5528578378480455,0.7036809639762016,-3.4991344001733754E-4,0.5914640104808603,0.28883392988385403,-0.46869700366540157,-0.8444014673392342,-0.16306769483247222,-0.7040447192819381,-0.10985121012660706,0.07509264778483994,-0.6645589001229324,0.35967597026333054,-0.2823411796158889,0.15417981803822242,0.5522394327082845,0.3183180768804292,-0.9606757592591203,0.849814898384438,-0.4644139392964396,0.005600035830393713,-4.201340917040546E-4,-0.6285781535173084,0.7406072528594896,0.8399219801070859,0.3154702221814386,0.058905910901569984,-0.5293792607132275,0.4676577371251059,0.8109126554926899,-0.6610608774672592,0.8193822997755653,0.7190989794121525,0.8084354721071365,0.8084298604563844,-0.8018989044570896,0.3350800240604877,-0.4963909042247423,-0.43017826923139824,0.4189041520943782,0.2898901590217747,-0.2610592540709336,0.1150498107369877,-0.49127623800699816,0.3728769313934957,-0.06056744309539492,0.2207079018922052,-0.0824260979651626,-0.9140301112552605,0.04058599136999567,0.40453590073267837,-0.9331385986876619,0.7613440775429112,-0.3106838045224507,0.6659940202854353,-0.47186889007769495,0.3188449825162304,0.977700665021898,0.8524296734223069,0.5020901981976332,-0.9600301817314377,0.3247684330151489,0.969090706209403,0.8827476885908965,-0.45675069100643423,-0.3158196734284124,-0.9731353692152679,-0.7549393406277656,0.006578103579248451,0.01623494925762339,0.13428720279937661,-0.5812462626655925,-0.9862188007030607,0.60916100672684,-0.8499226614776901,-0.2447041913648878,-0.02701578528755825,0.8026685884028579,0.29741185929731007,0.4958111077697176,-0.6526312856664198,0.573537735695477,-0.9828337864463493,-0.15296894441352965,0.23076005279419354,0.20099568479534374,-0.2448235105457158,0.044469133410504354,0.2040400546449729,0.9399371427273359,-0.7758164882739961,0.010273051264854489,0.08196214784335257,-0.7396924875148972,0.7478204686054714,0.12887713511369958,0.5143891019479248,-0.23125712599699286,0.39339059709207924,-0.0663150758368882,0.016597447477430912,-0.0635702811468788,0.09618205180456686,-0.8137710208238171,-0.5050340228888612,-0.8201101562789471,0.05275187239310332,-0.8919542876701653,-0.34373284823085065,0.7521225465206816,0.8604398756241343,-0.6663857060748375,-0.3256791681715154,-1.1084837969427543,0.42693288877367147,-0.6062599619187335,0.1185702864722302,0.7700168624734918,-0.26356922019033807,0.006171490295226933,0.041922793376082984,-0.09306207711198176,-0.25652321855597615,0.0626861696297773,-0.6153387180744158,0.5063923537212824,0.12823087466036373,-0.34034179962487326,0.07082186970923557,-0.6867247312616563,-0.7142625999190665,-0.38631406851562017,-0.004668571500360605,0.6129471043004643,-0.10674335679484764,0.09658784695809744,0.8076962412983927,0.16311572685115114,0.7966855185638023,0.312613689596141,0.29330878231714747,0.1936016899414644,0.1312243108295584,-0.27947886263034327,-0.3058416481360417,0.6136512142776186,0.2725623827743629,0.11283846439973273,0.4756937491213722,-0.2822224782564506,0.026455834747858294,0.42753621705824235,0.4495321764117694,-0.7994878073422077,-1.0475472299754713,-0.45732135073758506,-0.15158717285157408,-0.26945671643784436,-0.36037509662718886,0.5222731408718093,0.7916903824185351,0.8233698304663585,-0.6006173830260425,-0.09429737650738307,0.13837322628247062,0.6999294042023665,0.4549534400079171,0.2632603238772728,-0.5762758258457411,0.1487339435869748,0.13393863314513857,0.6028562572745111,0.036258179207183085,0.49342390492226484,0.6450314942132082,0.41121717866818813,0.5055376120673325,0.0185013071270556,-0.19397887237748782,0.40982200656134793,0.7533650615385674,-0.6254112833749196,0.4392811111903281,0.14636342686644926,0.30272097127070824,-0.7541593155659778,0.7547207667704573,-0.3198671216712985,-0.5022175223314987,-0.5763446505072246,0.5473832120630998,0.44002358042830736,0.058258442403244126,-0.8155416099841558,0.6022062945782222,0.7418834593773478,0.3461608949642141,0.8540760568839277,-1.2001573172932702,-0.6311144691678193,-0.038144492851986546,-0.8474817606302056,-0.33284837989640886,-0.5929546479502728,0.8488603061168254,-0.16272060165080357,-0.5145854015838699,0.3175159210788884,0.2733447273995739,0.38326082151381485,0.30230109320166954,-0.6609963715382103,-0.6460340458000516,-0.7214864401044219,-0.47845881812394636,0.35119506713854526,-0.5496696462930071,-0.4659834003534265,-0.10101181657496289,0.39383937646292294,-0.7381451514040444,-0.9203720225546773,-0.881370931004162,-0.14346406933583958,0.5174008202104667,0.011869035006237103,0.7471222705767127,-0.5738700121825911,0.6111407650741704,0.6613390546353786,-0.7093030282887096,0.8872879932005451,0.7390653577676476,-0.3452213077792232,-0.6546600459595537,-0.11969539083685107,-0.5129581300238933,0.09506010633228706,0.44360195276095354,0.4651744796186333,-0.9697294376613486,0.23611370153946704,-0.26781489105364303,-0.217755684460638,-0.5400840050643831,0.2063617264384704,-1.0710567738854204,0.7750005131656468,0.0628357779637392,0.35578506007491734,0.6482626191750822,0.5214798029124602,-0.9959502837895489,-0.6980976231908426,-0.8551887253835413,-0.375600236856462,0.20063536107550062,-0.8065099342947709,-0.9633228757440792,-0.9581648103392947,0.08859354696567724,0.7913697092931979,0.5048824886289156,0.07556380526685287,-0.2390896110017388,-0.322217166489363,0.12865956092581787,-0.496015213010087,0.14714507093993567,0.42460342248361194,-0.630624920475075,0.4408610999733727,0.5195816134064577,-1.1814265032858702,0.03671802066490426,0.5672987546399705,-0.4767762821553481,-0.5247134961390005,0.3977394534474674,0.5733096854392212,0.25120850684203067,-0.043761444491503286,0.7724390610122527,-0.03388565818497468,-0.12645775769734569,-0.370927023006113,0.39844869477258055,-0.8697968511875431,0.0811517826828973,-0.38050537695596576,0.3176752941656025,-0.529766688573573,-0.7132642251723822,0.30036801737056235,-0.6527372576636995,-0.45401954929413396,0.4531701056975632,0.037592905343954416,-0.4875823007053776,0.08012566581996135,0.18609334004313685,3.5951378954804684E-4,0.08707091950025268,0.3711897355039554,0.6507212229933391,0.5110971863209411,0.23440185046946757,0.14150419172505868,0.7554522197307443,0.1556296628564192,-0.04717252860636039,5.266967497613675E-4,-0.7478632405423771,0.11207661550249648,-0.4321216384870352,0.05799333929440553,0.09651717767157143,0.11540674850834803,-0.375005068685144,0.2958743288942545,-0.34051386460598065,-0.47069668736866976,0.03400955335378925,-0.0566837851612899,-0.2946314155253937,-0.35208483288088627,0.0333172687619169,-0.7922595096222573,-0.005875654734152391,0.9689436750670789,0.6028100620677359,0.18494725803370546,-0.1662951955263736,0.7257654798747966,-0.1789167076355463,-0.7426857347337082,-0.36055122182994237,0.7890856511283846,-0.410501103289649,-0.17946002923358761,-0.9112118057326023,-0.37375188766435663,-0.11021116947014589,0.6796328717057301,0.6982433920344073,-0.9034187292502714,-0.5831838265715431,0.07311614592967443,-0.9333359174230108,-1.0492608529658745,0.21109337157152863,0.4458455406232839,-0.8527058270073193,0.4749733023028007,-1.0048268944746717,-0.3427457552572459,-0.09120723429932603,-1.0305757688574761,-0.7213734617897611,0.10991962205085891,-0.7021340243076525,0.15706654358195027,0.03312743127146709,-0.21558705919541193,-0.401484614938786,-0.7674134527589886,0.35682413944756997,0.4583757789859032,0.15729313983359094,0.4702534385472946,0.5994462912459483,0.6648882186321587,0.5167232549638586,0.7465565057759556,-0.7700095735666429,0.5892102796922143,-0.7297185705087236,-0.0127069044572467,0.2046547936965446,0.8533012978034852,-0.6969601021888178,-0.06629062874523299,-0.37054816557307857,-0.18420611021660088,-0.7061993915220686,-0.5977686271282237,-0.11339964241139033,0.5964549882043476,0.5053240890064997,-0.31818416425217105,-1.0296206343722787,0.7201735541401901,-0.8806994858820018,-0.10800686165830624,-0.09291367009239787,0.05815048432725466,0.566599463922097,0.41282275545560054,0.07347085885631811,-0.2275341688777195,-0.9129126909913933,-0.7130347594506924,0.06358153691461634,0.817450424692834,-0.7618646137279155,0.38092880518056815,-0.2309637935585255,-0.39571571267648664,-0.84604849488072,-0.45535989395773374,0.3866771702018603,-0.19188831136142775,-0.428807211560985,-0.8093458969395075,-0.2872960172035054,-0.3709547299610146,-0.15184751116088957,-0.7895633452665418,-0.34749928402518016,-0.34739536074846566,0.8092007679973705,0.6157203842256854,0.7658062717251513,-0.8159301783705926,-0.28066895243943807,-0.03766132198306624,0.5714280435955935,-0.5911234914566993,0.2079614117583972,-0.39516299227032703,-0.05124911393392043,-0.5641097003625528,-0.4238636933845176,-0.4465542185053443,-0.12029820722426242,-0.4844200229755632,0.4063893795348022,0.1715217855590643,-0.3861979533388289,0.21728957174463553,0.8227675531189635,-1.040436504202536,0.6103667390830392,-0.3369209635000534,-0.29009410686152215,0.06946531031888421,0.654478380797704,0.8525848204893048,-0.662619700383876,-0.2946742280397953,-0.48517775275170505,-0.4785169697308653,0.15881392589361634,-0.21651786738926312,-0.7673288737305708,-0.6705842671107934,-0.9605124548049109,-0.8646116489164224,0.6021315567590864,0.48291441809871766,0.19825479590154213,0.16959865144585892,-0.7936210670737122,-0.5312282874020061,-0.9248003970008651,0.35185739632594787,-0.2106312080376781,0.17810403992785645,-0.5621108310103251,0.04497462309159887,0.29893568946390925,-0.11665956680472518,-0.3787768538430222,-0.8322450735458956,1.1435896335492715,-0.88209934627028,0.787207128843335,-0.6401725979957035,-0.37460105457076665,-0.8530175865634171,0.8251709824678094,0.5925501385305763,-0.03495680987208775,0.7231314069100672,-0.5217113838132966,-0.16142360163435737,0.011013613504120088,-0.07955385944784805,-0.6526512074020547,-0.5880219846661757,-0.29616239556264506,-0.5107559130017715,0.0577488824184496,0.5077473093616709,0.39386918926112613,0.06308339982343808,-0.8554557638883192,0.6172360629257039,-0.406107301451849,-0.5691455021349345,0.1319925692698085,-0.10584176591205413,-0.05797174750332122,-0.7819383553471364,-0.8688801831407915,0.4777207343279274,-0.9859432480455141,-0.27948963948387945,-0.33676286213450646,-0.00945907814367749,-0.22805612124175825,-0.4676919567039947,0.06560937770171588,0.2281729203709588,-0.011524259362314201,0.5934852026051772,-0.4007211222183871,-0.5273360771241788,0.27974644909152313,0.8108074173902872,0.7830331957536584,0.13600767733185848,-0.16945833877012753,-0.7926351009409494,0.6655617510106315,0.9022583353905553,0.521873719121092,-0.24200557138201717,-0.5729231260443641,0.3562129942095077,-0.023044416414889773,0.9611279723639466,0.21208542021407134,0.6227686137671313,0.6275031775147197,0.5925217440564922,0.7729246359379398,-0.23041920239649033,0.1000667846985478,0.23100485664357892,0.2987912248100928,-0.8922578235777154,-0.6997569257263009,0.8009514292535121,-0.8610700530521044,-0.935177273564406,0.5563552224319701,-0.022129057292617584,-0.9600657247718017,0.78154689881252,0.25300448248429275,0.6970331637349632,0.4581298854158259,0.3705191228575333,0.022023079021719523,-0.6644930445095893,0.4566635350388124,0.7699273622844987,-0.5926244049194113,0.33020913386384326,-0.7783106474857975,0.20013715803599771,0.930361680345979,0.373665267657356,-0.9482520604727532,-0.30370080357149243,0.08329236805563911,0.1121730098712672,1.4128962661398572E-4,-0.7022419752188993,0.5984928621685391,-0.031221724894261962,-1.0173494537004801,0.2664376626283275,0.2563818754366954,-0.5951976976284789,-0.6514109474244318,0.516021101985306,0.044683030397450564,-4.4440140174924555E-4,0.6275169026124493,0.3765768312832489,-0.18252164608256224,0.1789562643973086,-0.8507805855641623,-0.7383408094611154,0.23181842587916257,-0.31921755981628763,0.2310392483350882,0.9564479167774325,0.6158378537286273,-0.4966548343510977,0.7818806502301513,0.11923181864382841,0.831467529144149,0.8421090515492842,0.4619288088047889,0.38950251267552355,-0.588011707660352,-0.12170156651836962,0.6786865466587084,-0.8877283112042499,-0.376582254914671,-0.9670879253992893,0.13744236394156858,-0.2601873305473576,0.854250812532649,0.056654083720647584,0.4653395815537213,0.21917215559382874,-0.27211310886602963,-0.45658189657873594,0.6655723626136059,-0.8311715159792826,0.28143400058565043,0.08423977072112168,-0.6192768027358302,-0.07346287048247382,0.7741827356318212,-0.05080357854078177,-0.9466986487706488,-0.6016066570096632,0.2527021098505474,0.09724621059197894,-0.4040771758546432,0.45383437262341236,-0.12319929713883082,-0.20137209745617687,-0.14577515255620213,-0.534228940228326,-0.3322666408495406,-0.21844507511928976,-0.8825212598915178,-0.7124778128337018,-0.26166758350836744,-0.1701596145072314,0.07152999370189929,0.5297156459097639,-0.18212859139292636,0.9139920485421528,0.11926680833960031,-0.07421533811370651,-0.1686250529181987,-0.2618876879153243,0.18323893707074693,-0.519651991644829,0.5200672086508451,0.3118646399895902,0.6957883517549809,0.3736508658409875,0.19522665591549765,-0.6614294916814951,0.13949748112304197,0.43033742937117087,0.6824769262654293,-0.9059131101313564,-0.3898603351099351,0.5248947607112707,-0.6772910523907683,-0.2955442525316377,0.49262735660039636,0.6329048920430099,0.1190730522462676,0.36754867301313465,-1.1025113173318375,0.4058883980688151,0.3454183428094401,-0.03152349037129015,0.8558537423938796,-0.24198597175936107,0.3669673354495324,-0.9087403701165565,-0.39993942002916877,0.3098585547733671,-0.38343646601107845,-0.42766164212934465,-0.8507732836676023,-0.7000630710002634,0.020440538755704556,0.5559836018960552,0.7474241634740428,0.3120877638461213,-0.988180623251089,-0.6902720430082584,-0.08746249431858505,-0.7089642989262886,-0.17043555138795022,0.5022503727574417,0.6434025219091241,0.3578998323133924,-0.179267931186269,0.28645337874868865,-0.4265775661574685,0.1887816257468713,-0.4345672943904625,-0.3188089831917488,-0.011487340973099988,0.2671241996093855,0.29556111269569396,-0.4442927802280686,0.09972458982915702,0.2277491693974763,0.3131227637816035,-0.4789555566439454,0.4079330522128918,0.591183075516236,0.7062771958594206,0.3570631364382028,-0.11730945080116952,0.23851062505237375,0.5928949141711299,0.124272251263986,-0.24381236073298332,0.06819625726186129,0.30125534749037214,-0.9241062032174895,-1.0048066195311727,-0.33657986434912546,0.2701950693707059,-0.8703730966158445,-0.526553712484574,0.23285837099846962,-0.62266040076358,-0.22514393365449398,-0.8729488409009718,-0.7804140110356742,-0.19393254544426614,0.7614224340995968,-0.5280902141756348,0.15761239419956097,-0.6224008113497601,-0.9103639087428848,-0.09550578522263962,0.5456032477983657,-0.380716740267009,-0.8799116159467683,0.08790171077766717,0.021688716152329937,-0.6542448753650041,0.44585446861017686,0.6724630828880198,0.3367168864358399,-0.6312364918933681,0.22503398423052767,0.8270338589263815,-0.6924785420833396,0.286311688708515,0.40546326606024624,0.41133140388170997,0.6364666819794638,0.07969792236641772,-0.728550132199402,-0.46144800261024427,-0.8285024507617491,-0.34713328137644456,-0.6893151488691839,-0.19841180981140033,1.021175967951192,-0.8639866619096391,-1.1382885198800505,-0.060236286694669405,-0.8283863129768155,0.25821674150485463,-0.7610620726476064,-0.03026752439391299,-0.5053120027082029,-0.09121789688389557,0.6544387738063367,0.512430722798042,-0.4608141885022269,0.22258072689232375,0.5169901180385775,-1.1808417065919292,-0.6302798905856446,0.3284659429224381,0.31400801796838623,-0.9034009557985252,0.5639990077175632,0.7254724300640623,0.3003923402793121,0.5311201407257256,-0.09669389104855401,0.609416330329606,0.4038297958066883,-1.0195606691855685,-0.7638522697293877,0.7775590625175625,0.5366976856183003,0.845563389361439,0.6411320646786484,-0.18916819262699522,0.07376980281276813,0.34074970415748834,-0.6807824109773066,-0.8153932876094312,0.8083211822660484,0.89704157752564,5.971706894068508E-4,-0.44621875344209094,0.8036189596516201,-0.083679628640097,0.7048387484431821,0.34975862071915714,0.6118432338745522,-0.11816832885632564,0.27165502959184484,0.5876245107621504,-0.057824728348183016,0.742806389285955,-0.7071685213470357,0.901923901654271,0.06791527616198266,-0.7576069789934329,-0.16023649592499742,-0.1027587239860607,0.322843197076634,0.6113202587343841,0.37411561724794734,-0.33564221290418117,0.40157162840826544,-0.962780559140301,-0.03733858049248738,-0.938909282999415,-0.9528198333728044,-0.6734471996949685,-1.1118131840558403,-0.4801139658846281,-0.7558409985567646,0.34449533173372515,-1.0419912054982698,0.7964575273738583,-0.5902793704278558,-0.3444347344090277,0.4663816191491634,-0.06073488136950531,-0.4608751180001925,-0.7030930489992282,-0.3378473168278221,0.9430823605609489,-1.0085620928157397,-0.2205103928779819,-0.11827176642867142,-0.22769154988309095,-0.805622850285495,0.8518341449865683,0.28526690738321786,-0.9557006473388341,-0.004413892721581606,0.06639906241508382,0.16829204331601239,0.8199708757211162,-0.01755386595690951,0.7904116431477337,0.317096901384768,-1.0144921266756872,0.8039558187535543,-0.5804038545462354,0.36138311897218367,-0.3494338740111372,-1.0029504010026158,-0.10759487762696848,-0.8671891700621425,0.3531864670723739,-0.6043935073572395,-0.6461874399121801,-0.16962282330730757,-0.01812410563300445,0.5021349823415587,0.0358286876574605,-0.5327154502339402,-0.8040916489973663,-0.14886463540966963,0.10691751621469785,-0.26802582286399557,-0.37351675753891905,0.2668636410799159,0.07718426193289295,-0.3995737583103962,-0.22846959360715813,0.5317300885682305,0.803823824132182,-0.3272791314984403,0.06343522462797259,0.755588027684251,0.24095000967016192,0.20022456879118863,-0.9024990947684662,-0.6440195576718623,0.04410326480258771,-0.4987207949405688,0.11789448069611881,-0.14064927869982574,-0.48326379658564866,-0.5064001554193189,-0.9150310721369834,-0.4898907713690102,-0.20446054379141912,-0.7824795502421139,0.8702384488163444,-0.62197198404136,0.5329681504581717,-0.2579874921285146,0.02709283799118264,-0.21125817460857937,-0.5218370095114877,0.17665181768415303,0.47965206707770774,-0.5825925432976348,0.5149418530467368,-0.33523698063276774,-0.8469147499624722,-0.800728099032457,-0.3933509902334921,0.01659754340140061,0.7978371530730843,-0.5361409642491419,0.4700866883464111,-0.9298459370281232,0.8486173315674164,-0.3111696287102244,-0.16364038010074758,-0.8431649800469022,-0.8628567286475428,0.6092888779725545,0.8234031274847001,-0.3653507904692006,-0.14808844317630104,-0.3892358392466736,0.45540397571064706,0.7066182927609383,0.011980311702730034,-0.5240732767026677,-0.9549442840013321,-0.4666277913491376,0.34227706631162996,-0.45085139510974914,0.4610112504097166,-0.9065260906061007,-0.18190848029083634,0.6379218523972585,-0.5288773579134992,0.05026772276839667,0.8535990845428908,0.8365589686340682,-1.0731127288735176,-0.286926903569991,0.5077507674749716,-0.6386485243406986,0.09314090144797882,0.28963461221201736,-0.034123678465664935,-0.13877092257903945,0.6429348521245015,0.33867379539014236,0.7931254057759827,-0.4332935617536384,0.1779557469880496,0.7469590462855612,0.5971126918089193,0.6712036892604715,0.09605867078158994,0.36408872443386164,-0.9729321131017744,-0.4339966418675617,0.13323055512312093,0.003938578682433762,-0.38536724546271506,-0.3790089208266454,-0.826704810601594,-0.3740535640540044,-0.8667578567162941,-0.27116967888612137,0.35644296118869384,0.25883633939571504,0.46911966259579124,0.4627331406263001,-0.22832815601286105,-0.6796046569477372,-0.9731356539776342,-0.8444595189931704,0.19078763513934588,0.6351247893161613,-0.5029168995745055,-0.6779797342462403,-0.15220880392669736,0.2943936758234445,-0.3811565560319516,-0.45713087114315915,-0.735827852540191,0.41734759855471654,0.09787918914123694,-0.6065984573595261,-0.7978927083590617,-0.49032371941529124,0.8226683277802587,-0.6436131590609521,0.20048022871296778,0.8882032125084006,-0.29967520039365875,0.7090716355776113,0.6537187946103696,0.24024839433305495,0.6826920881219418,-0.32937324137804563,-0.3101381892148736,0.5283991062060561,-0.16715132728574436,-0.5806372306893531,0.217667744360852,0.7774021966719854,-0.35316899106547056,-0.6191390377623129,0.2553359088641881,0.8021148021341318,0.8587242769802453,-0.778383969658132,-0.345950857566536,-0.7852455750320441,0.653208547626239,-0.852408836555947,0.6524585250243466,-0.43281958846691904,-0.9553848699260411,0.6390673758645443,0.2500061858533073,0.8809995430252622,-0.44218597256840825,0.6638931160762556,-0.1393760795058692,-0.5018904045314581,-0.8631270229877314,-0.8884466421571903,0.29143127831374416,0.44272365047643003,-0.3851319599005994,-0.4984580121364499,-0.4547401568600957,0.0019650691251969364,0.18423059388929994,-0.8232019858890011,0.08848510483480715,-0.12148602124913442,0.6875104449355375,-0.9088616456809089,0.8652497198594961,-0.32482352853124685,0.46618159404171006,0.10353762093579838,-0.23256925721089078,-0.6761551389806411,0.691472196835386,0.029048123626609076,-0.013775588894695137,0.6038817545300776,-0.5503513922032328,-0.7121356961352282,-0.979410585176635,-0.7895025572998963,-0.9340427170925472,0.943131864849747,-0.47446542106774736,0.5891189101299952,0.8484131186471596,0.2595244467987223,-0.7661340412178351,0.5921787086522444,0.7470387495873643,-0.2352377511110258,0.33628760200361,0.7584291093912364,0.8852919139370365,0.21673319466767246,-0.6332504816020825,-0.5265886407952519,-0.8432729914290229,-0.9626103502823868,-0.620610579778912,-0.8417250776140142,-0.2703015821741487,-0.8029484698092798,-0.23892875112046547,0.5326545028329003,-0.03893698635511735,-0.7912603949259668,0.7600479983133456,0.39750019977019285,-0.6560157407204903,-0.2352154971126784,-0.21878911969484297,0.6485718618823522,0.8010005063098626,0.6139635905583787,-0.6746113921298781,0.4265547685739581,-0.324790313327071,0.7264583184227825,-0.02873434894887049,-0.42083853713645825,-0.725048467568238,0.7321255065804702,-0.9499635161958788,-0.17492952480453558,0.45383601780486865,-0.3113819163297554,0.675222033314815,-0.028368202648367653,0.9090831095336721,-0.8908431276883346,-0.13356959151933734,-0.8660152712980876,0.7136086835597745,0.8502795653686117,-0.5257212260751913,-0.07727132022456579,0.5915084732353225,-0.398355719761424,-0.11630410125752709,0.6268798688941433,0.9885406939433468,0.20425941159023034,0.591024387851042,-0.4589999662843492,0.7310493114625066,-0.793553876199427,0.5477324639924995,0.46468981692525607,-0.4719886346544185,-0.2020301676109373,-0.7258787936378913,-0.36401736155530395,-0.381304129064606,0.15018567836461322,0.7203147841510502,0.7744378878307796,-0.7531885829610067,0.662850589028122,0.7231805665069496,-0.2736248311924669,0.6661865118718626,0.21148693973095087,0.6569389797527312,0.7253023387619052,-0.877499706647316,-0.937580233751794,-0.7621879172208681,0.5450231970794097,0.40130956039991933,-1.0219567568753747,-0.6296059137926914,0.20809667132033505,0.31818828875036587,0.5267829584966813,-0.30453054413236424,-0.33179860864703753,-0.05251271008970816,0.40381817363181916,-1.1325444845058976,0.4452448242764414,-0.3241741466005333,-0.9825432138990654,0.7708789773246075,0.016396414189215464,-0.9454696338744044,0.5595987159255198,0.30811451928486017,-0.5616339581647427,-0.8740087626159472,0.6397578427882846,-1.1463775918758683,-0.7221258749198115,-0.33512382016026004,0.23844255438886455,0.6794875555484623,-0.9589459739618251,-0.46404006202987563,0.7412523898424258,0.07754418815332738,-0.9280914632937607,-0.7694237713524811,-0.23571315834814377,0.31104163158229675,-0.7044957687238317,-0.719330483413146,-0.5885395705960059,-0.34854870773885105,0.27743349943561124,-0.5228976223220813,-0.8289883452371509,-0.1605855612920102,0.8991548513469384,0.015563325012996863,-0.038161126933391125,0.13473460930984255,0.6447245556812908,0.6064547747895666,0.12700468125660247,-0.9284884392458458,-0.26711427301767293,-0.9333486933524878,-0.5959474607171661,-0.8771520593390904,0.8623533917256404,-0.9364044107039815,0.5691379511101725,0.31119225283123364,-0.105619028206133,-0.6147384117256656,0.10301257894547727,-0.4016554919152459,-0.29206133181172106,0.15095500266975873,0.44327322248635403,-0.7301189576491725,-0.47471820296027245,-0.23314764352928072,0.3898860977000699,-0.6867111323817225,-0.3982812120188784,0.7002920972104313,-0.2757458109693194,0.035835345657853415,0.6072589847618532,0.5789033057186899,0.6241386786186637,-0.7926094962217205,-0.8897633070745037,-0.8224081846686687,0.5096481147430568,0.8489293665289703,-0.5680146701612104,0.7241574069750242,-0.7430976147031764,0.9488311546399815,0.5381233128843872,-0.019909621504852062,-0.15662068933956866,0.16243131443497327,0.056252825771212205,-0.9754593665048586,-1.0005460181509682,-0.3749612017521508,0.5605930271671425,-0.08181645684156136,-0.5262625231991807,0.4077588947462888,0.23593012034151895,-0.8105855350779644,-0.5459431233484818,-0.7167125171992519,-0.7113743269402588,-0.4753632954711901,-0.2948020272839378,0.136195253646648,0.4825215099025592,0.4134141441740314,-0.9250412087294065,-1.0117405943368996,-0.5453760801189127,0.02885998918664366,-0.7816589545903184,0.32225766002866524,-0.36680916135182917,0.4856987783319657,0.36661341278559073,0.6196347039802779,-0.8024855561461309,-0.1216516231387639,-0.9739051039553862,-0.44699617287577065,-0.07706653017534355,-0.516274965446346,-0.07870123253325392,-0.4229246389979254,-0.8302949146873679,0.5018970263457562,-0.2320956971023405,-0.8688631730853021,0.005857766126554681,0.49050148590074927,-0.28817619318705334,0.6258178134494304,0.49283496370260643,0.27221276040224396,0.21968075513052882,-0.704533399124688,-0.9367645982347128,-0.7703946269559113,-1.0791915770782479,0.4362737879364361,-0.3342027027158118,-0.2077001407845827,0.899751467529196,0.001177304322790109,-0.1432712179287387,0.6820650653710867,0.6861116050156512,0.054587411585884746,-0.46160288705996044,0.7634429311689007,-0.42466274114511715,-0.6436220981625767,0.4520844263900388,0.08821034819487679,-0.9186212582007648,-0.6523946766029989,-0.8112099451016183,0.3732890465646273,-0.3693461849510446,-0.41318933999359275,0.20897415802412117,-0.09056113491003595,0.5905676291592166,0.006892723836651118,-0.18452509493498193,-0.0181794304290738,0.16897547158119477,0.01341138297249575,0.9364555455863732,-0.06596549773877228,-0.28024610051941984,-0.5939770358353405,-0.06427648170704404,0.17217162854039839,-0.7271696092402088,0.6104069646911373,-0.8942656696156907,0.886514203115337,0.5398661451521708,-0.06219674897851819,-0.5622651170762991,-0.41921652409051613,-0.20830732836575455,0.6065309545392074,0.35791108256461646,-0.753603742645842,0.5460005774074935,0.5583448615093246,0.14863123030453376,-0.06875332084731064,-0.146389188706657,0.625627209353037,-0.6966590412553163,0.7789782587317224,-0.7399451669113051,-0.13952003788727743,-0.01400313746082353,-0.17183932076614925,-0.755985976208863,0.18907873129527153,0.17393663508200471,-0.22514251269368343,1.0514301522062452,0.4784222328458957,-0.7559788913310168,0.8663649351270075,0.17705960082851802,0.06201142088038693,-0.918812554405668,0.6915693199615706,0.1316027132265359,-0.6881537754089389,0.16768398499016415,-1.004010928516197,-0.6254623544950713,0.47099528315923794,-0.41897784290796475,0.7698061413940844,-0.07335286167972589,0.4661917813926236,0.23999080471959536,0.07176799177421651,-0.8589904262017445,0.5933137286703839,-0.15205449448884475,0.28190032876775545,-0.4982762215848048,0.5088610811243052,0.06038870573361905,-0.3896723635881625,-0.9486628638092172,-0.48500776933685674,-0.559586260754257,0.6797722021213406,-0.3193759389199992,0.2213949497936753,0.20141171637005484,-0.596732410745092,-0.7160794455524939,0.1536915759828067,0.6507689498808719,0.8723854628404507,-0.08571835307801405,-0.8043272368077926,-0.9023738060284847,0.38654903490414355,0.7988820482154878,-0.8173360998781805,-0.7363747844915095,0.5240584103815761,0.4060857735115378,-0.22056557133172702,-0.505696322772446,-0.8630132888809267,0.08370114406279609,0.047648456693480695,0.11759964767923438,0.5856698169308479,0.5338285453233077,-0.9542594022155815,-0.1256252817132518,-0.16396304348469024,0.22386590597441594,-0.2912149051938116,-0.3774233441385829,-0.9945155254708405,-0.8189688283491546,1.003276923502664,-0.7693235587897735,0.7467470689194701,0.2864654879920865,-0.6532642654609429,-0.7904995800893477,-0.4349380036396199,0.5780295390330435,0.6116204763290656,-0.8708342839502826,-0.48251971454386466,0.6748622883892255,-0.8645913278150973,-0.21514590777136036,-1.0320285068401565,0.6925194393824613,-0.9029714669478612,0.11566258954758062,-0.09950451041058286,0.1319594960410517,-0.04461827916241262,-0.9156655661280202,-0.9353624229757838,-0.4208886439306554,-0.03994222154721235,0.43491686607730556,-0.4197106185587949,-0.9407269027167536,0.5551739082605162,-0.22359359039278684,0.6808934998484354,0.8840715232327826,-0.2554306448386514,-0.5491662914740403,0.4752839892832791,0.4451026809859528,0.8372039498266683,-0.15523493808651168,0.4636522807583173,-0.817561051339858,-0.1303342819500271,-0.38280791749625687,-0.6647240884689702,-0.32892347524447646,-0.8066806480566264,0.04372971142405681,-0.3589032613883684,-0.9201795684864852,0.5731939125667196,-0.5773246991732937,-0.7744789919411802,0.44623788094698325,0.26179305841592376,-0.6473148784906083,0.4721562723636343,-0.26511880150970435,-0.45058430766667273,-0.9227226605391972,0.017522431259193855,-0.8322152677759335,0.6156649615348554,-0.0682024800966024,-0.21616623857925937,0.03576873339618588,-0.7419377034152986,-0.7090754622185207,-0.9476074853678114,0.7094682298517063,0.8723620716767845,0.38819062643422914,-0.08808531369230783,0.16526068431510182,0.4027601393668964,0.15401854627745376,-0.4740249506933133,-0.7796526935634215,0.3007634513137769,-0.7519058483846668,-0.8308419585870865,0.5075089406507035,-0.11873816020734511,0.4815113239826383,0.7136828409191528,0.235068001859787,0.08424924347073126,-0.21388340712374906,0.05518623614139888,-0.8503882740257865,-0.7902560689492332,0.5953992373328798,0.733612689922296,-0.3427679147185223,-0.6499655556278742,-0.3649917133037575,0.6478488563405882,-0.5147714244652583,-0.49713451194047803,-0.33860582106112286,-0.1875862583644519,-0.5965931414433187,-1.0308186879318653,-0.004664270583461085,-0.7227058689616401,0.13364690902348042,0.2865232279063341,-0.5782809179936569,-0.25546061607906867,0.07893940423406925,-0.2097914261017147,0.356613658364251,-0.34996844728560256,0.2070203656913452,0.3767997648649797,0.7981223330605631,0.14905690110336753,0.0070642801077511145,0.793852478229266,-0.3283824495080798,0.7385138604769559,0.2219601602810665,0.16958940807936498,-0.5259690307363447,-0.8916288711656996,-0.2018522631058277,0.8489804679339209,0.4484918868993887,-0.11062249551366324,-0.28597139952671785,-0.5317038566832111,-0.1082096567191579,0.21331464816126924,0.52823601443797,0.34329454221795985,0.542431359268047,0.5031060637356839,0.8044945941132867,0.7517163852585818,0.5751636148542387,-0.7128641794680747,0.5027514666228756,-0.2422770079057887,-0.8281804819369244,0.5758134389015627,0.0797401297555732,0.3647983991860492,0.2550325624470935,0.837902885215304,0.18437959510052385,-0.8115996959734975,0.05765723957954469,0.6797433322204326,0.6301940568763587,-0.634256486700826,-0.6156849358112859,-0.7471018304822626,-0.5873166472888722,0.48420031516619705,0.656923163399417,-0.46545425409260793,0.14813285951237937,-0.5642980939169233,0.23464781184405847,-0.5033715735510654,-0.8168194692416969,-0.947624251733765,-0.002153852350914292,-0.047724905145248506,-0.5594262984988753,0.03932327108057471,-0.7149686560438613,-0.37079718393585004,-0.24516574181431908,0.31779107954171304,-0.6726582900129147,0.7687284411775903,-0.6272457035955795,-0.1554106648621549,-0.4218080779875877,-0.9175426186429905,0.7243829586125171,0.3331734264137475,-0.15680587317450256,-0.9056135570345827,-1.0464760318299373,0.29633413062596403,0.24735345915971194,0.4560369501996587,-0.7022690836402394,-0.2476076575293133,-0.780931872610155,-0.4011862839100673,-0.6414207797564079,-0.7833214569768564,-0.8418272014565579,0.7444166329544022,-0.41950612638152784,-0.4405357954577722,0.28660157092124616,0.19018632634342955,0.5333004713440201,-0.5907397861077396,0.8163676089580919,-0.7018727908411976,-0.2344165054545235,0.7282795779674059,0.49742032041627915,-0.42864366538299775,0.7787091541998323,-0.49927456039944446,-0.5621384610761931,-0.8660631504457162,-0.7492142110734288,0.24155515932461485,0.6876081748037235,0.6397964535659414,0.2699641756585536,0.4249622537613204,0.7742006068417683,-0.3138398714140353,-0.7974862403404243,-0.9572583464732656,0.33040561081271685,-0.03797027018221571,-0.5261484537604845,0.8118031286803968,-0.9430625989762124,-0.9122148902793045,-0.8208103016827798,-0.010691534773576466,-0.12673787869266148,0.5036185557808859,0.7343908828192515,-0.19242295243078558,-0.10099229640256123,0.26108594734419616,0.022995180819160892,-0.03926025070736261,0.11342274558794206,0.8185913391837136,0.3756010276828776,-0.3720464904958479,-0.585791910525456,-0.23638574394041348,0.40290613652953716,0.5229089399371711,-0.7515790724888322,0.6468735446018685,-0.7098861233270305,-0.7243271302997369,0.49983410107877657,-0.7222340291641999,0.845062065850252,-0.4973367908995577,-0.43486463164693745,-0.7314531181735819,-1.0099026632432155,1.1461158146313006,0.7955981602282587,0.6280799115793131,-0.04953230846914108,-0.7947709682197673,-0.693832370453782,0.6354825083892216,-0.02590888194591324,-0.7318036771394201,-0.21230053230970664,-0.9376102799816587,-0.46326204703287677,-0.6565978892205145,0.2743538837824564,-0.8693101807033775,0.4832656347301774,-0.5326041083915851,0.02446748365988002,0.26018527560452803,0.07038323915625322,-0.9569085088562042,-0.8425927243764845,-0.3642475972031293,0.07067252489203729,-0.6963273436504926,0.0014410960612877203,0.15887801882596694,0.3812370080694068,-0.9809025470065481,0.9314472658798477,0.442956308159095,-0.4210513069699448,-0.44072497485880413,0.6638757909695273,0.26736613540306964,-0.8485815532186168,0.44447935396323185,-0.28805399499404194,0.19865876147028072,-0.24377554803752638,0.535388426218706,-0.09093811289116926,-0.3348165948975634,-0.8153109691739804,0.008328627548218628,0.5030615091943536,-0.5754241932681315,-0.08466390974436692,0.6673206074238127,-0.9885589895919321,-0.5559424851645615,-0.4866416994689414,0.052771384074880315,0.5159700250163677,0.7437427396795537,-0.7662802937862797,-0.7623114827613592,-0.009838476993850404,0.5474991598823291,-0.20408303463175892,-0.1440393099993901,0.64087824888051,0.9210094355789522,-0.5140167027645872,0.17832393295899807,-0.3421105948945133,-1.0014908111688936,0.31161741246213004,-0.21791090826698778,0.8275129054812418,0.006758546910209204,0.05812649830496746,0.5856046652293874,0.04870180029276938,0.05528834040348875,-0.22341101720805767,-0.08283507737435351,0.8032813979512031,0.6633664688335698,-0.03730227457190194,-0.3499653816873298,0.5037792484956053,0.5922949278261649,-1.1090882863901053,-0.024004240492108583,-0.623424782127109,-0.1671059072057553,0.46498014762159884,0.5210351083010093,-0.6003673989307831,-0.03067568040496795,0.3882721234573273,-0.6852892996898141,0.3730370957664661,0.44292227534590983,-0.6339880924824507,-0.4074477019405873,0.3186744486576247,1.1226782824825146,0.10573531398704109,0.4342459183581089,-0.1868161579870127,-0.6580005227092109,-0.09143648678265186,-0.3360059160967595,0.27938466675056456,0.7698024087085764,-0.23276388582556648,-0.03866463554431496,-0.43710789545879,-0.045232330929971185,-0.5333420266473553,0.16599079425004537,0.06284728385152995,0.09903183590801645,0.11024560332911548,0.36404746795848936,0.7856136528414399,0.3344772139544849,-0.8102377067535319,-0.08556499941826969,-0.5235906710350592,0.26664072642571185,-0.7761537252046421,0.8021619557208852,0.24046497327471064,-0.5794588650276269,0.24402430114320905,-0.08547063674831483,-0.42213131380239133,-1.0174819419713697,-0.32575940780501605,-0.17124795564940895,0.6420833345399193,-0.870518977630214,0.02119504414743412,0.3275236853171662,0.6199924947873064,-0.6431173763344554,-0.03967667122213037,-0.3274489768241962,-0.8493422672641514,0.3993628044774089,-0.15226478863137227,0.7846186275790701,0.6832246958415428,0.8289369241156418,0.5619520925017573,-0.5468598070320625,-0.09391698764590155,-0.49734570529034167,-0.5451564284378121,0.7199622432439787,-0.7432979295465355,-0.6860824173438678,-0.629643141269503,-0.2804606284776251,0.298760421255748,-0.23747677117157148,0.25167256806936916,-0.09993155758161563,0.6317887484852851,-1.0391493142522394,-0.5156115669963425,0.6513069296954189,-0.6600843063476899,-0.7267599850955768,-0.043349941530235706,0.22960270528659119,0.052471087590655836,-0.6256830149419041,-0.5110485727037647,0.18025954938039473,0.8333117286629499,0.16790257972002304,-0.5583393962130244,0.6941941477035394,0.13254070422896416,0.4679825151137388,-0.9540146938531074,-0.7576788446808168,-0.1595380858271292,-0.8690976227852755,0.9023971290674956,-0.259651804875034,0.20747392130488304,0.47289137091146377,0.5578977442275841,0.6403067533056027,0.11308791679516356,-0.673659269490964,0.7262973870695792,-0.6730914727751914,0.2795303540223695,0.7600068174696314,0.07821737266266296,0.5344282088489523,-0.5364214236873636,0.2600527624691466,-0.35664658303762004,0.4162302215836539,-1.1046962088027263,-0.11213934738307893,0.3828890274374822,-0.5287793094723027,0.7827942730751871,-0.8089101921051403,-0.46699741975799197,-0.6872761474123095,-0.21820946578179204,0.6942304335672708,-0.6044642094929268,0.03802416378979651,0.023014045241060755,0.6067418067477465,0.04364676756507657,0.9652583221223714,-0.4014142683113546,0.2451381513909366,-0.5764738512244193,0.7413323981076979,0.518252992520815,-0.16412219805809505,0.38186770109620666,-0.2963131710584342,0.22114744186391136,-0.5834295923580685,0.10349539147200419,0.3540006206833237,-0.24853144100353453,-0.9345518089088798,-0.4559972541575085,-0.9263756158543867,0.6311793421576478,0.5393590755020573,0.3796133699908566,-0.682711941181901,-0.8959158501563108,-0.24605864700920607,0.489733161402942,0.6554754778186739,-0.47520860112145796,0.3972937492542921,-0.43780890140352935,-0.6169146684910733,0.08743770018723496,-0.2582343394844708,-0.5139050404271651,-0.3512446840156358,0.44731575034071425,0.8767862473710197,-0.06493994654772829,-1.0270369815445137,0.019515148285563,0.3182739034136549,-1.011976058993933,-0.07152571740033958,-0.8737289807438159,0.26049822757066027,-0.08632679389373069,0.22382445650226204,-0.4253622672333507,-1.1727651538692678,0.5698292037508362,-0.9285203489542695,-0.7891284308105837,0.7359749075139497,0.3395424910704071,0.7123109416530973,-0.3799469661989384,-0.7886429900654413,-0.35696643651820437,0.0973053032443031,-0.3854320933967651,0.48722001560560574,0.868536810101519,-0.6974672616553775,-0.4117890172398384,0.041454774079398,0.41632268853677196,-0.7997050028864183,-1.077684003387078,0.3072343505807436,0.5852098329344497,-0.22972654802409204,0.19020451162328042,0.28698150891533253,0.7102657146448926,-0.2759708106780133,-0.9077940807013956,0.5453251234062263,0.24756067582113972,-0.5025755687325901,-0.632723544212017,-0.1644745067018051,-0.4232549846765537,-0.0832162015179159,0.26540005156676105,-0.09258057269608089,-0.6036069818986791,0.3723515878573168,0.8609447523737384,-0.1368617094956817,-0.3658666274337789,0.6710896580902533,-0.07149893767175917,-0.577761538685964,-0.5897145070686911,-0.18030677325328917,-0.034689170600193504,-0.05989905559903308,-0.5300280992621289,-0.5379974866613155,-0.3846453618500434,-0.7501333967912585,-0.1581291956559042,-1.1051463594561965,-0.5992272563108192,-0.48671247231103454,0.2616699324016557,-0.7970295655757886,0.27296351110582506,0.3057252069217359,-0.9355287233102195,0.7164703114930482,0.24978711502493298,-0.15132936130934138,0.5102628669349654,0.7459372734871466,0.884034878231537,-0.05586901805658118,-0.9358654094775546,0.6299975194333579,0.27694887300847415,0.32268455928765494,-0.24418836726246032,0.15001279282144517,-0.5517271698147642,-0.8758414318253932,0.852752461334271,-0.6726106792451761,0.2302696296718089,0.7359306158498372,-0.8107500310469207,0.2278574468134846,0.43881490979302024,-0.9167497830750915,0.5067874096574146,-1.0784140101031099,-0.9179626577476212,-0.11231583137232838,-0.43834704339814173,0.3300156015952502,0.3415679122737897,0.6827970591946083,-0.9416975858213519,-0.9230820557918892,0.05460973692888091,0.3374673583284329,-0.273306265455278,-0.2450236034057703,0.007164979510470281,0.4382796525658483,0.5256812790069436,0.055221148889345324,0.46454376890042315,-0.3194734255713884,0.17737399562257625,0.028329313705522562,-0.05077632107554047,0.12389972826156612,-0.32665885157201424,0.5813857977857093,-0.41814090028575207,-0.34884149541134024,-0.17960176256111285,0.3675520575217919,0.7774004622834307,0.306591550068525,-0.9473246459144432,0.6585674828846434,0.29241653169334536,-0.16685730561331136,-0.5130575793550749,-0.9511127396547598,-0.9701974973519454,0.8634142642445134,-0.4907740495246627,0.4532843181351778,0.36609017283567336,-0.5874090487076978,0.26467071251635604,0.5131576554271108,-0.3108066575403957,-0.1376036421339556,-0.6931237816953915,-0.6034037253731984,-0.1211229397456703,-0.6906408643937184,-0.49036587424841366,0.44288808327913354,0.42282169849883844,0.6676265311993689,0.5329492867739533,-1.0819558655856911,-0.4704695646888387,-0.19959243374093047,0.19469418566737415,-0.685704184666509,0.39641409588460647,0.3686835154055892,0.40411655178394384,0.08938307808246641,-0.8867500261411159,0.20082541171036042,-0.910539177281501,-0.13315965696487805,-0.49149895759980233,-0.17115396324058535,0.24424503929630537,-0.17068004561747613,0.6998834914868421,0.5257867798438542,0.32474016368656045,-0.0019179822090213956,0.8836245308464105,-0.20911478997600935,-0.5617872806241473,0.6773436583177244,0.445777884178086,0.8137137925189669,-0.8734401630364086,-0.7083661102792909,0.6253972559198051,0.43110145722944054,-0.329153840266452,0.5895984523101673,-0.6906989214114917,-0.7494661996853562,-0.6782430400476763,-0.8901979276142981,0.7399977405941718,0.07383977139621013,-0.9478783594721413,0.6252442842108576,-0.6027945285071192,-0.27013616165841375,-0.8512439758983427,0.6690016652912086,-0.6022231178636097,0.37503414705648563,-0.37458681570499924,-1.043920737616385,-0.7995019810617545,-0.07496427855889455,-0.06696958608305702,-0.1828755133812081,0.03344634784602722,-0.9495415201760943,0.2337344096791937,0.09950284178510084,0.6309378031057183,0.7328725751030255,-0.7835298654639071,-0.5162119308025445,-0.8107414981667429,0.18131842920936245,-0.9541065740414605,-0.34357989158494445,0.6885505168777376,-0.15015003984430966,-0.842226491775599,0.7226006720042892,0.402933358213072,0.517114689251481,0.10630897805755184,0.4711698012273751,0.23786469263853235,0.026979905803893523,0.07397853291803368,0.806028658768632,-0.6857201654980553,0.689999234020541,-0.23605236880466934,-0.34821405822816304,-0.10091105537000407,0.9920404233911774,-0.6403581334166726,0.40973123566700514,0.6847380181687015,-0.5440678496882011,-0.49608724954300754,-0.8256761818597769,0.7010369248529782,0.448002880807218,-0.11005756266571917,-0.025633653660330304,0.687547749559221,0.1968300864310938,-0.20307615708162677,0.23517699097851613,-0.6951653431369728,0.7254360394628128,-0.8572931305904473,0.6218528278127845,-0.03483680843299699,-0.8460988622066323,0.6926644707189012,-0.9268227399484436,-0.07854164333849381,-0.28142465634442054,0.8692532905291239,0.23078831026128374,0.3041072568953715,0.8039441663245976,-0.09093618566672731,-0.3991301727419826,-0.6519479385044527,0.5073403902409875,0.9803087122489765,0.23875645600304635,0.10915425871535848,-0.4670520514432665,0.8733720883445535,-0.30205430660354465,-0.9618463122168437,0.25403875925094804,0.05674314171825948,0.4186825139093657,0.5612254167842491,-0.21210471823530816,-0.6687252286369846,-0.13455007405458505,0.8697967159388952,-0.7735663216302184,-0.6065505514892608,-0.9414573269913682,0.4325026237829936,0.33877714295360345,-0.20937533563338756,-0.3030698420447153,0.6886470035580998,0.5650278518058687,0.3082993124707134,0.07360665191118385,-0.7593148965513953,0.4922405211217934,-0.8903588170719914,-0.2700683088709782,-1.087843436962049,0.6808749294865704,-0.5545358806007848,-0.46931905819311376,1.058612916840758,0.4352953642905959,-0.9450381538877184,0.29158436740017685,0.38907012214776165,0.03351994568266331,-0.5872154028570059,0.6175836516922117,-0.6095405992307876,-0.8466484274868514,-0.3314691891939813,0.6714502494912037,-0.7400642702406377,-0.8836836880742189,-1.1090235423565933,0.4571901159705778,0.01914048919640448,-0.402265085096494,0.012021178660702129,0.21558633912536648,-0.6807942307890866,-0.7927030080660742,0.5492556919930265,-0.4330572309893446,-0.6472149296408405,0.5808967363134577,0.07973552245805514,-0.2662990191471643,-0.4475726109922987,-0.16753585574996407,0.451543723979682,-0.8312284609905473,-0.2217757963717594,-0.17901850241002748,-0.32598209133263795,0.1507147028878404,0.1099912092351844,0.5430436914465525,-0.4904566673379103,-1.0118174978307843,0.30750111396239055,-0.8669671229259447,-0.7878352962758935,-0.6000729572126224,0.4917652669803102,-0.05494983078956507,-0.4398205213065299,0.11599522033748903,0.04351011350624768,-0.9582100483458735,0.17142253265726734,0.5555490772345003,0.610619014149888,-1.0132446024474746,0.43442172801691314,0.06226103769473117,0.3839758773074651,-0.951162811735378,-0.11165824945728388,-0.24235525469709848,0.3375999018497285,-0.06354817636359157,0.5114873977564024,0.6334243414097549,0.4334180268397546,0.2946311491630415,-0.37526351495261673,-0.7175341383997094,-0.6385817732509153,-0.8160732022612754,-0.6514730378586162,-1.0202015578436672,-0.9881151080048647,0.4061833509654959,0.28040592826923005,-0.9965720228322886,0.2515453372934658,0.04839345369853577,0.609885166792429,-0.27716837210080275,0.3133167257772526,-0.3194048589210522,0.7499907347450515,-0.007174701324871225,0.5149118677148147,0.38144018565234744,-0.2128292458151164,0.007829426587215305,0.07817087034961574,0.5622100108802746,0.43070930827362625,-0.5414999961885092,0.23733658930364063,0.32500952637650565,-0.4038273009350643,0.22306297850397308,-0.137006018032286,0.334341906330711,0.05935159719934508,0.34619176920656497,0.32093060280116203,-0.10879165164733524,0.18311428525077797,-0.3272416232658825,-0.6364602768273505,0.4938430740224402,0.37573683151020204,0.8214893742520119,0.5045931562281047,-0.8253527605001315,0.7698530201807562,-0.3152305695426232,0.1609273873711336,-0.476711492487411,0.3233897625391637,0.34894115984133894,0.04124229164036013,-0.8908007688029378,0.7653509579133709,-0.0024092038053439065,0.8163531854425963,0.5655376770787304,0.2649100977244274,-0.47650743177416854,-0.8382651359194994,-0.05067617022078858,-0.05460683554783676,-0.42316503751306545,0.09760564808233016,-0.7521283566559874,0.26613373498364945,-0.7459189050730971,0.4224686293741302,0.3482458366528871,-0.6120971129488317,-0.7053013039677583,0.6424265046251187,-0.7576698301334824,-0.36276370883507597,-0.492828210158866,-1.012025585232585,0.5743735821009645,-1.0141783396192032,0.26965638167232286,-0.349815541710094,-0.9271072249961037,0.1474686687729714,0.2925191504651886,0.15896355983798038,-0.33170023850749936,0.5828842000563698,0.05397608040835707,-0.5877614121951642,0.1151425926870843,0.7490026302877676,0.6960147262233424,-0.251649086844186,-0.416282504959029,-0.5650968990866125,-0.3493094075300079,-0.17518391570668235,0.7211736049960182,0.05461343852984673,-1.015853849139618,0.7508555340181022,-0.21309439773462763,-0.004880235399302884,0.24836793536712398,0.3875510608854751,-0.19152859834450128,0.37611195302712197,0.6553119968201465,-0.4090867075652766,-0.29148704988110197,-0.9583868272446354,-0.46513525678800055,-1.0100484723802423,0.595485698641727,0.816293281386963,0.40977463365400296,-0.20086962459255633,-0.4159009283203861,-0.2668237284236048,-0.06679082160742517,-0.548671654197857,0.5541308967515641,-0.004087493070031525,-0.8743037332392847,-0.3611473341105421,-0.4794603651361124,-0.7933089012193153,-0.6556407009438946,0.5830287523150417,-0.2902063243703842,-0.3348478906327981,0.26226964990006524,0.9588484022719334,-0.26224966766217495,0.5578325600818098,0.4269295809056827,0.6482203346857646,-0.7162093011765913,-0.07026968686100145,0.6121898523653765,-0.7794581724308519,0.3474493861556861,0.27771573789332266,-0.11996558316462165,0.2693291563959428,-0.8834540302765393,-0.5843551046731974,-0.05635281104570706,0.13716286840392383,0.2910524113633809,0.28900383714289873,0.5921925946072351,0.23612566048895764,-0.5311055216591847,-0.6196002679817147,0.34416791748923475,-0.6259846345320111,-0.22638028904404728,-0.6202670080499987,0.18225843096794406,0.1329018823992654,-0.3969909101968134,-0.40642603161570323,0.0024303191554632753,0.13837176728177086,0.6915714880904306,-0.04355840902540587,-9.411062598324413E-4,0.27104220268148405,-0.008713321798083363,0.49033275647654795,0.781481943180691,0.7591695878195643,0.28835895540340334,0.4423404014644064,-0.09739873212934416,0.06800593079393949,-0.3629186350418774,-0.16440660052542058,0.2408943228115208,0.4818989802243395,0.1767724437074671,-0.40494683243560775,0.14020288668164502,-0.6728758990793098,0.6417154804111109,-0.03725576751467017,0.5265606525267199,-0.9095728019079764,0.5979513557076588,-0.38126224110884727,-0.10628336785386171,-0.03078592094811286,-0.6975924350617172,-0.2938574417038803,0.5868984149691622,-0.30939513502680327,0.33572655995752443,-0.6559927951297918,1.0348644909166482,0.6769764300232907,0.4372802740976354,0.867788281185134,0.1917998651827808,-0.3755019840224608,0.13076548258152387,0.35247939336344825,-0.056042191836238216,0.63309151840722,-0.16910282823777065,0.30971438512204436,-0.5214778813935479,-0.08081655113781896,-0.6159701553475715,-0.4334461792810572,-0.5659463436609491,0.32711729107442167,-0.9472991489328179,0.8780771877265494,0.1635424833921273,0.5366222403039875,-0.5914548075437539,-0.2150260533974085,0.9221431306014636,-0.21951064556939728,-0.3441931554485198,0.4228951643385917,-0.22705737390501304,-0.015187826525617832,0.5241972570878349,0.9860649936593687,0.3311508114231972,0.36011351859277574,-0.8925214482567542,0.7077072652261487,-0.713674989193315,0.9953253652016089,0.6820345564466747,-0.10605371390064554,-0.4546398559115603,-0.2512379109566679,0.5328213091226384,0.9680758960517177,-0.45640825397711426,-0.6252761833580124,-0.5336519818912826,-0.46627882103848556,-0.9510558938647338,-0.16666462109742552,0.5878907801041044,0.7797287701817811,0.6274698478438631,-0.6369707084692301,-0.058509499222630934,-0.2865734769334384,0.2584489646864079,-0.9094615844454872,0.3693763588301096,0.15818353361777002,0.53720773973965,-0.04222017540756989,-1.1360161789737853,-0.35195115326866855,-0.841554214677901,-0.4099647022368406,0.25256740297079455,-0.3520969303023795,-0.8192036888473476,0.3054162944194366,0.2785118178271867,0.7339591492207503,-0.5067823385543926,-0.40305497941905183,-0.8227161023511472,0.2729676952260683,0.7218826099004586,-0.11432368822961575,0.07425201605657528,0.0966848496243097,0.924926093651005,0.7109275202350257,-0.02601269173941001,0.13473840858740974,-0.7757743878549705,-0.5503868412846208,0.5298170530496082,-1.0278006913344893,0.7256799328515825,-0.4025921478375083,0.4990664863793152,-0.5967351492428477,-0.7449351202032438,-0.05932366506574087,-0.27588746865242325,0.6407598859574044,0.33189094430764904,0.8043720026886758,-0.06386060401733676,0.5464605414504776,-0.06630011668104277,-0.31923413979576265,-0.8373593980754902,0.6108975865828287,-0.8735008138056471,-0.40347818838433125,-0.2736029230554311,-0.22656128789256008,0.8550194741629914,0.7436310599660505,-1.0060649316749741,0.08299137956861606,-1.0437863037524129,-0.9685546954210456,-0.26723352370443987,0.14755744078486366,0.5762743391540635,-0.9445749801237479,0.4632764606943093,0.10581197292913043,0.13713424042557593,-0.6040636374914221,0.2466790189281259,-0.804869403917078,-0.8905486872899242,0.03243122204745348,-0.09113949844386314,0.16696147713273318,0.26542501602421104,-0.5069657743743224,-0.49206304838304066,0.7203937705142937,-0.18108599519424284,0.6959634538197444,-0.3456050251193267,-0.04411722878731983,-0.08893059773982794,0.4257255890734158,0.09073731604529524,-0.8564064018477169,-0.6191338007518544,0.6345572319724384,-0.30176695429693995,-0.9498740632165871,0.8352341238215573,-0.10955189310166671,0.015275281044908346,-0.11881055676132984,-0.9073990263038401,0.364834381425917,-0.48889584043145945,0.6547916664083768,-0.905878652848318,-0.34567971514877055,0.16048380355015937,-0.11307293833556468,-0.48075064423938246,0.0742500626341067,0.9190317172186012,0.38884491301379415,-0.3409743154785507,0.016792071451173726,-0.28071769494942966,0.6196186991442365,0.6453048383568664,0.37353093384376174,0.7899848695531599,0.6587978521479148,0.09066855104007121,-0.11821262445465115,0.6211126963181881,-0.027137137074635827,0.2856783526482554,-0.9255347363823391,0.7496967835390378,0.14164107571601828,0.6641057190254769,-0.8303763063221747,0.06406431742103283,0.1613633017598925,-0.15070750194677443,-0.20332468120149827,0.5847209254666085,0.5343266214699972,-0.680236663572933,0.6254399972854827,-0.5216197200842688,-0.03490789243343828,0.32490519884091656,0.043734074483052346,0.7320483101204593,0.48493839402854055,-1.0350603060712478,0.0366322730572014,0.7038909965662998,0.7714097483841262,0.10860901156873175,-0.18791359548966158,-0.7527755777532815,0.21676208427710628,0.041351908294089336,0.27906949111867424,-0.08909483722139044,0.2980990294719311,0.6542275048996825,-0.6599306958995192,0.091725541639894,0.1596489872392858,0.6884438291610208,-0.8129784308836879,0.06307553732373228,0.25138240946758356,-0.3476835273423995,0.3852187165051107,0.8682500101967561,0.24478192337030297,-0.03360526778667667,0.2877523744389593,0.7783105047410782,-0.5269117859917718,0.5447124916157873,0.8436639562292355,-1.160775742433026,-0.4709093460054945,-0.7770373352362289,-0.031572600554454766,-0.8473631915734487,-0.3597938451379071,-0.9879401877156223,0.6107854015584963,-0.766610206760462,-0.20433032402001267,-0.5371274852425386,-0.3431744377001599,0.235830293054721,0.6375120180858661,-0.46381637414197985,0.387272722799364,0.39747969662276217,-0.7522997922134596,-0.11997512072461314,0.542555120607928,0.4730589997987749,0.9629644980226739,-0.46400933824889323,-0.5899266223189062,-0.636387165914576,0.33494963005548656,0.15706356407021807,0.7941410519668628,-0.07999470766851882,0.3398525724702628,-0.5281964913984158,-0.57085261255162,0.6975673817219238,-0.585974516005049,-0.4968153412236667,0.1872354330974185,-0.615612067267007,0.4374016602650919,-0.6691088003424024,-0.5811549347986267,-0.10798704763156748,-0.032854326853435464,-0.19185175766853343,-0.31113150286135893,-0.7376179316247489,0.17126690524610966,-0.7307189575181451,0.15337505813812516,0.3300033576553994,0.3843111631467477,-0.19494529782770836,0.3592002582771195,0.20525397360460904,0.46806256068704566,-0.5126350042607214,-0.2628653764246753,-0.5982409364804351,-0.5584384928161594,0.7702920509620352,-0.5590750268732363,-0.9219260618900329,-0.5955790926428459,0.490961136740981,-0.46187402601557703,-0.39148400169425956,-0.34625674549563695,0.5808101417136639,0.17696131145682015,-0.962045444158797,-0.3632082075131899,-0.03378723067233295,0.00811778387232483,0.7038087446492692,-0.11326693935212756,-0.746680959936433,0.6339684210226837,-0.6891294849318094,-0.25965159079791783,-0.6240903299222309,-0.42517989840918147,-0.36060996471773465,-1.0492770691393674,0.7805546999081125,-0.15706398941062097,-0.09929621122796997,0.20292315173028272,-0.24754509307732633,-0.7752161268200569,0.8199619554621254,0.7167786444229829,0.389468567073623,0.5991847463330942,-0.5808279679450344,1.0058759215089077,0.4767388801022554,0.2874466596231516,-0.531569061012586,-0.5217515041192923,0.43381221653959023,-0.5150730397112736,0.30025223378676824,-0.8524302292546898,-0.6144708050563459,0.3591678022600419,0.5528248941241289,0.4823515867894493,-0.3622748468621496,-0.45308786425299197,0.8972585107470118,-1.2102355082044143,-0.07231884984411055,0.9548042550755176,-0.4066743656111056,-0.22946751070780977,-0.2241261684268737,0.637317138611315,0.9126910887608238,-0.6103669384366331,0.9172187091252743,0.08116786655093704,0.5350119900142828,-0.6388393573749116,-0.38995933237884994,-0.08104466386594494,0.054130521514867545,0.8769603756373034,0.14443972324749627,-0.527678936059349,0.4813216075775285,0.7940114006761669,0.7999997475810883,-0.6903916751793279,-0.5529268477963232,-0.11470556144780063,-0.20339829616429422,-0.5784482651282222,0.75435350567605,0.7262458190324727,-0.21252479558989873,-1.0256945846114527,0.6934249073733627,0.26931551661523956,0.31896009320194635,-1.0232132584606373,-0.7494392132861635,-0.6548484630082866,-0.2731866963287864,-0.07930606274268878,0.6335337742395474,-0.842886983236304,-0.43791574523432075,-0.7444335385142303,0.6417413422334478,-0.2681577019103459,0.39952266723464186,0.5039088211136402,0.14416600486914416,0.5023248393299008,0.8100720838119353,0.6946476808874276,0.16276300908992486,0.19075959407521076,0.5952957033232015,-0.16666178636041162,-0.3778315551125346,-0.3004732180971608,-0.02108920533587822,-0.7344842799928084,-0.010375218119411734,0.13191221321450264,-0.6412741100308267,0.27552537042154124,-0.14979554792476887,0.2067549898750357,0.6051287970582471,-0.0413075845731598,0.2277787582995529,0.04368213270843146,-0.5479511742233528,-0.5248882735442337,0.20760089146084074,0.04935094049910129,0.3307061156913927,0.6563250865555685,0.8398886553037782,0.5122521429022757,0.8214466975003669,-0.468674436653687,-0.2705223904851707,-0.2883607018183627,-0.42763430905428657,-0.5313133439318287,-0.4240494229303645,-0.726850200331745,0.02069200487064053,0.7612781750732263,0.7714719181598568,0.05255675297797703,0.505759261095036,-0.8725935542726065,-0.7395246020349658,0.7615661221539713,0.5497747272577193,-0.936444075160612,-0.10579459174799394,-0.014684483560698383,-0.342780924112872,-0.7134071151393976,-0.4080930315417961,0.6033583137758448,0.24767616667167586,0.4061865944057999,-0.031181308380940506,0.12353437388543087,0.34617697176089296,-0.8452983510756154,0.15104942064054575,0.04046083965621027,0.8220757948007307,0.12428074408622627,0.8500715156154632,0.8533724063325779,0.5824853396026443,-0.6906629778787106,0.7245602963879394,0.26720493866185513,0.7035912000472351,0.5053580745270962,-0.09038236820980784,0.25153919995662943,-0.9589119740175932,0.429111308141343,0.5988614052740355,-0.8370828701616989,-0.25144792839956115,0.4713681534603725,0.502492688151343,-0.13728244552828542,0.3353336971108783,-0.2560765235209471,-0.7895575434024626,0.7858013791811024,0.24005528877471002,0.8325724202340405,-0.4505000230922219,-0.6995309372423086,-0.6701086557980056,0.5513970059019595,-0.9266546468833433,-0.547586294615375,-0.9422695571712002,-0.4270963662958133,0.6586961769698133,-0.09706697127998005,0.01365690578741378,0.1645073216672663,-0.5829989636375468,-0.7171421629918799,0.6671211640174827,0.21745900692353018,0.545468392730037,-0.45772806752319434,0.4048792995433687,-0.5671657781433512,0.32306268948056016,-0.26168557643390955,-0.38827090663579095,0.8058747436835915,0.3946023966555467,0.7694872817189845,0.6860872633191951,-0.5232825344763752,-0.7147495849559247,-0.4538753383109873,-0.8690583994037568,0.5695350529392871,-0.39121901702084483,-0.01401866701666408,0.5534969214969152,0.6742863699236581,-0.06300528034536529,-0.8858529945615545,-0.9830738087028061,0.46811467572594434,0.7139294404599126,-0.2941466650071705,0.6016661786117177,0.4635750419108768,0.029211227792392793,0.16744460783206896,-0.7365446887162806,0.0018098399728871503,0.6323743203880919,-0.1742994428166476,-0.7971971073560725,0.3073660832713596,-0.8943898121739403,-0.6774549123381516,-0.6352071902522491,-0.2194022646262008,0.3084644156642924,-0.07584477598155273,-0.45488745386147655,0.8318871254865728,-0.8574571096262227,0.2151291174885843,0.5960799511932928,0.7014544408936267,0.3883885615188792,0.1885271055720354,0.37759717411246113,-0.3335954679874878,-0.1423003550701077,0.9134485554865992,0.41039861988792203,0.323855258714344,0.2733820651670268,0.05494798857252463,0.157467957869706,-0.5218391470696565,-0.663166830309731,0.16010919312314212,0.4907766661465596,-0.17755753258922863,0.2031308865669472,0.6540682726434217,1.019691123912969,0.7978864614125242,-0.4135836608037123,0.16814239268078554,-1.033260189127095,-0.43530067841766223,0.5581483596576365,-0.8280706370428994,-0.8941175085663784,-0.10784019145810796,0.7868369365709665,-0.36720762582427874,-0.9762344150780197,0.1627666132782039,0.0956823227423988,0.10639969469953087,0.47526047215768624,0.043779568037084805,-0.0786842362798062,-0.8225459798198673,0.32223394828595386,-0.7398760872133937,0.07300413018175735,0.5928613667843823,0.6097700247532502,0.524118604524715,0.3193452558421532,0.21390692911488055,0.319716190633623,-0.657182687192221,0.4730203755539947,-0.9504009297488074,-0.88239451666651,-0.8487922559716926,-0.14933281718780803,0.8617732634690389,-0.7521833064957535,-0.7245744992265236,-0.7967640339367237,-0.8408593297703336,-0.12037688007910846,-0.6023242754442427,-0.25147939077835113,-0.8078937349901071,-0.6197268331660252,-0.7466008819326024,0.3004397795525186,-0.20065026892928714,0.23092201307081836,0.7424965678198878,-0.7981558015748618,-0.1740532736727977,-0.6696612219695391,0.2809222725179816,0.03428409306503762,-0.8213767332099666,0.45617738330555485,-0.8613636726413297,-0.03044019747997577,-0.11159096045903887,0.27505078501121216,0.6555912507719696,-0.4208174410751007,0.14032024305441262,-0.8339652777823667,0.7229197135706122,-0.526747323313489,-0.2686819159042344,0.4911347498486464,-0.5734742165046974,-0.6965839270824303,-0.5569308360132924,-0.9184690192520636,0.6140185064369287,-0.8326150073789432,-0.9463917084469488,0.1755532279330822,0.4293487508618667,-0.003191249231444053,-0.08104215661800464,-0.6613569385375355,-0.30143823290416066,0.8261892717878927,-0.16956062406980138,0.8586851063777015,0.6948961144773554,-0.8407805830041268,-0.23317053281736344,-0.30561207471512014,0.6962030246036336,-0.6496227073982042,-0.15386520617251312,-0.21510274355241826,0.006186867870133235,-0.9331053150523082,0.445117444686828,-0.2008786525432018,0.2607042593164785,0.12336023994656388,0.41446507204389726,-0.8260945853867603,-0.6517018070741282,-0.49803939742704345,-0.856750690133724,-0.24685812334015186,-0.4921471289992778,-1.0531888194949026,-0.18174842409065803,0.9664279409640957,0.47539125750178135,-0.14453641499687478,0.21774555790447084,-0.7433089226911527,0.4756583913875871,-0.25351574397366333,-0.11692581018296168,-0.4857335188254981,-0.07710385193579797,0.19353696476697882,0.41211489978263816,0.5984801868676788,-0.552166724321649,0.435495095984467,0.1779349813145832,-0.554007789505774,0.40997175465234686,0.6715714334305057,0.4398405697960352,-0.5664731342964507,0.24358009112749945,-0.13237688028033584,-0.23139047061245915,0.10564578059981039,-0.55164910965044,-0.42200926497276997,0.35218094101311576,0.09796473102976047,0.8112090957346656,-0.504974842052285,-0.09419114141738821,-0.3853871861323289,0.5826953019838007,-0.6402874064625396,-0.33484109608034535,0.18022995359173996,-0.14654156512533792,-0.8667811915802593,-0.7081877229719689,-0.36006986927278734,0.29401213230303685,-0.4156143535022523,0.12493201645569961,0.3585429827932095,0.6875649471158141,0.972436042901233,-0.9394455712159453,0.12994958264392784,0.5282007670056501,-0.9739050620240645,-0.8245189800740117,-0.7878876608565702,-0.6152822276144093,0.3890673696836536,-0.6558744404752836,-0.9064858038425517,0.06408528652684471,-0.36518713431024535,0.06603680349180027,-0.9192127540563839,0.16530420763824674,-0.05668823502342785,0.2798367375318341,-0.5990357934771826,-0.043007850703287644,0.09420930466196833,0.09473071543785731,0.0016832791848108378,0.5465893505167913,-0.8515644995851931,-0.2748535745566444,-0.6420373018743682,0.25042293757327294,0.13829419697174652,0.7190304090838991,-0.4339534444814644,0.4466686245000385,-0.539985299720772,0.332297885088965,-0.527313559623396,-0.9338429562966205,-0.2926423808448435,-0.5927744396587931,-0.30716129745790444,-0.7371870081676629,-0.8287697167382777,-0.8139264699943147,-0.881878656337458,-0.6421636475030947,-0.4078550437127494,-0.8320398878055814,0.3338370971890845,-0.5329557271279413,0.10510515856098838,0.01622234075842758,-0.22408654417151344,0.08150448819293218,0.4373310136592673,-0.23684931023007919,0.021960985484638217,0.9452838414179119,-0.5222615041580655,0.4210150181671424,0.32277044684990314,0.20883355388148947,0.6307204974935223,0.3847895577563884,0.8440849007155374,0.37141524538524745,-0.26677548583140775,0.24741001881096075,-0.31570013699853755,-0.5083093550688503,0.2320734833985053,0.5837357614989074,0.8386357596290908,0.49856851896758353,0.1563825177453866,-0.21905752022477548,0.15902291638204627,-0.6199520245642691,-0.6603472010022218,0.5940558939163171,-0.7867355225789772,-0.866917874184515,-0.6667173720165952,0.9113305183576198,0.26261364218312366,-1.0386888277297028,-0.47015544103655077,-0.20564120879929726,0.40955308071488433,0.3038281592599005,0.20026982606183144,0.10760750422444106,0.8422220791111498,-0.8304653438855212,0.6609472796203459,-0.4881605907318453,0.8513397897471828,0.49721361181593765,0.05123435646054169,-0.12741651666334536,-0.676646865317065,0.4127801059029076,0.6951679989495645,-0.02470688136662323,0.21024283748963754,0.8351217337922461,-0.3282261008946594,-0.845523674670986,0.6657776361585147,-0.6399061552667838,0.25201542937058036,-0.2662260210748505,-0.1724670480566969,-0.20527325188627712,0.2858093819466742,-0.7671476867653864,-0.3227152044495735,0.15992779490293826,-0.9724885802846547,0.5817335141450325,0.2805993190902212,0.6857194346421803,-0.21096345465941835,-0.6030012581707892,-0.3702296045197722,0.49205327169158447,0.5719006417232413,0.07593779716660526,-0.13424544094427468,-0.5715968029774398,0.34325823920567,-0.9637169285145294,0.5606232250654869,-0.1654841328130672,0.6979504220521624,-0.3969264515936682,0.2338000493411002,0.3475590351370255,-0.3926108617408053,-0.17476819255802056,0.4909613178445161,-0.8744558913797175,-0.1540485228471212,-0.2854407777100864,-0.9793991847270657,-0.809955895284847,-0.4625996282077091,-0.6113855543553617,0.5145598067530291,-0.3292477874970698,0.4881453799782245,0.011008861637009175,-0.28306842676699223,-0.03620559926159434,0.6924341305243136,0.5646209090694604,0.6472225143624225,-0.29601038750516856,0.4305267795382049,0.6234583337560439,0.6059426984567677,0.36651112878178294,-0.1957476868818357,-0.1999941321889587,-0.4798362381768706,-0.8393909938833621,-0.8865820341577267,0.3004666638104952,-0.41764075679843515,0.32962407029566926,0.46257714780654857,0.6956695176506756,0.49846524561458944,0.8538049837274554,-0.3094109977882833,0.5659343897414644,0.3518737663640153,-0.05308629826690539,-0.5816632447414573,0.8880127268223759,0.3612018083850145,0.7267675637621553,0.5262015334096101,0.767021256728789,-0.29901940309740427,0.17731074220889334,-0.0071154965389433516,-0.8290293037201452,-0.5080661571902347,0.22016593032081924,-0.7402291816540675,-0.019656232925890887,0.8496901775477405,-0.5049765744993465,0.031405968687624984,-0.5648769455763002,0.567412080244118,-0.6489521193687897,0.43431074905757694,-0.8674538419668686,-0.11645448875727656,0.8358287201286628,-0.7548016319103964,-0.32358814602971714,0.6516736266384149,-0.5275229981911982,0.2983508867922619,-0.4297887488869505,-0.5626878682958467,-0.6080885280736736,0.5460031558017125,0.18126381964646826,-0.22707999648943933,-0.4157686823068915,0.39760274545422747,-0.6630264120391095,0.8609816350817499,-0.122034181607165,0.740598657826909,0.20410140211913594,0.4642966405224875,0.16331696902560885,1.154493877718817,-0.24001024573126825,0.6983376485315608,-0.6118602259045431,-0.6708914791437965,0.6954825486943993,-0.06928826120095503,-0.601268405928358,-0.9629927819809273,-0.4288188352929665,0.6598371335057492,0.503950003181482,-0.24483606156440252,-0.5219607956585405,-0.8525003411119678,0.5851718350905721,0.7643831550304496,-0.10171107058495063,-0.49771321271903973,-0.08505089573803618,0.14413385802722214,-0.1350976180246012,0.23716917633004103,-0.5347361522940844,-0.23820746837421267,0.4507696198784722,0.36354244812139885,0.5716639995271428,0.6077444931401413,0.3135502836516576,-0.2881667603720218,-0.05680506112297794,-1.0215607877397208,-0.06682093031522107,-0.06390844738931901,-0.45923510547981505,-0.7082594709912045,0.46730107853137126,-0.41976489909392145,-0.7759626268546999,0.1356241680361048,-0.4428016749929951,-0.5034459381156536,0.87296707756683,-0.15116280794812667,-0.28430789256513894,0.47073315369091495,-0.22659702469631346,0.6350527062673772,0.7753041957013314,0.042809797686759944,-0.8751899432352576,0.3168217200689998,-0.2996800143044467,-0.19620864695531234,-0.7372209807335509,-0.878127944396458,0.5921722974185119,0.5772098317892539,0.023294022301294955,-0.10264697071964421,-0.8376365492941902,-0.3426450810681542,0.7280633194971532,-0.821742080672121,-0.594775996042321,-0.7119581284813427,0.5294402770747607,0.12073569101770262,0.3043440205145048,0.131161538677173,0.7472995392412312,-0.2869504581944197,-0.4275243186435508,-0.4174020793808231,0.46844865599641466,-1.0506888839513249,0.4302762688593982,-1.1388913353869166,-0.11541847641259376,-0.4564645942635459,0.18538513550341132,-0.5808306041265032,0.5305710025291815,0.7260620896208168,-0.060012622243450366,0.4718179745693213,-0.48665647622262914,-0.7972901876031069,-0.6761232534783018,0.9106542062845113,0.570754935730903,-0.7544521827246631,-0.5742692742513142,-0.32619270448919263,-0.07343224429077864,-0.791496260795143,-0.4760467670149788,-0.593438416352271,-0.28886519490647145,-0.31369260242446134,-0.29194824735691816,-0.010860398575173865,-1.0199910743591707,0.544364089448243,0.5307298702318013,-0.4636154929839356,-1.011974310386819,0.2020937352183178,0.6882406925909541,-0.7568932713636755,-0.4027207063027949,0.20984356808790672,-0.9150718191693049,-0.9042245737733143,-0.19067977120966306,0.15935575677385455,0.5153940262768792,0.06837624408063543,0.7698525085660567,-0.7848819814866584,-0.9891479027597947,0.22498835919570642,-0.640538681164705,-0.24790053543377794,0.940468869901308,0.32856658969233826,-0.5600432761014655,-1.0104760926326872,-0.07988289225244764,-0.3341155389517487,0.07738874606839849,0.25537283069067124,-0.3936911642033514,-0.9262946876358553,0.733972095572383,-0.5370319162740238,-0.5557130613960861,-0.1888791804598497,-1.0279550531204065,0.4471832935472626,0.6775620672128476,-0.09974209542169235,-0.5682370005460678,0.21268600398470014,0.23388117785105275,-1.117453478439339,-0.7687970541753287,0.8114360465338498,0.6500195225822495,0.7758008122261858,-0.1942024677467808,0.29623854677573214,0.4220975506886963,0.7708715722624625,0.6880160587426531,-0.8597132768319694,-0.4261973784689302,-0.24267749907875777,0.7122813573529418,-0.6200436921503727,-0.5385951467337435,-0.3735738265322986,0.23400686175883728,0.44855285477213885,-0.2699297313671364,0.5948549117008252,0.6181246435837379,0.5106960863614264,-0.692289144746787,-0.12758090045836576,-0.07958807950267238,0.8028286151414505,0.5874986849543679,0.05503390470774554,-0.0793445315187977,-0.720768340892996,-0.9821416372865615,-0.48533403484500276,0.5849858979255198,-0.8949500877439754,0.30955635951130767,0.6319303166073424,-0.04014638318686179,-0.45647571083371635,-1.075210804210064,0.1674801231626012,0.9140032021548957,0.6841636315134669,-0.802689859453392,-1.0615090853232623,0.7487464508776535,-0.430935500150182,-0.912920623523763,-0.2728522257715287,-0.8634283963751431,0.8172544701255622,-0.24720056453003253,-0.20385424924659937,0.5995676743483234,0.6818705198884758,0.8359432084154835,-0.4132198203876565,0.11346237733593134,-0.8275278599374483,-1.0974227144502733,-0.6217545776217728,-0.49662581799229466,0.5295283398728486,-0.011628107385656715,0.5964511315805354,0.4481950962601755,0.4187142616209349,-0.8482564447451059,0.4538010180324784,-0.49528046430169903,0.20284453709695635,-0.41318882468430307,-0.07518832772310499,0.05119088585785934,-0.8512848875468759,-0.8487382002846816,0.30606801366766095,0.15179323133450398,-0.6327798300484027,-0.23055872960768736,0.4325247822316865,-0.5759275526799176,0.4009256832450273,-0.325434572752993,0.5018476633813198,-0.9747307842803886,0.2921327939142626,-0.03317774928651152,-0.954678338743418,-0.6290632890504728,-0.42510968898586937,-0.5282545000652459,0.6333844438239808,0.7223319622339814,0.6797988305401983,0.6715863512757599,-0.9868980009105416,-0.5969076197173567,-0.06676375293435939,-0.01689052118346055,-0.03304216246133482,-0.36820722148483115,0.2666138457861264,-0.6547926698344058,-0.27513280691692893,-0.2747658729058689,0.22444594192798217,0.04021478794129586,-0.24506197176658615,0.284742009096789,-0.6227804087144786,-0.386792772246959,0.07903982058198745,-0.983755862631923,0.8579297040064157,0.5734964322141364,-1.1753287939198787,0.44766936153841447,-0.30888794806446424,-0.8548121235348644,0.6565235985186475,-0.5084322025907121,0.626063826362678,-0.45412759836882377,-1.0264940820369866,-0.24384885774734824,0.5355179846977733,-0.012827258808392167,0.6111965227534171,-0.4723158849989556,-0.924874067633929,-0.8381924348836399,-0.16249141852212015,-0.19494938211592883,0.35515342392607574,0.75605211511929,0.43551710145464323,0.7540150019613846,0.5832849930668341,0.5871416459299965,0.08066995495779529,0.1493699311750907,-0.9619427381990239,0.6228858404789178,-0.057046106804768466,0.7569308948656746,0.022117830677112562,-0.6109780710451175,-0.018823975037366464,-0.054331138483946495,0.6399872863896328,-0.7628082042654748,-0.5490706957493441,-0.4548318205789429,-0.045995838249726785,0.6186423697780888,-0.7047032397429076,-0.8470718495848482,-0.8310910794185361,0.3670185545543526,0.1859748664612143,-1.0460437097885185,-0.7427899687166866,0.6332801606585335,0.21230696134135435,-0.047698505271184966,0.16991181095083566,-0.18938013751309796,-0.38724303420905826,0.8416812593175211,0.2602516770365988,-0.9455619374554826,-0.3350923457074443,0.42483809157668706,0.15279471846138282,-0.46226754572597817,-0.4408697574084268,0.841828730078914,-0.37155987861473994,0.7931081509241117,0.5211844104526087,0.75605490278265,-0.1643445262625345,-0.20821266422853996,0.8650759994686514,0.561632989598686,0.15822154569514085,0.19082711416121578,-0.3672952434282123,0.4545642279812111,-0.3143632704643706,0.30736198490597144,0.26913179247586716,-0.43274617902076135,-0.28374633249837544,-0.5404831858667323,-0.8608433495231576,-0.027000427718457953,-0.4986576247744099,-0.41727404372290455,0.002525079260466424,-0.03710315248364199,0.664292246853606,-0.365021482171549,-0.12131653803500977,-0.5910356309245279,0.5310499136419762,-0.7307835776935611,0.04362399483960493,0.2352807132880442,-1.0294291493943344,0.5831557877165243,0.2274230050499175,0.37296715314046924,0.359342699453641,-0.7617796963902134,0.47211145952165123,-0.3185225041831604,-0.6815865377483674,-0.6257627128263509,-0.9026254254114012,0.6191085591092741,-1.0123202550908286,0.24345574456339888,-0.28425179484252766,0.6800123708126791,0.0985959253555042,0.31217549022885355,0.7590954985376893,-0.31672170184841036,-0.4755791056506732,0.23654579310732843,-1.0062806658491563,1.0227727161178042,0.34860227150646705,-0.5470409905459176,-0.25362108998850946,-0.7841102138145913,-0.3363290502652405,-0.18637636352359863,-0.07269518709565426,-0.44862978965193273,0.35232783942345264,-0.9898265455288514,0.5152255264331723,0.20034563757174007,0.5473251620626469,-0.41539609624830337,-0.24115613460662885,-0.3540708739782882,0.4734013303770386,-0.7173034617548494,-0.46052788864625666,0.15140645874172196,-0.3932586478139631,-0.7852961626205373,-0.6506341618320256,0.02014635679796832,0.6743861502916096,-0.17042075075264723,0.11059401054600439,-0.30400127736838545,-0.4320400880568455,0.29549181998963364,-0.728573897959781,-0.36381101645675507,0.7042686723798685,-0.2339255740511776,-0.4266139532538978,0.8756060569396048,-0.8623863184224653,-0.8313921570450841,-0.9728541575720396,0.5441394774111662,-0.6423843155454788,0.6149331390928052,-0.6146830122531641,-0.18444087172397863,0.2199154759389429,0.04349044736734958,0.1884565510647486,-0.5874126427476004,-0.7556845144655082,0.38231514909194014,0.779979493603831,-0.3667837782060397,0.06809326899761943,0.36548195150331025,-0.4613341324315906,0.5285175955796548,-0.5945981373010615,-0.5729593162506582,-0.8247650121615612,-0.27486864856458837,0.20983146096307673,-0.39480726614553335,-0.13461713609979936,0.18256466941263252,0.7048525596112833,0.43647407784080594,-0.1368801657371784,0.5085799230692192,-0.8492531060668391,-1.2586770111218943,-0.042434614085609425,0.596301708176945,0.16962674765326827,0.3125707474756094,0.9587248567745423,0.2322283806877955,-0.45342039664705497,-0.8794329346749759,0.6632569251817377,-0.3554484609312035,-0.1930631734703892,0.6243470104075982,0.8452682910174876,0.419475913967196,1.0434308751368275,-0.4606680658768205,-0.9400586825396515,0.632353082031148,0.8702651896281405,0.5045256739202362,-0.9603029782480415,-0.4522658311528746,-0.8830233030962145,0.12329658876805556,-0.49604726914811936,0.2468902042656403,0.9705360751740805,-0.9547686694028557,-0.19433203578384137,0.3782314288283606,0.6382528912970872,-0.5454086475225883,0.520833514089815,0.32981912169121735,0.12689265552203943,0.0308718952611625,0.6432962548872537,-0.7255867055824538,0.010595537956960511,-0.8690137994340756,-0.8343061607541498,-0.8732267161468644,0.11742606318907911,0.29041608546591824,-0.6248987527314933,-0.45069213593424257,-0.8292748441670101,0.051690252196316094,0.38617740336832085,-0.050264064851753915,0.08960974000199692,0.23556792766552964,-0.8345298952576226,-0.3430770567828475,0.6949632690283764,-0.5913371697520099,-0.2891017459024932,0.0951135707128529,0.7012042259628346,0.13998677622164488,-0.33749231760538534,0.7893152109240991,0.23656464703881216,-0.08692248881556684,-0.7673863677034767,0.05440461996644457,-0.840047917972452,0.4000641436030751,0.4275184943089711,-0.5012892096928602,0.2764573721660122,0.3943602349268634,0.04167684347557186,-0.3364227813451636,-0.1549761663021281,0.20799488142214054,0.39917246580455573,-0.1823360887836555,-0.6649210414400905,0.029471917009749393,0.8846898355425963,-0.44677359558344465,0.31005367543610485,-0.038447917589994954,-0.32769067116704026,0.20573436278404855,-0.009570797264956207,0.18922042750138157,-0.2013459587182332,-0.8822296064911721,0.35051611022518875,0.6744468319031677,-0.9759541678175487,0.431405636839153,0.4531740471223741,0.8195751801543993,-0.1757544278805739,-0.7638242209040196,-0.21511555841199467,-0.6136806284560681,-0.6786964319070365,0.13669491479286786,-0.3155420444726991,0.6345330155278707,0.5955573647188569,-0.2952770362927127,-0.7186692422937553,-0.540864163914995,-0.09872702049601531,-0.08998929248500748,0.9522241684713689,-0.7822678828786901,-0.5589862826223552,0.27368174538716494,-0.40061310228909275,-0.29775621154526527,-0.29501306845942193,0.5251909136605314,0.6666563384320134,-0.3132697846021141,0.9430268823730913,0.5357082220190881,0.7055739002433037,-0.599849543816017,-0.060589295194969424,-0.8233772008672542,0.28166916271553105,0.11791680256699492,-0.39793823092722397,-0.13641831494538553,0.8843738449200105,-0.5087286025162842,-0.46080073805018784,-0.5229131430796006,0.11071572788037504,-0.7922519520330449,0.31221136962893664,0.14398875728809366,-0.5528542577979558,-0.13983066457645024,0.18196379420804673,-0.19090961884656427,-0.8864484208113322,-0.06217442926699258,-0.11043892098092481,-0.5060022932099881,-0.6238359757858949,-0.9859841759792964,-0.6531429073899951,-0.20844834982896493,-0.34734002711405454,0.5960979541503184,-0.20159673743627324,-0.2169203718116821,0.7462396225743043,-0.22744210477733262,0.38639861889413707,-0.9985539204394963,0.5422682899460588,0.2940297353149229,-0.14302384085824393,-0.7619807974819395,0.1639886828617926,0.5520813716287033,0.6003132219864766,0.7197470206389298,-0.8009549186695034,0.8960212738736207,-0.3079819565940164,-0.03766515797295105,0.895330903389399,0.07431461877804746,-0.43673284115318595,0.6929093197207205,-0.16051950179253996,-0.7811266785626124,0.65128813641009,0.8846715821480909,-0.16638896380617937,-0.24118328904562622,-0.9502370559738449,0.05543169209032396,-0.6359963730272808,-0.11478874132906178,-0.6004473088052806,1.1579423632969268,-0.6393905304815718,-0.46089058833206087,-0.44409584699265786,0.3562837531138884,-0.42229695733134154,0.652835669335422,0.4304477184493114,-0.9350545209926683,-0.24327118161982617,-0.728907688238249,0.029059949916696658,-0.17757434062035782,0.6872915985738858,-0.6554993994227858,-0.09653132679275594,0.7205331183744436,-0.12184610448182526,0.5796025535270523,-0.23191557437735733,-0.6770155333187657,-0.06833432581526253,-0.6115305811822719,0.3634542138903069,0.3841826606798284,-0.6744676694408213,-0.7389507114348652,-0.0938544491434541,-0.5215642048834298,0.10606761714834967,-0.1449472904626884,-1.031013457370642,0.7351348555087623,-0.15459900150857797,-0.5599924994575914,-0.10857888730610982,-0.6722830096303176,0.019498118694813528,0.07210155724754716,0.1980786046814642,-0.4361751645281323,0.2878607225571886,0.11431850181083482,-0.34073546948537387,0.12918789078114545,-0.2507737197395572,-0.16813224070419938,-0.4029799997223873,-0.8620364680618772,0.13128233989091723,-1.0146623082756026,0.8383938429455177,0.36495177872106455,-0.04019330671061741,0.6064128202721277,0.266595962762598,-0.3557170390826143,-0.8146075552058524,-0.49188412526728326,0.4370602653727453,0.29602309323282716,-0.5188196792223269,-0.3644746287090892,0.3219054824176657,0.39795215302898534,-1.1009200107758772,-0.5963741927697875,0.6313343332515718,-0.571947625300569,0.9371657408664575,0.0563200988992191,-0.2527579882391379,0.3092422135078382,-0.526606158814889,-0.34458919687105494,0.3194562466100635,0.8309882815896397,-0.7064786116939374,-0.41367916260848064,0.8374713426482429,0.7827901673988422,-0.30177909017778426,-0.36624014579500785,-0.5992236055724328,-0.65867757094352,0.5906312705789186,-0.5957943579303354,0.44615921359500554,-0.3050490867168196,0.4905524566534149,0.08794368121304429,-0.1496037213241369,0.41338756686001654,-0.5027874556535031,1.0407994369537907,0.33560058917610397,0.8493037990855835,0.05823540040325265,-0.6833498258496589,-0.19793547086727134,-0.888570910537682,-0.2832884027487194,-0.5603788200398725,-0.0028149048949593653,-0.22433154590765456,0.8363073814483116,-0.06445114422189294,-0.018040194508892375,-0.11872883480481534,-0.6766381126895662,-0.21661806165483605,-0.46013515167316277,0.6099023667015168,-1.01953278895544,0.7488493647405056,0.24562861457053778,-0.25716575772100797,-0.49191295204833535,0.10092637448319913,0.7466767354440743,0.10053072965736932,0.6467218569833929,0.5991198176276379,-0.589260526880244,0.5289852156918354,0.11006875852530164,0.2501882594531926,0.08149359985253887,-0.653363883668393,0.5161309904965742,0.4822044852366795,0.15478193066962218,-0.8697766166909151,-0.39191424168400013,0.014897411199173425,-0.8379729417166903,-0.14822112155106829,0.33435587168451264,-0.7843213101538324,0.44941687012301024,0.4769095169540454,0.7537263011518647,0.2081562299825752,-0.9217761599218549,0.38716710176582003,0.14796236145912842,-0.24531418120842782,0.5244775149101867,0.792443983013242,0.26694984565707386,-0.652138902354068,-0.29352391733917665,-0.5901670831224787,0.061507841024111914,0.4014508269219587,-0.4688142698592817,-0.2723571390185829,-0.8093698900651687,-0.2442551603160629,-0.12703930645663006,-0.06545548887819688,-0.33048947400078965,-1.0062997220123018,0.6386955612809029,0.11505984060694094,0.18934523217941535,-0.950302442035372,0.4194087357885581,-0.5165577702572876,0.39627056272798933,-0.7256142989389768,-0.5548742249181873,0.3921145202678607,-0.25973830747761034,-0.5520897143211709,0.8455854392401961,-0.780707966688423,0.18527294867970154,-0.6612662820747333,0.31664133251260396,-0.3444197916098519,-0.24079105872770645,-0.2197412033082056,-0.8871862689479421,-0.985273401764816,0.2862861323486243,-0.12164582648561194,0.2291576999864838,0.002668178353603822,0.5834673988292852,0.7531361103905152,-0.555691943293483,-0.9557136185339155,0.6571402794520145,-0.252177473343095,-0.9410093079917208,0.5937469971481176,0.27704706562206494,0.6571326162504812,0.15485966065724202,-0.45329082317985786,-0.026196161630281458,0.6286117381488288,-0.6895287832596722,-0.2112604789314077,0.582127300799697,0.762909435372735,-1.0185074986622227,-1.0114829840741097,0.6499152721920132,-0.6741885269344158,-0.28543460078607674,-0.2893637696729947,0.7857009548561069,0.5385348896528358,0.7758271151906306,0.3913577065680598,-0.034507594223825336,0.6343672881852456,-0.615936895860956,-0.21833485038816652,0.2512000159551657,0.5657503882951539,-0.6752348212099862,-0.3847131300560262,-0.10476501951467583,0.44199867010503485,0.9736406546597431,0.6740270829418372,-0.6916882027614665,-0.08971038481114217,-0.2661812719347118,-0.3124713290473692,-0.8371024112477538,-0.6099004319310095,0.8249409236683204,-0.5197907327910493,-0.4695287917596516,0.8462010473010553,-0.38274976911418485,-0.17757432051247649,-0.691744589506657,0.4697160983815093,-0.8879916076520624,0.506648154496985,0.3776063686287294,0.11999171661138114,0.43320327457336877,-0.9152982629975687,-0.27817578846790697,-0.6520925934502354,-0.7049773935616958,0.7039401998639385,0.6546622395691146,-0.18040353727429626,-0.4044231663590298,0.6635723499788198,-0.23539936753099255,-0.6046988123943601,-0.5678645738977769,-0.7263025156543875,0.5165175943909961,0.7719186480500394,-0.1346794544951072,-0.67426134801591,0.18843548260508414,-0.785095978094696,0.5583458295758188,-0.20577269324988165,0.20940747696426648,0.17377923202596887,0.44218148308114846,0.002466910653082182,-0.9173537893276706,-0.33038850931723945,0.47064092859422585,-0.26338651835500826,-0.7574785430803247,0.1890611576872213,-0.46852014339806086,0.17827006481767887,-0.9421008014040738,0.02204971615808269,0.1982987856092586,0.21739966821342102,0.7832281741638496,-0.11309323576336745,0.17088751260522214,-0.36840568338524593,0.5360216412414662,0.8093931086990805,0.30112135052912337,0.42218084564085845,1.3094616021808632,-0.17959460029639662,-0.07182942022583465,0.3293301612275117,-0.41059486069898243,-0.688330725933853,0.41976104979416795,-0.7786871143629984,-0.8588000828988447,0.41933421128489007,0.9323361392821793,0.6128313230077068,-0.7743011552875876,-1.121709514630739,0.8824322634769006,-0.1834610489049279,-0.6207384466873089,0.4202494321207933,0.34097306343433276,0.7450633090548674,0.3984335129837799,0.789674112571153,0.18598520872453778,0.4878701693102517,-0.5391535159985473,0.5166486802304832,0.4445210921405539,-0.6707711511995154,0.065135632324261,0.7312006078501476,-0.5172513543507119,-0.5084262851118106,-0.10521841099711787,-0.7845790010061611,0.5305090186292041,0.6452956415207513,0.6099708945501126,0.03373726674998125,0.607057991261985,0.3139857378921617,-0.03048336517407497,-1.0044642722058896,0.3419327071723387,-0.5127569111021576,0.4874547878848095,-1.0600983474208432,-0.7123464932078679,0.2621819804851439,-0.5091122948437531,-0.5077711869800714,-0.3716111535190532,0.4941092874544238,0.3190710445699113,-0.20305650843541448,-0.799140382279415,-0.274686051263378,0.8354017429090652,-0.5412266652404004,0.7084953792501061,-0.7705439548588984,0.025856916348203834,0.6010407887852707,0.4500398174065473,-0.12279584740956345,-0.09819762314089994,-1.068125306696514,-0.5139139821649444,0.7800473555713314,-0.7457000981679079,-0.5168342985650426,0.47591616569889783,-0.5103898659873848,-0.9996604085122612,0.5066470948651972,-0.5305464942443016,0.32704584734031955,0.09514501541807598,0.5511968452232103,-0.11718078469715798,0.05218437650291708,0.42805736465400673,0.7855269101488221,0.10037216263768076,-0.9195516011928823,0.3366689696294836,0.2510833086421261,0.21208849411768207,0.4503269033795751,0.5569489346653236,-1.1773312312177306,-0.3547714954710777,0.984250030969808,0.4227920329512993,0.32417896910753036,-0.17822741285247842,-1.1762402078902445,0.760190666529346,-0.6840850575249987,-0.6204454933999596,0.6161703986423513,-0.16425338163333578,-0.5921821789287229,0.23117713143218135,-0.7727262939618896,-0.608853456465387,-0.9964834382050759,-0.8504647034369464,0.5684194598247098,-0.6580774796455275,-0.0014169478457162314,0.05112529091314054,-1.0325485489036557,-0.8013088824867058,0.35607885829080343,-0.15942682630547575,-0.8225799633458438,0.7074162459696374,-0.5963944798234019,-0.4336612335448088,0.0360376633776203,-0.9429196654875212,0.38615415524728824,-1.028857873630007,0.8300997837391745,0.759509456046763,-0.2777858988019261,0.8663560207277156,-0.5727293370562546,-0.1648414314350661,0.32962362279518465,0.3685989098018261,0.5782028954463176,-0.6450361061334839,0.378938331091876,0.36308497877678614,0.12426994941354877,0.2633337985365593,-0.862500649344565,-0.1989464325061611,0.5117684665210134,0.20996220770534482,-0.9193808182679122,0.13794046818323275,-0.19310309462413894,1.0645340802467766,0.8522904499540851,-0.7116823467799999,-0.15077819555676134,-0.6616790033449453,-0.9776067525461634,-0.590740736583077,-0.24138649312799343,0.027458369144876014,0.33319706824399836,-0.7639590690774826,-0.6404246352985963,-0.032625262629996585,0.7946156613481936,-0.6544067070198821,-0.5606093188829535,0.6263089365478476,0.8574057887155415,0.32304021109411696,0.26598137306180003,-0.8718633320343584,0.8115482102118402,-0.02656988401529352,0.2739355331103953,0.5137724815430759,-0.815526605623886,-0.7626904621481747,-0.7983702453438235,0.47083334551467787,0.42368738004419176,-0.13355173118958083,-0.9994283974925032,-0.6995718849273228,-0.08235527925398234,0.47132330399052574,0.1224600247972669,-0.8476552028188853,-0.5226737411763419,0.31810262455766436,-0.5499732090007657,-0.10339969678781977,0.33728678821921326,0.25617871539914305,-0.5590995932671698,0.6233988628554735,-0.29017680932821577,-1.0242644127380862,0.36308925648948165,0.6170295965549342,-0.48754637573421605,-0.15867368914902283,-0.31251074498133286,0.28284584878178576,-0.6197847098943814,0.42458762350960577,0.6519432917932364,0.11556093790524016,0.08418610489204204,0.7477804642852093,-0.633722749509941,0.8824250061829509,-0.663392949698066,0.46215423463619365,0.48859082404885784,0.710760259862571,0.414291724928877,0.8297847307420463,-0.03321195516539429,-0.19058386613891093,0.07715389357676448,-0.3288016818742052,0.5685359070909107,0.8026252234975304,-0.6692201672492547,0.4953131072201255,0.15964417236309683,-0.29680781669128076,0.5254527779799162,-0.5304405863314284,-0.7092696860518756,-0.9566220755379442,-0.023127499433643024,-0.09081682819870994,-0.6699990619021057,-0.730940079768295,0.542253277097066,-0.5560182412816983,0.6434889798638079,-0.9513516973862012,0.14195848521381807,0.8789218282000262,-0.5026668767970583,-0.2842323670247547,0.6797223739258754,-0.2813282016451071,0.1792201435092018,-0.6102648479935863,0.45574575396539624,0.3963466037040557,-0.1895658116650208,0.8299167660800684,0.7463136548223509,-0.2156792827367013,0.13216341264280065,0.7976062395694047,-0.12117182989022807,0.09407853956827969,-0.20183536387474463,0.1634712544349178,1.0501608857708575,0.29510824912554084,-0.840117357073438,0.4205649246560686,-0.33642585386279095,-0.3359803795767438,0.28170418859491875,-0.038236532017779164,-0.7157172204349005,-0.309120300793681,-0.05477741138788375,-0.003980532985873844,-0.7458545457129566,-0.1730773295963538,-0.6105743836381147,0.4786673531094623,0.06746074929179247,0.2982564446253619,0.5878555955291501,-0.27828166540702204,-0.25885538602829544,-0.21029628623205512,-0.6613823530105725,-0.34551588585195225,0.44123946976645506,0.5298242606067816,-0.08233641303320716,0.5702908730905509,0.15212411753393842,-0.8472369545814529,-0.1934432848133489,-0.742909956518083,0.45889549358522147,0.4057338728062736,-0.23220484231435315,0.33653481819100906,0.3602146938370126,-0.8652023135883404,-1.0261435586590333,0.5327721865215407,-1.1248172005347636,0.37985929678454583,0.024929935685443744,0.3614020529458467,0.505804082258125,0.5156741391631148,0.1401964201232401,-0.36429877881646805,0.4776476237766938,0.41938023302391697,-0.7776244801627182,0.2117023078877834,-0.8735611342351359,0.323039824035262,-0.967221374611172,0.16446902382404177,0.2459786326301374,-1.220385203092063,-0.7304694974154579,0.6943456245849704,-0.39898153751045007,-0.3251196662188585,-0.4833979977410138,-0.5286257347641602,-0.7253761068836447,0.032837684767287656,-0.08469910990640178,-0.4380246048466107,0.306383396115155,-0.6201198503662659,-0.03742830699309358,0.754968669498998,-0.15527279715603506,0.4678537974569377,-0.6411735519112813,0.02349709805633556,0.19579227345280373,-0.8941375790090881,0.05017795626421413,-0.358786246847602,0.6649768252173234,-0.7557327960707342,0.5586988733751661,0.4824846148464488,-0.5917643154410677,-0.9580699598612451,0.8525365604158938,0.1639142379273171,-0.20395787120939052,0.6914753686466936,0.524000054697871,-0.4848553572551861,1.038498433518785,0.8464453393433325,-0.727104409696107,0.5186552673719201,-0.09952637573544228,-0.421030297746393,-0.24082956701056035,-0.3266877044787654,0.5341659305562085,-0.07890512740253514,0.24671564763250334,-0.9122333201337771,-0.9539026112801956,-0.6691008936747284,-0.8481543209988742,0.3981198671227325,-0.7266487976725875,0.7630758904532449,0.4834963015631586,-0.20644881370744536,-1.0612808545607202,-0.9117486153896818,0.7728730065693146,0.2447507321850012,0.5823154206072862,-0.6032044862440004,0.3990827989954074,-0.23608641454534282,-0.7225308786695248,-0.9887379308313291,0.29938264436658224,0.7217317933441048,0.2876117850111101,-0.6068089780609257,0.8994674937845833,-0.6638564082651646,0.8483269739307159,0.6621960295411612,-1.0881759402625668,-0.6009936296877936,-0.50833731970785,-0.39501937698627493,-0.5110987582680317,0.7485150387220885,-0.16990282156890626,0.40690863741008665,0.29018514850675864,0.1607651030584575,-0.4704394407514326,0.5356988373116554,0.7917274092332998,-1.1136368770110288,-0.6618203631127219,-0.7705793178459566,0.3995865234558694,0.2738538929411858,-0.5671779844949734,-0.8496647298413743,-0.5967789137005747,-1.0921128973580303,0.6141664102896155,0.657778591451187,0.2708589943252123,-0.45315439730131934,-0.33860187125815716,-0.2334996399915562,0.010664677162178813,1.0612220829175198,0.444386155548251,-0.22930606734116235,-0.2619904465732033,-0.73896863299088,-0.5141140718810447,-0.050381388073702064,0.7293988888222637,0.20261265934029554,-0.7997753051377717,0.19458823596639774,-0.0028224582415443825,0.28741939339336786,0.14551669599725328,0.18784946976973046,0.08383681201099152,-0.5632724269322794,-0.23301435887849895,-0.2916651821964342,0.0968513527598982,-0.49178525888223584,-0.9432813782954144,-0.1415536177807178,-0.3074193316336626,0.7845208045361803,-0.6973852283387625,-0.10578021795771213,-0.7531600588565515,-0.6916151724855594,-0.47494536073052995,-0.48434737030928715,0.6601818866331077,0.09532094507985994,0.6036279526916664,0.7772929995988304,0.12792505262504,0.9513000363483265,0.255884177713307,0.31120227459643424,-1.1278498619079784,-0.358354140058545,-0.7851620721973878,-0.4160580037088601,0.2828998459666977,0.9723506916068849,0.2911740426440943,0.027079231893120767,-0.5434575224865501,0.31653228238629494,0.37370179057470665,0.7970281479562473,-0.8120257314534369,0.15945942760655255,0.3461542390289231,-0.44781306426400186,-0.4877712846662506,-0.48426668404923434,0.7138436953943248,-0.9605238679576451,-0.8446276928907894,0.5234282161639107,-0.4666932277548861,-0.9850969121910642,0.3095380555398595,-0.16546903311689926,0.12583257457143968,-0.16941784887131936,0.4707517853842617,-0.06394368256727921,0.256646788905959,-0.06815046159292554,0.9351675454406798,-0.3157762957744263,-0.1453600516423276,0.49196660750775884,-0.6506434115956025,-0.8902412756490801,0.2656968395183067,-1.155743757340539,-0.06540773495570308,0.056833464893772064,0.5176692997987066,-0.33945540898458687,-0.8530108598084558,0.22334535692536409,-0.4930211110870059,-0.0426381878909135,-0.6315806400536511,0.3936474568856537,0.07737434591523565,-0.1655939547541701,-0.4764489212884829,-0.8111763062117361,-0.9605642299517154,-0.4114299605298315,-0.5996207056664329,0.20479672837666618,0.28337745724968944,-0.6262308535891237,0.6324404003062384,-0.8588985595488006,-0.2887866104985116,0.11692766687058044,-0.06561507642664835,-0.8732362661600589,0.17448995835819736,0.5076615342246281,-0.482043052869635,-0.28360492029079015,-0.23682588368654536,1.0514358884094537,-0.6074865994076326,0.7427814330311456,-0.9040694805483772,0.7072764474377012,0.08978538726096574,0.7805471764264966,