[{"type":"com.wsr.layers.reshape.ReshapeD2ToD1","outputSize":54},{"type":"com.wsr.layers.affine.AffineD1","inputSize":54,"outputSize":500,"rate":0.005,"weight":{"value":[-0.0784492024692191,0.41316551125195844,-0.21822269100252817,-1.0864085690627836,-0.5261345784920831,-1.2463152635757095,-0.1829135398568891,-0.023388591561041113,0.5323200658063029,-0.9867789827677337,0.23518497215829004,-0.33499125173639643,-0.40608506032578046,-0.7932944350902758,-0.7674213698153282,-0.20033136366361912,-0.7634214027667715,-0.1360728801629349,0.296150856448465,-0.8942303454243128,-0.3220129772845447,-0.7873536821537209,-0.17068936433789797,-0.20435655914053139,0.3690549323293148,0.3531810658648144,-0.8396498297421787,-1.002776613979897,0.04934764215486386,-0.4108746606292412,0.5735647509977856,0.33415528028770386,-0.47229684187249615,0.015835534706597446,-0.8198308356157332,-0.6441206241692182,-1.0677053520504918,0.09902245993094773,-1.0445102449464634,0.6126510870419924,1.063169144762059,-1.1175964907394864,0.22507864150401072,0.5965955299364836,-0.7974838376105245,-0.37147261765022127,-1.197306477764722,-0.17064635800220151,0.047558462712038924,0.10737233510730557,0.2737777150806415,-0.7121769727594466,-0.6609634735511363,-0.3358812027252137,-0.6063451361495644,-0.43401034540188027,-0.2791423466662433,0.060252892233975425,-0.8423997832726088,0.2664427517809694,-0.6318371532760042,-0.4228295292187491,0.11036330503453405,-1.0237006798046664,0.28427244390199247,-1.3292036102237978,0.4377292386715489,0.11022797145100026,-0.5838550841238114,-0.5934340477013963,0.6676230474504302,-0.5802403619854148,-0.9138438429668325,-0.2847099654687684,0.2992102049803422,-0.5330135236327643,-0.10107685485326294,-0.09979329734987162,-0.5573848365095603,-0.680509031434985,-0.49984080232706524,0.616216218821941,0.6872668037155731,-0.15369485947472475,0.517599962216509,-1.1248419415949065,-0.25496837549730716,-0.9026396668888087,0.16765938313505188,0.06782745206974508,-0.34373913572575415,-0.8421748373864809,-0.8766235217899999,0.6086639476589696,-0.13115305902041088,0.38424760558105164,-0.8234686876580606,-1.0536347380382924,-0.7441473765410479,-0.0019057758628490485,0.36689292759927944,-0.5801653888496898,0.10901231243290281,-0.19208899448003258,-0.8702688524291864,-0.361287201287636,-0.7464702723193335,0.41262456290743227,0.07154289911267539,-0.5469013627449583,-0.5809192948144268,0.07803495299951713,0.4905549267507836,-0.052407345999410465,-0.8506704825331964,-1.3495150978880015,-0.610533456452308,-0.3181381481735843,-0.6921227390104457,-0.09398415710396495,0.1763505208724151,0.10416981688580187,0.3190899256863548,-0.6242777311893734,0.24860565710729918,-0.9579458610715136,-0.7927299768312843,0.18369645516346886,-0.8502172114921321,-0.8790427628285458,-0.41958043918912447,-0.3401104698809515,0.14442445959706102,0.7770140868994709,0.5330621675870616,0.15186694600577652,0.3539096233047919,-0.1420689258026548,-0.9260168006439804,-0.4288359835402579,-0.46264291543935127,-0.6966497544362906,-0.8847491531593611,0.029484651635616033,-1.651758299676365,0.28598550434575376,-1.1337553287833824,-0.09250061338598697,-0.14044757492472568,-0.0956364959979502,-1.1314833874056636,-0.25631808784768245,-0.34524232404301486,0.41750863502868907,-0.8119668069412352,-0.270147674809522,-0.7667553383266655,-0.15210951734949238,-0.5988078837704415,-0.005463302619241807,-0.6684432713450111,1.247019122477954,0.8854612388959778,-0.6559868507478246,-0.648808917587457,-0.7511905655094925,-0.8866010480054521,-0.8916520189927325,-0.552655515545323,-0.9737217015704798,0.14707010121183497,-0.09077980280867592,0.2720926145726481,0.22266183647846147,-0.9401308006410615,-1.0723659971988968,-0.3056470288840295,-0.9200804948569978,-0.2971501318017828,-0.35251081624318004,-0.5229438696440804,0.13530535038099947,-0.234202538444665,-0.06384048539219922,0.0889196515117429,-0.2515326031273413,-1.146463931814271,0.28316957728071807,-0.712120843039339,-0.7301472967075696,-0.2105900589325244,-0.4149730346477757,0.33272994430014424,0.20830155931391847,0.015422567139137203,-0.11940136014065059,-1.0027143580359639,-0.25065115069433247,0.7283733559649904,-0.7324244238087679,0.5566183121061409,0.5483094360705831,0.02623460424329576,0.4721750965701258,-1.1283481871272996,0.09540269243846884,-0.4680102378159686,-0.9156982666296116,0.03201662557073567,0.011242063659440159,-0.425583001315795,-0.20325627912039756,-1.4675014108389968,0.10598322075855915,-0.05317487122118996,-0.4882216093039317,-0.1749361216712888,-0.7242178180480545,-0.0651852201105749,0.01688606674037496,-1.2787626041870626,0.3153793274474994,-0.4642329190082954,0.4480409653832747,-1.014385688865608,0.50745802983912,0.4132650183910222,0.5891624163347478,0.09208532473594143,-0.9214866143369722,-0.040784878663682175,0.2687711138073624,0.5495337205514894,-0.7932376260171572,-0.814523424495681,-1.1294650272275442,-1.0949099531439808,-0.06222152838038935,-0.1545593677545802,-0.21184784257856304,-0.5696778965430446,-0.8998950323259672,0.27637494752157077,-0.7789749645039863,-0.5062387846622519,0.17889674124566082,0.5111000384857697,-0.1401165669014714,0.29392492305450524,-1.2040726215003077,0.193608007207349,-1.1761487106915613,-0.464846420253444,0.352469865808528,-0.4517801189517521,-0.37591523464388477,-0.33298577652007194,-0.09018541840196699,0.21743098899833554,-1.4109405808316733,-0.03192256750421872,-0.27272926644282375,-0.8290466269500396,0.4669462918655854,-0.16442843445226604,0.30306317150859846,-0.19413344165465163,0.025856268644400125,-0.5941732091370134,0.09816608297531573,-0.11433694902111718,0.112496183392737,-1.0963064670344091,-0.1817735375045064,-1.0561416147503075,-0.5157306167451936,-0.8789284503937388,-0.38159966128831263,0.5401329526612962,0.4403342006350175,-1.3481802695495237,-0.8362646119742733,-0.8516362728139993,-0.2301583746982259,-1.2092694502683188,-0.06293545853623446,-0.03599701581407255,-0.7028261058030565,-0.4435878152095634,-0.23866871134243528,-0.2067553938342323,-1.1188930986490953,-0.16077190842470784,-0.9708969406498967,0.1365761910633839,0.04463079173711156,-0.9384608620926762,0.13530617932834846,-0.7937441886339277,-0.6974385900069751,-0.9886240646296016,0.2590187782660307,0.34671103813400783,-0.22695490762298504,-0.2345353268646107,0.7218176647443721,-0.45598726886018687,0.5871626421842483,0.2230973179169014,-0.07045791558898229,-0.1685576867256873,-0.09708698061012515,-0.8473406084195519,-0.12531051568867785,0.2899572913430697,-0.017086707049100567,0.1903449012162809,0.05050708113944316,-0.8575363478730208,-0.33702445868886155,0.008732184677804945,0.2387943958682815,-1.083526471120467,-1.3830985125328927,-0.4536923455279347,-0.28106908069767134,-0.49072899456839747,-0.1460007391300918,-0.018499250482702158,0.5101281862004111,-0.06481596712710694,-0.7715948067586341,-0.3405184380403855,-0.18004865421075042,0.11644562412122454,0.3501749800616368,0.071447935380851,-1.252514580414685,-0.03933689183543977,-0.06931124788720729,0.29458849670852183,-0.3653771052989113,0.18934216943114474,0.3409787074671701,0.40908494040842386,0.28915113738257076,-0.029515139735539184,-0.3697746156154819,-0.20785836499185512,0.19362403587382362,-0.7509746661047957,0.3185515955473859,0.14023115256312987,-0.01260480594554598,-1.0244328597300802,0.5945744547467334,-0.6495862374001455,-0.7331483897225038,-0.8175486474647893,0.25675587493604424,0.07403081458765341,-0.363104077283134,-0.9457591515965764,0.18776121819788313,0.2372246927054,-0.16180198060036458,0.8118400722995174,-0.9741514796480508,-1.0980328677328544,-0.4554777568092158,-0.8039208751603774,-0.9488511309173969,-0.9469894614083315,0.43069356995255426,-0.41271683374710805,-0.7229029695226936,0.2651871283504833,-0.19649517168992428,0.3159166289277261,-0.15274635600859465,-0.9895047261016675,-0.46240580148282656,-0.9841784848435072,-0.5471426873330852,0.24276455447916484,-0.10710421617468849,-0.7805453661226849,-0.670550276432576,0.5559682340358122,-0.9193559800949205,-1.6980185728980486,-1.0767782896233715,-0.20385800836786294,0.09623790259080402,-0.024760776709168854,0.5992589018206902,-1.3038230953036056,0.34124347253213,0.43476834383389146,-0.8813878263739068,0.9680811448499046,0.5473651904579485,-0.5315342644313534,-1.5412355776461524,-0.25158941850224403,-0.8002769898532508,-0.3564183339816713,0.1959780428166422,0.25744170649194226,-1.2579485335782736,-0.28537942566175123,-0.5556844469697684,-0.6989113868137992,-0.7520574270674141,0.20679618866035693,-1.509424951880293,0.2642959412840843,-0.9429553938663109,-0.0573926684756856,0.418866456272437,0.20682825106830205,-1.3124954466777108,-0.9186597721254596,-1.0844588450668229,-0.915460392014169,0.1422233686942457,-0.9585150761825554,-0.9671837678443378,-0.8966592412974382,-0.2693006803344391,0.7364261733130558,0.38239548451809613,0.14258451892200946,-0.6401333263372309,-0.39385193735704277,-0.23844923256561765,-1.03713788542233,0.2969160904376762,0.2622670009854135,-0.7147479019722511,0.1419593525396962,0.019968204591245875,-0.8596192328170476,-0.061133374240321794,0.3346076650231841,-0.1869060241797542,-0.8006140830921207,-0.1319217290042429,0.3284078436406786,0.2578913689176469,-0.427720436774245,0.17281641359108674,-0.42259747945178266,-0.007309409210180332,-0.3379894313799274,-0.042319525754913094,-1.180981569167846,-0.6214742922507912,-0.5829762192008275,-0.07808753831977522,-0.6421821593517927,-0.8873962517239148,-0.24079736186400352,-0.7482239186176604,-0.7174733490310967,-0.05877840722544976,-0.06316285716687448,-0.8923966700530456,-0.43366834157629863,-0.010392137354399684,-0.5278053289950895,0.005382758217859627,0.07316878241467979,1.1217963195755571,0.17812261968437818,-0.12470367211838493,-0.10491243480966508,0.2917538681235464,0.006951838848770026,-0.33126491567224936,-0.47637862971945555,-1.8723521724838834,-0.11389326943312589,-0.6553698151136987,-0.3590833649569718,0.08838133451647134,-0.22323617264530854,-0.6673589530941256,0.150500296463918,-0.4398294820377293,-0.6549564549737158,-0.33101139246077005,-0.15173911727262987,-0.4348482882649459,-0.325283771995075,-0.3615705685678666,-0.9810582339640403,-0.28001761006755543,0.7874394565394132,0.4756244634030133,0.06985922084477522,0.0361041178895242,0.5721086744488253,-0.15254824920842697,-0.7690282756061775,-0.517609784519111,0.2161915702118884,-0.8847810266753279,-0.4221456118735358,-0.8150209302900583,-0.5412430702945066,-0.2929646035223215,0.6899010277180256,0.42880921576696024,-0.7815024267756968,-0.49875057242748483,-0.13550669938820034,-1.0652662524209877,-1.201714396312554,0.21381369125177238,0.7504724840750071,-1.0729764433042137,0.33041978458051374,-0.8255589183459193,-0.6944647766486756,-0.4779084528877885,-0.9540599015814962,-0.6803812816913427,-0.11259121152132881,-0.8398532946893763,-0.11953345844551529,-0.3736311029069948,-0.4598952406264898,-0.288041873603828,-1.0898840646249746,0.042818419660592216,0.45820335420649766,-0.2504940602333193,0.45345106767419296,0.2538241828078498,0.7154097823728309,0.34066304306722855,0.3715617850318888,-0.9392636726951696,0.6900779838982761,-1.0768799746122955,-0.0209857728028446,-0.06050947910261707,0.8557972392024391,-0.6754445119747796,-0.11536548361881824,-0.5285153687702816,-0.4458501283895618,-0.7174004377412948,-0.3587980620164641,-0.11703341721638609,0.04728058484035955,0.19955545105986147,-0.46665758722181927,-1.2397688034589776,0.9618799324168905,-1.1899547538026591,-0.24042357749641383,-0.0016361263987091964,-0.3065016553937564,0.04721282922971403,0.21390062913342037,-0.427139967065574,-0.3024175164968118,-0.5304884649065148,-0.9034929189351734,0.32708750929275043,1.0757347123735679,-0.9485226947269156,0.0341944159932925,-0.5534433266217927,-0.7027963500099728,-0.8686796754904471,-0.3207908807356534,0.3485884921822954,-0.02483300550014806,-0.29218267726999014,-1.402661717905463,-0.6602442551823801,-0.6256093452161962,-0.1302031902520403,-0.9258980227780713,-0.3734212495452997,-0.37591742607779116,0.4440377698037864,0.8650494652159754,0.7012636029948722,-0.5878182228465042,-0.6089112484320615,-0.21854268885276476,0.33569629751286684,-0.4824060230797252,-0.07166906682788543,-0.6085388430834755,-0.20068154566152882,-0.8099555856021727,-0.6617322316672318,-0.6317045779457728,-0.4967529495849586,-0.8575820314803423,0.2764930520655222,-0.041812831771572134,-0.7859053421873037,-0.08590133261980545,0.6199195755401162,-1.3966674282189253,0.4142813527443387,-0.9476702205068998,-0.3060020513150763,0.08723093542559966,0.6686149197293523,0.8290801639370966,-0.8296619894300877,-0.5553397859961827,-0.37390681352880883,-0.6009290932199908,-0.11329155157567052,-0.35205347685109645,-0.8079154749544804,-0.909278080989825,-0.993289445225069,-0.961324381524326,0.5704447538053974,0.29542309633606706,-0.13776094855825663,-0.22501997998038878,-1.0228937381864418,-0.6892287551537671,-1.0876115776060424,0.3602951779762774,-0.3490527566735645,0.10146252016436132,-0.6981553941111386,0.11161984788406829,0.2548307362566824,-0.17519741678191117,-0.4985051413220507,-0.9403862240762044,-0.1067919024256813,-1.2205718597319284,0.4161812022269423,-0.6897044189422956,-0.4691646209912357,-1.0454312238758359,0.6656925300237347,0.5250410469921538,0.2945924704315207,0.18488896512194308,-0.9274404674094562,-0.3301058288923409,-0.3452585868000653,0.03918045928827074,-0.7923211870248863,-0.5645865061744547,-0.3430141226415326,-0.2124558344502692,0.01561276343206064,0.3629372253487402,0.21043352759730774,0.22132500596508223,-0.9312648430553307,0.2892760767169071,-0.8685090402404344,-0.6694705465192559,0.008985989949902485,-0.4787924522343917,0.0017413304774487673,-1.0933170924501199,-0.8132201884427772,0.2626976339659912,-0.8982680442149367,-0.5924922731311033,-0.6152910396587318,-0.2193655168230283,-1.3054305830638242,-0.33301349128005475,0.037957612109641,0.3669568833283764,-0.3553346516524614,0.33958262996292676,-1.1199374483002174,-0.7144937271088592,-0.04463477037375914,0.5139599698837924,0.14214319850993343,0.21663028521793534,-0.16345911470240146,-0.6801741594291776,0.39971966962337274,0.4812787299690961,0.627235320387269,-0.44893070444860417,-0.717139741183333,0.21036584439508324,-0.12292162255140178,0.6798820777162989,-0.24007826421004333,0.3568781182688574,0.29572837741336416,0.4350544296024336,0.7087474468679099,-0.058312911103272407,-0.28836497558234875,-0.24733293614688792,-0.22642264837343884,-0.9014449783340341,-1.081414317576564,-0.2032978875147877,-1.2024967980753716,-0.6162565932528808,-0.17527296439878948,-0.414875489269312,-0.9536075067635582,0.4949167686729142,-0.2177396378672329,0.5161661302812439,0.5186131539408645,0.6501120706605045,-0.0465697500116316,-0.3902097608541968,0.5652446270708974,0.3126012701380548,-0.3390283433854955,-0.044975204246027405,-0.4831631142266739,0.06250861302163327,0.3445413714036407,0.09318899343309486,-0.9398894899930818,-0.02825149846375484,-0.002532703886019112,0.34221615729701876,0.01502803387470058,-1.1096025438160713,0.1571620315013308,-0.21671416343917876,-0.8871865032400509,-0.007632572850291214,0.07377412934974945,-0.9329310278378806,-0.8524643755274716,0.41824570720257326,-0.012543986222497768,-0.057299090830551715,0.5961243591563764,0.013132223267544915,0.06101911562536183,-0.31851136919565987,-0.9245383172797346,-1.0042953713806912,0.2940028610549421,-0.4066246037010254,0.19805355283822176,0.3995056141688446,0.08942973933143117,-0.5248573353376708,0.6395754764930833,0.23453923328777057,-0.16137114906154226,0.3413076200916911,0.02273708100249217,0.49747446616025504,-0.828431958295777,-0.6600170367041296,0.41189339269470926,-1.0462147786509606,-0.40113861671800327,-1.1974665928003168,0.4162593538759615,-0.46382424104955516,0.46330976374177213,-0.4139959511686515,0.5072604436437559,-0.1359604381990095,-0.635379705602948,-1.1023927970693785,0.38684861928388636,-0.7826256517162207,-0.07679804704924414,-0.26239787078302224,-0.9042508126264913,-0.33181221971181857,0.41790359145973144,-0.4232022148351053,-0.9768834682613646,-0.40105033705474075,-0.32337907109799224,0.021281353564134454,-0.5963557873757055,0.08244930276005935,-0.36843123199411204,-0.4412900023409299,-0.24229472182815004,-0.3655357984101959,-0.6403090445262577,-1.1438292371830143,-0.6972509403263493,-1.8159627530045568,-0.3621847298259313,-0.4709402611039755,-0.1708491879751897,0.5025354370834377,-0.6368819773806024,0.5891870178409828,0.09164641004248372,-0.4162041350106849,-0.38870467528832775,-0.5091939947193271,-0.15336169867450694,-0.9371192316117716,0.024854318621342464,-0.21233760677972616,0.4021952355722248,0.08068783104931174,-0.011721556302689406,-0.9151478092696516,0.20732104392719092,0.08159892364026025,0.3383556846741899,-1.1070009982220397,-0.6424012297639801,0.45486865964558865,-0.7903586885767294,-0.42588378320930215,0.02024098261160818,0.16971245699555976,0.12297504296540078,0.3333597860462401,-1.2468400858837572,-0.0035107511253311525,0.2054080349682301,-0.26986216419610765,0.27996972039513096,-0.5185673423735693,0.573962735054977,-1.245500605467862,-0.9816924403355811,-0.04429815286326358,-0.5540383556074219,-0.4941848829928709,-1.2970492821675224,-1.2225942209956793,-0.599079740526265,-0.018672340393591762,0.08564452208956003,0.1555559124928893,-1.1592672991481023,-0.8050930291094068,-0.4338381165957253,-0.6921325692740101,-0.39004433301197644,0.04289973743499197,0.7492632324706988,0.28796037222379395,-0.43156414366755214,-0.04000502204697255,-1.5734140921043336,-0.02240801314806315,-0.9297570910768918,-0.7251674039660866,-0.19635236314792007,0.10811725954986076,0.3662365673792198,-0.7543246959319979,-0.7029967645163171,0.16051401589002226,0.3229279057302381,-0.5547449003944547,0.05848994573704584,0.4766514937899454,0.34600662650322617,-0.22463284087788682,-0.26526367239174997,0.17029420717333088,0.18765739823815317,-0.5237820293430513,-0.29165007365949136,0.2517702069000979,0.20047591734769357,-0.9538267374521257,-0.9446261573499833,-0.3999838911557097,0.3416247686132948,-1.06058354701932,-0.7520136380471724,0.018578649838785637,-0.6928669430745096,-0.5514055364515529,-1.312699224157845,-0.8083028936057939,-0.5776593343888149,0.43459426473463997,-0.8734186951825659,0.026140373674316913,-0.6865804181787988,-1.0270470449235873,-0.6087190555215468,0.3998510478344825,-0.8406025054726011,-1.1130496699594694,-0.08697121363195205,-0.25242129015404974,-1.062533063765311,0.1154962059383919,0.7949204341012929,0.29354037914192904,-0.8236295987795448,-0.015515427132254017,1.2047823761110639,-0.7537995452300187,-0.44247593848573286,0.05600923625041673,-0.37549774033738803,-0.3235608671077073,-0.27261182133026113,-1.3076621952146505,-0.6345449117537927,-1.2464790685268021,-0.6020407939512379,-0.9162112021384147,-0.492533903113,0.8463792866179072,-0.8746039256670127,-1.0852758765186106,-0.256390435806042,-0.8754717755928293,0.23154824342278435,-0.7456398673961764,-0.39699942648371966,-0.9882334339916944,-0.3427494672145046,0.572620395925477,0.8159299868491866,-0.637935355775651,-0.09687898716685751,0.10164407990082262,-0.7805731828911303,0.12978134218992454,-0.22079661925623004,0.16942366004647516,-0.9109561852428377,0.0731444332472555,0.29004571013043545,-0.2487184069785333,0.47491353628911076,-0.47316652647872554,0.14594271245912435,-0.021872135507445156,-0.8610287164277527,-0.8378621957496855,0.44243625660807734,0.21374044661931382,0.30608138702634274,0.55547874492412,-0.33205061700651767,0.06325539268744354,0.23513550231852295,-0.7646298481258172,-0.5609342711862584,0.37149168188746096,0.594403573659416,-0.16393430904102754,-0.7812434602253977,0.4753542566906957,-0.19030702143464887,0.6855283192337261,0.14482886365718478,0.2863760628723115,-0.5244962467526857,-0.094888246433571,0.3355946647157716,-0.040556023642182665,0.2922462769948344,-1.0459614350850333,0.5185977336044034,-0.4247349484746291,-1.5445247300961342,-0.4659053797541259,-0.3698158204609941,-0.4753875113048098,0.9677551109933371,0.1382985844065667,-0.5784679054008344,0.19130148614784165,-1.23996049179748,0.26273814528089634,-1.162810628062973,-0.9698092988588795,-0.6594796276287453,-0.7729785357467125,-0.8064350795398895,-0.9559712473575286,0.2410104084082072,-0.8193165728254331,0.5443150342691956,-0.6428547953729108,-0.23761906300626492,0.10764005557426784,-0.11440514528690614,-0.2969757991883484,-0.6951602726137914,-0.41455055254729206,0.5897178577514408,-1.0529988914763853,-0.2837916593533058,-0.26545119014747004,-0.19834800282731327,-0.7656881385381104,0.713366759296801,0.3212369871254121,-0.7746098993626319,0.08822203341170545,0.06946023125531794,0.08479533163017733,0.5827035400886765,0.0547351904919993,0.6241930374576764,0.2629284836056054,-0.7757683153891828,0.5732596267419066,-1.0803679023483872,0.6077124640937019,-0.006019335353033702,-0.8082546182399903,0.18212055810472283,-0.9846299469313867,0.24246233435613568,-0.27277265626599195,-0.6405307913227284,-0.05798772172192943,-0.014770743513129504,0.28374887776880714,-0.04432079346988985,-1.43264674466198,-1.1462776409737074,-0.22152650267398086,-0.08794093963537986,-0.7031578583071718,-0.06384699003552498,-0.30484147800828565,-0.0683027987391072,-0.986715281975505,-0.5724465874165124,0.22432600053430313,0.9244813374506657,-0.4679236709732406,0.2423337393277743,0.626505093543195,0.007267479193116107,-0.25297924086831297,-1.040765546252081,-1.0622880111255373,0.031690868348884474,-0.3724803534732243,-0.17895632609395123,0.11330082892312929,-0.6092941299646193,0.05034225891685654,-0.6627341526849159,-0.7029935121267917,-0.7496207581129118,-1.5202962734494114,0.6014456767291207,-0.5257221814405418,0.6967941822500816,-0.41858191123828636,-0.0024162023853130632,-0.8174380886239301,-0.3285122482587474,0.038746219042826005,0.24485378908384728,-0.5508809725860645,0.5105848447283606,-0.4639460424828491,-1.175176172306697,-0.6813415464092551,-0.7857760496370272,-0.16465003137062628,0.3548228862642748,-0.997343164438799,0.22013689144363943,-1.0949133337347303,0.9335448807281718,-0.27108338233300083,-0.5548357928116865,-0.8161375314223446,-1.0492891934972834,0.4857988072016058,0.7792744123791482,-0.40429997336990153,-0.10711726903639035,-0.22442066233282484,0.5946112196519796,0.6990564877864995,-0.18365632088549966,-0.7572275215149231,-0.9332419237806772,-0.15034904495179313,0.07555035288817166,-0.7694886022191242,-0.16780718032275793,-0.9406242919461552,-0.3159268490182132,0.322437028426052,-0.7826231303299255,0.3071482501822108,1.14384363897117,0.5202050061109771,-0.862336651593947,-0.6109726142524441,0.5043170715316931,-0.6084923529088067,0.3613831242529699,0.43712565988579305,-0.11587726133659035,-0.2216804599586363,0.5118654676600246,0.19525141546065516,0.6751307613136721,-0.5358106722899644,0.30708448575083397,0.8018208358319946,0.4481705161285342,0.6522045519033993,-0.36555854552778055,0.27573827009600665,-1.1703862019408011,-0.3627404962137545,0.20829518484172144,-0.24679448490019146,-0.35991761196428523,-0.5489581231904708,-0.6874598206826943,-0.11484292315849645,-1.0712310567604968,-0.3461937122720053,0.5059108045291929,-0.09994823590405745,0.385687408058939,0.38878182266521866,-0.44938524821032494,-0.45785174594581507,-1.125259790599222,-0.9530741405289993,0.19079620366352518,0.5355183362215195,-0.22485271545743662,-0.9970946603887505,-0.431341190984383,0.1407665610083985,-0.6009558358411867,-0.42523910640182083,-0.9704513252897977,0.6310012182833145,-0.346492291036605,-0.9324711189428924,-1.2577385501332772,-0.9078891747339933,0.7702112071989222,-1.0557082909871962,0.22859115883301973,0.7315836004876312,-0.4418773187748513,0.5438516183828237,0.48131715135729675,0.11391599149025362,0.3648017675488876,-0.4825096106095164,-0.18006595464495637,0.5974432595291794,-0.20713808093333788,-0.6315628200225033,-0.10431802059061544,0.4847695333716004,-0.8078978867272152,-0.5010095614555187,0.17214851148620483,0.5370939824036564,0.6434840881937303,-0.9713006434589586,-0.5241396951246807,-0.9021397760580645,0.6083451403222069,-0.9377506971715724,0.6714018737519559,-0.7247045953302604,-1.6128727627662023,0.5539289713355697,-0.15460728476309607,0.47480112807725566,-0.7794666484721107,0.6696792569371561,-0.3415934065807655,-0.7854559740991696,-0.9166858870868383,-1.2147566755145032,0.2992679913986468,0.11882265661298745,-0.7242451948306774,-0.6581099203583397,-0.7953383742353449,-0.048211332330674726,0.023046358723122672,-0.9907404416161142,-0.19769515611261787,0.04993090210448607,0.6448588887875227,-1.4486120014395183,0.5674839516070941,-0.9423482900413698,0.2347288092483674,0.1251226248072476,0.05887878039221821,-1.2978703512258962,0.5240926916854406,-0.17685233737311803,-0.017603165785752765,0.5985745479493901,-0.5645987353950844,-0.865457892708565,-1.2456667634749636,-1.1949666741939278,-1.1253809029472575,0.6778575211307057,0.046904977830465135,0.5040348366374697,0.5186541492868422,-0.06000512362941795,-1.1366177907477335,0.7852085288294234,0.7760558896605939,-0.19054724370416995,0.2367786213096149,0.6753644425050939,0.6309343288363407,0.127260863163137,-0.5381881512551697,-0.7573694701963235,-0.7139914175083634,-0.9451790881389266,-0.5717525066726605,-1.0856704945211848,-0.42241811911473426,-0.9442460451394513,-0.49003029969352946,0.41469592670064126,-0.1576979175451232,-1.120499386607738,0.9603860209468034,0.6009355781397884,-0.6680029009749391,-0.23349503224217738,-0.15443054653806065,0.15132594408519018,0.5618222777400254,0.9063369224059482,-0.7043559709929924,0.7556381552809261,-0.8551919204252969,0.6916822714056711,-0.1773063110922261,-0.22605152404522114,-0.5482414188460969,0.38597948543749094,-0.6966634647793994,-0.32131266907972955,0.13770281351642003,-0.6692862409712016,0.5878708599017154,-0.17580708014890345,0.5236098739673795,-1.0083583412872783,-0.17754712786546548,-1.1129335477022808,0.41474222271229166,0.6816862517339422,-0.6500724108613255,0.3173276247770557,0.20119544576457116,-0.5924294878192706,-0.18955058272342884,0.4731790872379124,0.6458482501455727,-0.11367359735124202,0.3466934351181999,-0.7995675143197741,0.5924356730793345,-0.8598049009763237,0.006719483744726584,0.24986360092909107,-0.41711731597188934,-0.26921959150612984,-0.7802862275978157,-0.5670367915784957,-0.4152651918292878,-0.42244349364241196,0.3200417743159674,0.6139518831939514,-0.8661524630773058,0.5519576684907254,0.9053879658738626,-0.8045344517254778,0.39415056086069816,-0.15611078937280054,0.4909059793012135,0.5573836958010754,-0.7896373371737366,-0.6529814011685866,-0.8747823204768295,0.2582629189138128,0.3790789366470263,-0.7821988549840374,-0.37171721515865747,0.1283818319184839,0.16458783966700727,0.6745854109896227,-0.18920000483344152,-0.6530208726499567,-0.2646058882024114,0.5902633992311055,-1.046157535503967,0.3547918045264551,-0.06079361861446345,-1.0614601624166657,0.6369296797641515,-0.789516353794048,-1.0002328172637007,0.44400293124603707,0.04544990117824699,-1.0959098145653567,-1.1266052715499448,0.8930735356798162,-0.9243546679208662,-0.8231098502732789,-0.6863980561764892,0.2029509537341924,0.0835046131239231,-1.0238662709304867,-0.808881778988744,0.5100557980622817,-0.1361008629266975,-1.0451802155685266,-0.6670575680178007,-0.2234043311620551,0.18833020412622492,-0.9306073470331826,-0.7988093328924389,-0.5295353389656442,-0.6814527906360074,0.49682246332751495,-0.9537173232077734,-0.9994549662942687,-0.19814052114522687,0.6872667315150818,-0.09612217829320573,-0.1959317475684613,0.056793025992786836,0.5969529710700503,0.1272272475250166,0.022821949174105863,-0.7317124417469085,-0.5429195724214103,-0.6918398965591377,-0.5948667793013596,-1.4905301703566434,0.7398099743539247,-1.1251121454350443,0.35068238005265306,-0.04544353446792306,-0.22003618377191658,-0.5332529265726561,-0.05262451795796298,-0.5411589136394542,-0.06750281892921003,-0.039875989708386975,0.4944793991070625,-0.8706644087084892,-0.45338576302759864,0.022714887129116373,0.24688348252936088,-0.7405499122790009,-0.3888788834119174,0.4322167825313699,-0.04481821612735609,0.0135460598940927,-0.053750389598406854,0.8167412911051609,0.34279808089629665,-1.1065150912159796,-0.6814219757546098,-0.8049424533483431,0.2111766398039488,0.6460757037790453,-0.3555284930079601,0.6744095654812357,-0.7054298379360165,0.674261275074052,0.22186966186125243,-0.3921195097270167,-0.5000258427757959,0.2070863475092176,-0.3934199028226217,-1.0660025135826199,-0.8147640453045811,-0.5775317016469856,0.40693899729239386,-0.2907974959354374,-0.5034708115350729,0.8261680901835855,0.2191219504280055,-1.2107068612968344,-0.8255651406531673,-0.9054253358362565,-0.9873899962167902,-0.4914414375818903,-0.47880229908749533,-0.044336696135879865,0.42940960251862986,0.2819724998880699,-1.2441649382177005,-0.86064223237363,-0.450982162740124,0.03110460636887759,-0.9623738505605838,0.050121242464373265,-0.37231048794746097,0.42298864181414186,0.21244433193881607,0.5018131534355242,-1.3937530810728975,-0.2361420292597268,-1.4092844566273797,-0.688515764603629,-0.1245364899940824,-0.6849789378834763,-0.3818095817267242,-0.6744025728702543,-0.5980961433554642,0.25149228885189157,-0.3004222153887883,-1.013328496560125,-0.0014481085698139747,0.06494055458793524,-0.4584235826345143,0.5734636811248499,0.28659931526285,0.028161812882261043,0.08830563458049058,-0.6109656600950547,-0.8348109570359143,-0.9374762094326734,-1.026697693954837,0.2343427723023645,-0.4864533982465006,-0.4094967097097547,0.945809074369157,-0.2295736406314737,-0.21320574366219391,0.44786770019945604,0.5978194337587867,0.21514818255572654,-0.6369069086463635,0.249883824366192,-0.5121943848903213,-0.8877691577530237,0.023262113642997413,-0.0339548821995014,-1.0677787037322433,-0.6230540104978779,-0.8644057438465779,-0.1001937428358087,0.322864161116603,-0.5768258121750696,0.128710637831536,-0.21087365733373867,0.3587098068879086,0.17531682034188942,-0.311676685643407,0.04069994122110532,0.135518631207526,-0.09842704449595208,0.7472032367696467,-0.4228334146644544,-0.6294267492089909,-0.3593745049391098,0.6260907591115308,0.23899619368888783,-0.7959384238313978,0.6901054005307619,-0.8338333865791057,0.6195303672451358,0.5147302637675838,-0.3464121519025802,-0.5650220433345957,-0.5755432950148204,-0.5586199183798619,0.4425036580925392,0.03075926764789707,-0.7918885662248638,0.5538748375101913,0.029166453664327557,-0.3528883168143704,-1.107802578087792,-0.19673712753204145,0.26173152506734615,-1.0598842475974102,0.5004394355654316,-0.8833144495146429,-0.28013395273612135,-0.19482672687659464,-0.2518874315724756,-0.5548854985741211,-0.09563017998835342,0.014149247800800808,-0.5011849596911176,0.9834486258685817,0.48319353918936486,-0.6846692730022209,0.7386938542805559,-0.1524077773038347,-0.1777474688785984,-1.2933810364954659,0.15763108685850896,-0.30886496416801984,-1.4540486535010229,-0.2941106429192457,-0.8351576295628165,-0.880097227614555,0.054773198988249984,-0.8779538646531756,0.07310382066152994,0.03216946918437414,-0.05182474971214778,0.13775199189889137,-0.1456432954127322,-1.1592643958742406,0.20725916970833455,-0.24548517909737128,0.018097779497263003,-0.974323700939278,0.13337425943813694,-0.04830779548030127,-0.12584918169792417,-1.0390028115572072,-0.49336455953680886,-0.728271041010483,0.4430493905778495,-0.26107361562747455,-0.10852799172882875,0.22742584737490185,-0.6663376612979313,-1.125656089135863,-0.042968942603612094,0.5706191203093552,0.555834656874097,-0.6071123140148538,-1.0998103710244245,-1.6515602213994411,0.2162043499128594,0.2522404696810264,-0.8995321952671927,-0.7290080900078069,0.24399207626513988,0.30901072829058546,-0.5048137052264235,-0.7557511525778737,-1.1134299516341581,-0.14926709477759445,-0.09876892926441816,-0.2774903185836851,0.1623180216439555,0.388319524455144,-0.9398532166394089,0.1065193287652616,-0.33208715338204986,-0.15255121602332822,-0.40951419215276813,-0.6322567128582551,-1.0759585023178777,-1.1096587599861412,0.7948340535754188,-0.5349116356468154,0.5246717727790843,-0.0737778612382166,-0.7968154805127812,-1.028941947828325,-0.6910656299215641,0.29512984642942053,0.5137005741708773,-1.1430760881598576,-0.637904192997762,0.24327156847515494,-1.1123557026831143,-0.40156280663307375,-1.218158849850564,0.4618388476879682,-0.9719257746540234,0.039198434141877084,-0.06732283233447922,-0.11260449269248138,-0.30673258961884026,-1.1118013705844236,-1.0470638951249414,-0.5921357090748093,-0.29417136056647014,0.5678500904730993,-0.658786792641265,-1.1525434997261967,0.30373657125281006,-0.2243139977377929,0.04225918950216159,0.4935772169955313,-0.42746364372850876,-0.3440357508110009,0.28154525695992044,0.17756226364222252,0.659248825214537,-0.3477059676598364,0.25284040180304657,-0.892932595087837,-0.5429556599618177,-0.22025496436950864,-0.3509341795968286,-0.7019810106849489,-1.003780924237738,-0.12001512172900099,-1.0579312384966342,-1.486656187119131,0.3992405005474372,-0.7084021750023363,-0.8011487579304347,0.035019829742725474,0.43945118968552865,-0.44187266484319776,0.20353722327880144,-0.46514042335125066,-0.6867295822148789,-1.1684467391693074,-0.5514157152705659,-0.7294771753259855,0.057844804727276655,-0.4393415028280709,-0.39414781671990207,0.19924757246791416,-0.9997368380864261,-0.8807989363937712,-0.6734975539451604,1.0806857975945612,0.559290491450754,0.24730556412636748,-0.5177344039236041,-0.1316663335204276,0.6766884317002158,0.194126417995681,-0.4392688828588792,-1.1940815886375826,0.021911783361175215,-1.0015954201624415,-1.4661553455983756,0.39206503685860444,-0.5588929671576651,-0.019878802072210388,0.1170963849479011,0.11205043070098525,0.13395032971468973,-0.625445820902878,-0.13664318973679562,-0.8346496286620272,-0.8015788640962188,-0.13712995773478212,0.49020258769717495,0.265733987970561,-0.6239817477476448,-0.3510122357664686,0.4572965460382553,-0.7050940125575442,-0.39049642508100996,-1.107648940488117,-0.45123419976008217,-0.5545078716359999,-1.4759722554732084,-0.5750244063728354,-0.6624847417855343,-0.17640374337914008,-0.043217531461567746,-0.7468546765483396,-0.5242961559913288,-0.0859606697060486,-0.24403475141974548,0.14331870899408863,-0.5839896058532601,0.036458193116075926,0.15332182363663308,0.8226357353575657,0.09915443813090236,-0.1634126450029299,0.6031571085524722,-1.1203022726207927,0.6608702646361673,0.24848271440671374,-0.010738240863567911,-0.7187663572327783,-0.827717634404481,-0.5427104557432862,-0.07826306200940628,0.25655307730212856,-0.4748725337905499,-0.5971933594160264,-0.6578016768290804,0.1756969540426369,-0.3707266510303714,0.4862042630068053,0.21846200192210993,0.20946585603013707,0.4461978526419705,0.8440529738352182,0.36171049233318453,0.29519089300647716,-0.7881389717926075,0.2605939347113909,-0.25667195207732624,-0.9573511408938824,-0.3572106061489755,-0.29082236430932584,-0.08875002431431761,0.13919830057511062,0.7986600435517855,-0.07943964373301986,-1.395234081714677,-0.16957338730831215,0.3114102161868595,0.6230613038906566,-0.7068985347855185,-0.6942413606429788,-0.8605602456153819,-0.5270804884403418,0.4100522632996232,0.3386334278963641,-1.1806260336907506,-0.36036689849881304,-0.7334095648104219,0.3899070328967802,-0.6421681012810929,-0.931777540452356,-0.5238500235359417,-0.14341865794360242,0.08311243801280895,-0.8732458553824414,-0.2515372082133235,-0.8195861055238969,-0.33392984653905017,-0.12383622103812186,0.298345566303375,-0.743222026350304,0.4880127305607553,-1.174706837651914,-0.58184698389901,-0.7455116813280505,-0.9017642871708555,0.30394129450811014,0.24367019382856756,-0.3879582377766486,-1.2986194297450677,-1.3537089402289253,0.1522256523185873,0.039281883040068646,0.06083120426183137,-0.571155309678969,-0.5495153709627659,-0.46715308218584445,-0.5654517256235428,-1.3467004668062783,-1.0397733529383817,-0.739951829019018,0.8767620024033567,-0.09338906086330036,-0.42913861898718286,-0.05134058602448069,0.030238339425547777,0.7027529406056047,-0.8037635415704825,0.9805103901806959,-0.6111273469983785,-0.2602844030108134,0.2633998233781232,0.13187314870845246,-0.767187228220887,0.4307665490873786,-0.75947587394843,-0.7365702872177488,-1.0256935439631616,-0.9199140776562581,0.04564076004885988,0.2075310371338936,0.9382477334974325,-0.38797984940478375,0.028146108506308637,1.166349998554675,-0.47809427919086234,-0.5228332059508233,-1.3214355013049408,0.0494107583206884,-0.13427918492928625,-0.825098291544623,0.5098358449981782,-0.7467023761616084,-1.1533297258168482,-0.7931066844675538,-0.18717054450676401,-0.230305243464323,0.16076294907908756,0.4479384121142548,-0.5109231207466255,-0.39887874953225455,0.06700641633073195,0.2859074502047938,-0.6373637136151947,-0.11664139196721515,0.6224974301407615,-0.053794419680099306,-0.4349900366886398,-0.4404222219011026,-0.5072359810603622,0.5579998129668178,0.24526580284195135,-1.3207260295039365,0.491114877150917,-0.6864103961870947,-0.8250681277957117,0.051587288133822455,-1.0479346761786468,0.5544701605563747,-1.189468105176948,-0.638045394776281,-1.0163724342279363,-0.9810462491500501,0.35282375160746243,0.4962803714598819,0.14951418942111958,0.14615136846722576,-1.3239541147559495,-1.0520109703621976,0.4702527510032188,-0.5170158522860263,-0.8997006238099986,-0.12974298136640375,-0.7550981026937676,-0.9546901994268885,-0.8817488946199576,0.22417823367038928,-1.0077155294888787,0.5749630933493091,-0.5397034124844747,-0.15386727288381694,-0.09326033807283717,-0.30930932254268395,-0.7610295015484532,-0.8860238095137083,-0.25919136881363125,-0.5029879320537302,-1.161454442599279,-0.22057951310093216,-0.3760114070141665,0.1708114355302864,-1.5028127043284927,0.33174193550303677,0.5253124549450116,-0.5515730704608018,-0.7331210330974776,0.12998087650340182,0.29287072011842497,-0.9606276476675836,0.47404959139778063,-0.2695525059551363,0.12386197835683656,-0.2941489087055099,0.4614921486893653,-0.21551347178961053,-0.3700819225084414,-0.950581212853078,-0.6248559135488809,0.1388234372730843,-0.4678677026072693,0.024015107397705758,0.6256005708577256,-0.46397045622732097,-0.8060461303023437,-0.9844782551565813,-0.11925973845493794,0.1472831951890037,0.23932993304900935,-0.4238656264915092,-0.7570603716686455,-0.35979863964314746,0.37643860125001544,-0.6803066015677316,-0.45520951568267837,0.5208657668199754,0.12236102973966322,-0.17429641425728581,0.17987302670321526,-1.0073039202912986,-1.6037679056208847,0.17732788748740624,-0.7404389344101284,0.5829207308807132,0.10298007946115702,-0.21735935242497023,0.3153307273057568,-0.012501008932197097,-0.8491155787832253,-0.37403890611013035,-0.869427287151022,0.6916553207959142,0.12947489513102792,-0.7752184929955109,-0.2338534980137114,0.4541629658072575,0.4870090096151643,-1.8207621215528182,-0.16426786562736062,-0.8440151672931466,-0.059409529378569116,0.39814009326540195,0.3727774499166841,-0.6973234646618084,-0.6507006332277284,0.3386892176268823,-0.7316482457144315,-0.4896938520870714,0.020922210966005276,-0.611202059393517,-0.8763779551603667,0.07529654516126395,0.24187968882020064,-0.16648406771732124,0.23954846346031242,-0.3064658584507136,-0.7909038005439704,-0.28895869921211104,-0.6989567841580223,0.09356900387959866,0.6241461020559196,-0.3631276241961457,0.01547680199539588,-0.45449807433049627,-0.24234972722672965,-0.7879931744715939,0.15842761967280658,-0.4454543287953235,-0.15876296833751585,0.08956958966590234,-0.260722435937431,0.42554294438711426,-0.03572176917458193,-1.2951566391024518,-0.5780869630950429,-0.6490901287520627,0.3572828472102814,-0.7503017784633235,0.4580919969303573,0.1191907041892126,-1.474514334335223,0.0672543777262138,-0.4590478281352069,-0.3791971107224196,-0.9974108631681429,-0.557903105198029,-0.18004547156272419,0.2979596523757648,-0.9247294338738218,0.35054708445098076,0.5953344031302648,0.1306277023398287,-0.7628974825087323,-0.16062280269041482,-0.6107882041639886,-0.8059519242262851,0.25220975245349636,-0.5572793932690912,1.0129302602146004,0.2931799283218366,0.48202308502172714,0.5723687181271626,-0.6777974817174074,-0.3138371152787358,-0.789425028170821,-0.47794199172343266,0.4298267120621035,-1.120483691776425,-0.957150252235198,-0.988850748891975,-0.48968508228963065,0.14289146131520986,-0.30406092229735904,-0.05669305877904568,-0.29233906076694927,0.16656950865178616,-0.8438424253300706,-0.6082113553015738,0.19579891295687943,-1.119471433172231,-1.2387441717213101,-0.29685456092094487,-0.10764909258353868,-0.3271510880032887,-0.6621058931969859,-0.36487660136042666,-0.21375671351822625,0.6986747978762183,-0.07524830213804064,-0.702902232750972,0.7005957274725081,0.2154970779453613,0.1671141593765976,-1.000337964811904,-0.9781292756859596,-0.24317798408531988,-0.8096382025970986,0.5461978968804292,-0.17176696616775664,-0.14889150761714184,0.11973682077033236,0.4043111843627839,0.7583791723573152,-0.15636686095126057,-0.5046137057818699,0.7626170765510207,-1.2912602191136338,-0.17802709575323045,0.3119191856102721,0.011371811391666814,0.031032423025955515,-0.4424224509665359,0.17977826780915065,-0.7006437312645001,0.097715092370419,-1.0346831818010527,-0.235521862622275,0.1575155460116791,-0.9676542274415606,0.7097557791292975,-0.5838807415214998,-0.28034083762550094,-0.477857746557606,-0.49997668961062425,0.5327917252195837,-0.8315753811180906,-0.13885580226120797,-0.2845681384649908,0.42392583897868485,-0.5519910946599208,0.594325502139018,-0.742880183118304,-0.05483619494913799,-1.1145310492669518,0.10066878293983451,0.5376619283823973,-0.43951935032798917,0.003698933073999937,-0.5788030077831714,-0.3511747710151734,-0.7643710750227549,-0.21329978451648587,0.32424778266292964,-0.46446022678455146,-1.1666383327950394,-0.40574750308352625,-0.9373983663115544,0.4383422262161742,0.3305951737853266,0.14246380485158466,-0.6902927586689802,-1.24700679006841,-0.39575451686855506,0.11278369650156339,1.2525244934833708,-0.7287866055276417,0.19825600932963006,-0.6165532985117768,-0.8252273255847423,0.2383673968330008,-0.6716501837103612,-0.760352462340476,-0.3297842710157683,0.10588596725549758,0.6827614422518314,-0.4454353992213145,-1.1414960526212827,-0.13759801108469322,0.5183815025562147,-1.0524986615923453,-0.30514502454419734,-0.9211240053586147,0.43219206678431143,-0.5271712716862679,0.23035539933282348,-0.45387320920650337,-0.8143339465018771,0.4274185765068234,-0.7191839408360352,-0.9693614342761355,0.688173564869487,0.1641126819671892,0.34972532275249607,-0.6796645667375143,-1.2715636383607332,-0.5705548183370193,-0.19919756564390684,-0.27029110140232765,-0.3204696862948394,0.5644857262247551,-1.0175668944456326,-0.6388511901549236,0.033493809332821735,0.11746589702458025,-0.8423180899085158,-0.8341978755298444,0.09876631515948416,0.3703921669611579,-0.3013601412199165,0.36289075832976403,0.16366763996432482,0.41552629846025885,-0.4634942737124769,-1.047096121963734,0.1955279040840467,0.061069266448473526,-0.5484955420547438,-0.5595125197533676,-0.05385901685273867,-0.6719000787118338,0.046478816123682,0.18209135642657284,-0.4493857248689041,-0.4763008809618635,0.34103443565906116,0.8277163749163988,-0.13388000978501674,-0.6534479412081626,0.3670145679558214,0.06334144940739961,-0.8627514086692515,-0.505133508641397,-0.34442756052594814,0.028387342049156307,-0.12092422781446947,-0.7246498457529053,-0.8369838497316492,-0.6192438596923746,-0.8632661846869689,-0.20661983046392057,-0.8602529861760164,-0.6860588607121523,-0.46218850635453823,-0.2567698719700342,-0.8893849986262121,0.1235571687067588,0.4456581542225728,-1.285738966510643,0.4865852338483509,-0.14515775657465993,-0.726753240512026,0.7365819682555622,0.7728953873658119,0.564863911595004,-0.4062897415520583,-0.914378000249919,0.6592965855251955,-0.4878744329009654,-0.14296568067640458,-0.24237336925581174,0.06448013567931662,-0.35593260630484186,-1.8553311950188627,0.9137040218412698,-0.7056492396026376,-0.27203823218723305,0.5651141685264446,-0.6162740514324093,-0.1941573199601529,-0.11756738294158436,-0.791424230487465,0.5660747726060978,-1.316316381220152,-1.0213644002251352,-0.464907536882239,-0.5725180945074931,0.09799249524396805,0.05553503368457989,0.5204930850464253,-1.0220936652059651,-1.81421750314294,0.04840858271347744,0.31793512202647195,-0.5765866761708354,0.19598808384968056,-0.625000945099046,0.3002457530278122,0.3825086977092251,-0.19622139983129316,0.11187230615567921,-0.8104177096417081,-0.03967384654207609,-0.3500768046366836,-0.25104061883800705,-0.08506108659890106,-1.1343118658466373,0.5939161357927618,-0.22978118149544577,-0.7505666998609152,-0.47776912027033624,-0.060902074327355185,0.21148598661397616,0.3299051036877159,-0.8279503544652953,0.4956822506416822,0.1060479068920135,-0.44651141084264606,-0.7789755056076916,-0.9490022745283992,-0.8977117747540491,0.7806147725610415,-0.8322110046549186,-0.08042209227620992,0.515540965144839,-0.7282237697004932,0.03538039941392519,0.5303054924808136,-0.44968004085946617,-0.3085989240862479,-0.8250279913794781,-0.6782349035991974,-0.5595060263355212,-0.8344210024829212,-0.33252947460854937,0.24590313234667321,0.28660558609832076,0.21124552223168153,0.5462777343649518,-0.9812009121075198,-0.4152852447937144,-0.1571191779522808,-0.07395166732390651,-0.18240982428513708,0.20810853095932758,0.25923030571051126,-0.037464066147520396,-0.36889358264121963,-1.062277078467489,0.4704228751072796,-0.7042986083559405,-0.023789202887103768,-0.2921498573755813,-0.34024920007188225,-0.19150331086846642,-0.27904859648979485,0.6749299276999947,0.9022951402432655,-0.026780301612220666,-0.1957171453041304,0.909304483736482,-0.795824204370407,-1.1346775130546751,0.7446287916021072,0.22768319270402038,0.9638899224341361,-0.9328477744880911,-0.7011554915905214,0.8262207867441256,0.35208701813126075,-0.49455554669211244,0.2057649667466805,-0.7031783074938213,-1.0633342664804544,-0.8936610106030495,-0.7647029950345863,0.43896287579732435,-0.19331367559449744,-0.5104069056469377,0.5593184061963279,-0.9014391782370054,-0.343133619860567,-0.7725172328280038,0.19493550486155783,-0.9828151001815267,0.12153800354581935,-1.345446198986362,-1.0402777587713887,-0.6769392361638212,-0.08025848206032256,-0.044628518811264235,-0.2795142501872581,-0.0660644652218519,-0.8883834278057114,0.17816642261421917,-0.11629790113801763,0.9459832825052985,0.5321235739648781,-0.679013377297398,-0.9720333452269713,-1.6995229153523836,0.060060678522873966,-1.0014712774048615,-0.24570657093881867,0.6433064805864915,-0.3312884406680764,-1.5265959096490602,0.6031485521969402,0.23508353138872423,0.022801884642781208,-0.22463573969885178,0.23540068381595836,-0.1564863522549972,-0.06429374731714715,-0.08532537854515897,0.44506147652145234,-0.2290309937273285,0.43339573544196974,-0.44881330505098654,-0.4169179437803137,-0.042783103831406086,0.5035716408647404,-0.5523486174334629,0.2452992623233492,0.36447736946739295,-0.714095647050161,-0.4439386469101846,-0.9066272867437619,0.3481050748085064,0.24541639238475665,-0.28580978806376306,-0.3625587783169349,0.459482533130443,-0.5614455914401026,-0.15102055029696546,-0.22372196627736846,-0.8534279220857062,0.3656351692773997,-0.6891941994722657,0.5975390082999937,-0.15320494456386383,-0.9472518740368142,0.09567469346522649,-0.7777149009758823,-0.05239729451665789,0.19451889047067286,0.34908651202025703,-0.02597847188294409,-0.165405435177388,0.9294874574025087,-0.16688741336278237,-0.7609241524895006,-0.87226986613914,0.25172185101500505,0.6435045368643956,0.3324939470106213,-0.007469406968996179,-0.6829609274285772,0.6606772282155885,-0.8135891316591618,-0.8585782744194356,-0.05690050364544805,-0.029887505815752658,0.6382940043659082,0.08441240913394255,-0.21414542194650718,-0.7111220081401641,-0.44132534499732173,0.45227597906246764,-0.8681672149344065,-0.8893917168978124,-0.9938957656095563,0.10083225842209691,0.16608765336654155,-0.5526487991117587,0.0033335380504541357,0.15869192344022376,0.843037702125056,0.08238150468261264,-0.06180655178131768,-1.38000041340945,-0.013731958875480062,-0.9523882803145297,0.03334491031300511,-0.785819420580944,0.5439484330647936,-1.0121072798280195,-0.32338885282477253,0.5212063597500106,0.15095943644994866,-0.9573522051239638,0.17809437199520842,0.26125425843195604,-0.4140877070239184,-0.5448379962786835,0.33355313285186106,-0.9067532157165202,-2.094000242396212,-0.7838447815369032,0.7527422995288559,-1.2282219646209416,-1.7738411540603967,-1.1498821660027734,-0.12024264862629765,-0.0691057039929179,-0.8933048931661893,-0.35656921223783505,-0.32381227110242944,-0.7766165942305563,-1.2019153833684653,0.25513218656600134,-1.0829879984564192,-1.1957150531862655,0.08133325632037824,-0.4790438683348738,-0.33248055249266667,-0.847967600461008,-0.22552589847903837,-0.39712853216244415,-0.9204352503239376,-0.15031943073852966,-0.3354245909292082,-0.3354821820698871,-0.2140859740684832,0.1951238707253477,-0.17260284468666914,-0.7601016220595422,-0.7562262491914199,-0.02362332192292844,-1.228462963226891,-0.68062927716329,-1.2120961530960348,0.25142024211277497,-0.7967654469934556,-0.39575665594164433,-0.01060655798920621,-0.07244506556785733,-1.1177209429536492,-0.05837753000358835,0.3502698765867786,0.3528618942690764,-1.0081299593339428,0.5462465094839871,-0.07590662046750828,0.1640907646095621,-1.198707045635733,-0.06959741176901732,-0.27428206070809324,-0.02770777392424557,-0.5884749986838607,0.5041904185258408,0.16977279496713635,0.37636469567186703,0.23957580251846633,-0.9023841119395705,-1.1128053861222922,-1.1282380212846457,-0.9335664198091355,-0.591541919776821,-1.0543127519544917,-0.8148262023947646,-0.46081928712883174,0.061267587357516785,-0.3502393933344698,-0.1282786720974257,0.25466519796328374,0.38705874827351755,-0.675273503878834,0.010943956556358011,-0.2783708974496146,1.0622718912537934,-0.16606807575979052,0.2557729938837463,0.2530170596219006,-0.1866947787132591,-1.1829577438367702,0.16341941603803717,0.14571424353034443,0.3072842771416862,-0.6138642558913359,-0.1691098299241572,-0.02300504562678723,-0.5271399040341934,0.018178384419421843,0.0376074016039366,0.21275127626186463,0.15976636053671273,0.08387129918434406,0.1842140420782616,-0.16940596568841343,0.15654649753314961,-0.8134329092060667,-1.104629126855648,0.1585557456586109,0.28643844668361235,1.1643705359397039,0.36439146318663346,-0.7566364621901785,0.5569004414057308,-0.5061759418470021,0.17770020521985985,-0.9547811150767108,0.13285660164149157,0.2343739435795801,-0.20039411200780513,-1.073164714568453,0.45447607785832206,0.0344555979982467,0.7312944373466559,0.5475620858779899,0.3295457350035636,-0.5352352791940572,-0.7691562090827114,-0.32611906661854584,-0.26018934804278243,-0.39842259021456433,0.1700164545424405,-0.7138334235153058,-0.022030055794260747,-0.8318660173554168,0.3863955393013966,0.07346256632072012,-0.564928263373606,-0.8474620355428945,0.1176026696766572,-0.47119136738884654,-0.7381487228423649,-0.5775367787193018,-1.3282191766037748,0.35083587737536454,-0.9425768967365665,-0.09222453046156544,-0.8082216246498284,-1.0070060563293552,0.07080936847956447,0.03773109128791944,-0.07406752229427145,-0.6160909073195453,-0.47858026398570014,-0.31549028881499336,-0.7493732931339838,0.3973860210949413,0.8519120819660796,0.8690713527874278,-0.31351881724629377,-0.6175274840464045,-0.598903528100594,-0.5655243030657965,0.24140414635771162,0.8555298024220412,-0.11878901249129763,-1.2671272301370973,0.7105293686398392,-0.34248979078060565,-0.16292765787444968,-0.24923876881790183,0.7627848859729672,-0.3398849332704145,0.2262854870181619,0.5695780769337133,-1.050973925999097,-0.6064477514573821,-0.969057446950535,-0.960693788867933,-0.6310451373588645,0.6572439474240306,0.17314914932198833,0.14401619904789228,-0.43642670928452143,-0.5812225256787249,-0.5477471704604437,-0.07231044260143961,-0.1396496649700205,0.3309453484156888,-0.3169571859531313,-1.2328174667863607,-0.8255650252823583,-0.4697979714638785,-1.2311649931698847,-0.6516026798550888,0.5146426479298667,-0.4849320035975511,-0.08954119875690447,0.11922334825166685,0.6435146951501328,-0.5200408879335524,0.37487384763268966,0.4881213063733037,0.7774763642647947,-0.8209589221629171,0.12630981882983452,0.5057216637824097,-0.8504383781628617,0.39817759708659756,0.18219336537826408,-0.008133332069571548,0.8313155202599274,-0.9710702413434834,-1.0434596494760238,-0.16744687056480165,0.4196184325372489,0.04860747686375839,0.15458300083747523,0.5560119599561096,0.45530604227108556,-0.21820858379179459,-0.8400226474845948,0.12281039863386707,-0.6289291693268587,-0.477372727021641,-0.8459865471272526,-0.012627249630313768,-0.007434488083843234,-0.5378879723054211,-0.572426119640113,-0.11676591211391812,0.1580658901762182,0.22398349556330638,-0.17560121851237534,0.20781774879539136,0.4207170763590149,-0.07163531363668689,0.235169773914315,0.4147033463809379,0.8933927699882712,0.14793119735903942,0.6812931433389904,-0.237751590467001,-0.018112959073425087,-0.19517466372148623,-0.137788054627013,0.26370073244105696,0.5898245769582061,0.23950062714129675,-0.6374387482496858,0.07372796227835303,-0.6693888206513385,0.1304165090425964,-0.5431261891896464,0.2668329907689325,-1.0713468660329004,0.7541391696672317,-0.13981354625855094,-0.4182861576659847,0.09594837811535024,-0.4762195697958815,-0.7389388333873701,0.4885518374727937,-0.28553505021747294,0.6142189560294311,-0.8571813119692093,0.4903170025467747,1.0199873802911164,0.8756507857651668,0.4793185212383408,0.09412866560469185,-0.660707832981274,0.021403995639751434,0.40612656490124366,-0.33044119063971383,0.35456928689071693,0.29316270706833025,0.6592930922220498,-0.6407114072438855,-0.15569678786066027,-1.2788557869277057,-0.497569203999823,-0.5881717358931793,0.20181117275617863,-1.2190630220565266,0.913293706824457,0.1686147722981421,0.5559903022262883,-0.9599657325526563,0.13294680125563052,0.9870635334609118,-0.06112899576729441,-0.37373223088518476,0.756721390111712,-0.1738935519971757,-0.2981264886693453,0.6171766620719012,0.625115715860924,0.07761978616150063,0.7003776959833089,-1.1779917346014002,0.8319893704676485,-0.6897168211350971,0.7819728113003543,0.5708560323251561,-0.3988009533233599,-0.7135997434960011,-0.39500055315055455,0.2058171944400146,0.6068160182194227,-0.5312136568737311,-1.068887285113625,-0.5232789376388752,-0.8990573010884508,-1.1148639694897318,-0.21034476376141817,0.4241019913813471,0.8215919211347414,0.31820272536141436,-0.6306853929592618,-0.14632494825722284,-0.6572547086114829,0.5490390968879746,-0.6387670894297477,0.7521605968889394,0.32313877518293066,0.4685320298105218,-0.04627095423560771,-1.046258473533405,-0.16693762360210576,-0.9911627444982667,-0.46361027899920254,0.1480253405060806,-0.9480443199854987,-1.0833832373957093,0.4415531744032683,0.5707612352219835,0.6969916164964745,-0.5788014322244482,-0.41588415382812866,-0.8952811635437194,-0.03197510144258481,0.6778636562976588,-0.06545105032021051,-0.24542995356227584,0.32227454844211323,0.9597773349970724,0.8795758643452608,-0.03147796724663874,0.3133852664714723,-0.9624326519866537,-0.6890969701881063,0.6235925692645816,-0.92353993239274,0.6961461572910744,-0.4177587537906373,0.3764576525509033,-0.9771056612313471,-0.3558483973218677,-0.30890471579406553,-0.4766095578665704,0.17097596953301167,0.08232267312715598,0.6136972964018125,-0.0017419516032408818,0.7568029687079585,-0.14088010229327483,-0.43608131544546186,-0.858592284577291,0.38319572525809925,-1.3648572034448838,-0.9006236436624787,-0.25908945176118203,-0.45755297367390624,0.6281635808144027,0.268697016036726,-1.230283125991682,-0.23706659445612943,-1.236972188127076,-1.0501144350736105,-0.5323498025436756,0.26628723439094754,0.9755249150741527,-0.680657804990711,0.2476031400234248,0.19108254585133186,0.2911317823464984,-0.8034520052688525,0.2362490930225722,-0.9892850754156051,-0.9171039984037702,-0.42941801638555754,-0.07480361477764125,0.06364083050478825,0.36192582419144953,-0.28984117317999514,-0.6117067306241334,1.043147709216358,-0.2502434589803287,0.5042897886481859,-0.3537623193940772,-0.38787731769526546,-0.10037144324183411,0.27439132299850577,-0.05702295765667991,-0.547190870266798,-0.6594791367446603,0.4928135921843037,0.3404107308639598,-1.0109676916515553,0.9831464415869967,-0.5579579795099636,-0.14153415408347936,-0.10901637298641743,-1.1778203115804087,0.2576881429415165,-0.5763018619526994,0.7652613504865021,-0.8359687545594053,-0.0644244626857817,0.15039048459513255,0.39906918685525994,-0.07445442746878084,-0.034848874814453236,0.35250301007105306,0.10062154046783374,-0.544204673636601,-0.47073344626267516,-0.45355113514532336,0.5190791312121545,0.16009240323878643,0.7427258105570831,0.5639273300499785,0.6016873888639792,0.029833634388610298,-0.17249884583614392,0.38584581047533745,0.1854277735839018,-0.08170186438910443,-0.8462256237863791,0.6033640215839711,0.23989921022253552,0.8233529262964504,-1.1789344206685,-0.0865266756997257,-0.38760986017893634,-0.1281649792772665,-0.5053226002681555,0.458036239796979,0.211336680862324,-0.7864177821856075,0.44080756953022704,-1.186591189546403,-0.002108124784877696,0.1709483228813804,-0.3005294102717294,0.5692970474079493,0.21036764289187984,-0.7594345000586428,-0.14076896306346856,0.8905912270743946,0.7305329401662932,0.10922087336750759,-0.18462951431453659,-0.7376376315855221,0.20969378996584642,-0.034215145079118305,0.3758139831089186,-0.1525143425421381,0.16007239507481197,0.424708961476661,-0.9200990177480468,0.44896543002243483,0.1037393762844684,-0.298042485952352,-1.0680959641967933,-0.07679149901523924,-0.20386367807910852,-0.5722321285840205,0.05586209103435356,1.09314257009987,0.2826806470071359,0.011336255803837854,0.11906217757509481,0.5613843546276777,-0.8102274558695897,0.6460840202009245,0.5338111182795291,-0.9713912520690958,-0.3556129589306033,-0.5136212406602457,-0.2370886330353697,-0.8030880832796871,-0.3202724626371752,-1.047015150449254,0.7585259713770781,-1.5183289684960741,-0.3717637256413103,-0.5943104736601283,-0.5955893114503356,0.1836347953625846,0.3279333192723763,-0.7321043557118004,0.2976809205914314,0.13649562681593727,-0.7661034957908599,-0.27682704409231484,0.4816286902659585,0.4649082004832014,0.733242856541356,-0.38645139791205296,-0.6165503320090395,-0.4575037328604136,-0.06965972820108188,0.04747567111451391,0.7323368335972732,-0.3975879595502015,0.3422561505119894,-0.7937026765062073,-0.627354415850584,1.0264326690532903,-0.6952549252647705,-0.8300449799048537,0.19851980807831518,-0.6960409683925721,0.3686074315040984,-0.2733257468831137,-0.8165274381374095,-0.22164923505087875,-0.37623389435654586,-0.12208345046972838,-0.0051760886078589825,-0.6335953107643549,-0.2174923195189268,-0.680378159721906,0.20221282287887735,0.3986054781732641,0.2257979865346572,-0.6830773995534003,0.38918730378825694,-0.05140662295778028,0.421670630898456,-0.8492099654862563,-0.6658272523682695,-0.7258842606418272,-0.6656786461910407,-0.0032466187613925464,-0.6100526033030336,-1.5015429044675124,-0.6320861263899484,0.42613534563651867,-0.5495340910451147,-0.6889172364183671,-0.38513869940292733,0.47900277887881143,-0.13022721777049126,-0.5846006283833904,-0.40673186399993855,0.08182377172807954,-0.1097885739921387,0.49921765012681224,-0.25192018850382186,-1.0857979362540255,0.3513705560435522,-1.3041573180678987,-0.3904975647284058,-1.2258109155626393,-0.45894499893458923,-0.4662701760930695,-1.5260571865807717,0.8504686137025639,-0.15916349424025864,0.6962590215933003,0.15390966544689022,-0.18760820736243522,-0.6374596246175617,0.8872758775746562,0.2883414612584764,0.6022842101324578,1.0366984002427342,-0.6562169555308982,0.7426348403173135,0.5947347665725586,-0.06725593700812504,-0.5980801030863478,-0.5232834578160741,0.39971571873260964,-0.7897189445032732,0.3419305293977282,-0.8612548936619694,-0.9254416283753717,0.4408973595916686,0.3824872406661692,0.4198995971792106,-0.2891453014173576,-0.7571789028232597,0.5351032743145516,-0.7723998005456151,-0.0915281650932955,0.40775005429221917,-0.2681347823395242,-0.3605842689369524,-0.37846158080082204,0.9339885395973463,0.6071802902080504,-0.6303965995222335,0.6722103058773383,-0.11167945027694884,0.5949581320072691,-0.6598438646763762,-0.4157589802120763,-0.17304033144316341,0.32443387200377566,0.6123417179503297,0.04392505510916604,-0.6060928648167812,0.5689798555824807,0.5555547918031969,0.7518151358982735,-0.8307165598087507,-0.8536044822347415,-0.20986669667570323,-0.34226817035516655,-0.5829035360070384,0.40217636888220404,0.7507932457883543,-0.16488125752003122,-0.9260960366015768,0.342711969611977,-0.12517900358303563,0.3478915556184686,-0.8559643066247422,-0.8052960187544471,-0.864676433625092,-0.35189307030638795,-0.24583063752266426,0.5934934079378427,-0.9101137376054739,-0.34716679409720846,-0.8974046677981902,0.6156836655566865,-0.5870630449343367,0.24789474720001764,0.30862385775714,0.3759539057602514,0.24291184042855618,0.6742758654021643,1.0188147678517039,-0.07333626966764027,-0.42743774726724676,0.4017427773185249,-0.2570068174766399,-0.41268755352135217,-0.592944005358323,0.08075766137079403,-1.1962475792063816,-0.08361539540788915,-0.17102259699097544,-0.9172664020031831,0.11337722563875759,-0.22086783299588947,0.19574949870652703,0.49565060195971755,-0.2659015413589222,0.1517306219105682,0.03579418225161005,-0.6823705625965818,-0.841804945953612,0.009692881850115154,0.14085452526464137,-0.2044099114259676,0.8284661677496498,0.30856534783407347,0.4733001993045977,0.4488562046947517,-0.4214695113334973,-0.49893424808289843,-0.29412748595898247,-0.6774423230615337,-0.5690747972045205,-0.8865300047652492,-0.7135168984925965,-0.23489054893391978,0.5364503215036601,0.324388619627835,-0.3173312280897813,0.10536558396651961,-1.1033386495008974,-0.5562621944270854,0.6515521735461591,0.10475095388917399,-1.0005748779544739,0.010399916963543112,-0.46573992838037115,-0.5668420330871198,-0.7422991218664994,-0.5167771867311239,-0.25831693897009705,0.10183759061246989,0.11893331053427791,0.06632893908841112,-0.1519540344810826,0.4796983555536185,-0.9799410995589494,-0.0831098340179238,-0.07639533282940422,0.6761472545538548,-0.11071873437469854,0.6487931092045316,0.7355563399589932,0.7292777125007539,-0.922619128756893,0.7304086942638528,0.038469449591247935,0.6653722986280771,0.3666627353243988,-0.23673288876138215,-0.008816654049448815,-0.8779737949435554,0.1377368709184832,0.8767413103734528,-0.8344516891844266,-0.40679132413283214,0.5479662957989355,0.28866120082090585,-0.21628030256046735,-0.409228586721816,0.046382104549377266,-0.5693647331443329,0.5972774010277282,0.18961102415074832,0.3930402309351408,-0.2867143948972887,-1.000176821092376,-0.888083608655715,0.5716875877242633,-1.5190083146610251,-0.7019152696408527,-0.9690583331716628,-0.5045798335598904,0.42511598303837567,-0.5385145739512639,-0.32953745012593744,0.2234428893075514,-0.47808623133944633,-0.7846202477127562,0.397660557268125,-0.01110092563329041,0.031126850919929883,-0.2771809966888051,0.3781315331517237,-0.6393431126242979,0.5288976372186597,-0.7297886791218772,-0.48932972293231725,0.9864365025349039,-0.14791586307109997,0.6324467329117399,0.02195925019214337,-0.8543993506242341,-0.7653464393694281,-0.7381862388261701,-0.922107075890437,0.539022474727857,-0.4154451473035983,-0.10211860416412845,0.42929661761876775,0.2828705779866655,-0.2574756139640268,-0.4850829622223123,-1.059744639213821,0.41485667562704,0.637514689290357,-0.5292625548843928,0.2140732918050615,0.46903020490069586,-0.21806541694624598,0.4147640826938451,-0.8474099104167022,-0.05991810921969338,0.3901699689558582,-0.26592130923281415,-1.061557721432197,0.9152144894948715,-0.8593988474374247,-1.639793149403742,-0.6615880593496929,0.02651262422952035,-0.07886219070314676,-0.31623983147233986,-0.7273933907559278,0.9459345175941181,-1.1863716948227232,-0.1752430106022768,0.48773962310457014,0.46055977115647617,0.0836545078993494,-0.10209146276851554,0.30141874745883995,-0.20637352261371855,-0.31915475833258444,0.5902824322537698,0.1589615962154881,-0.12447101478961281,0.08830213764965608,-0.19694127581335918,-0.22576769836129762,-0.6685459194097512,-1.0306160963052824,0.1371266223996269,0.28606905233022933,0.01701561961965637,0.12668661007451476,0.8009283248321815,0.3180389297896514,0.4267025421645692,-0.44146985030620395,0.09198867328865354,-0.7254674508919697,-0.597723243063141,0.38767183003745925,-0.7958260906315638,-0.7409283782557419,-0.24811102342949187,0.563264980035472,-0.4678923564010894,-0.8088381205883508,0.28637577303176825,0.06569250982401376,-0.10889543710090865,0.22997320995339884,0.30498567833104806,-0.1010288296442231,-0.8108898161167338,0.23863132925771666,-0.83746002562049,-0.7600981063091297,0.45208210057408055,0.4948415976294715,0.3594612320301055,0.10803683515910945,-0.05059991092158552,0.33040320419381153,-0.9742611530541373,0.6358168609033833,-0.930526419679517,-0.8345552738022819,-1.0675771599167152,0.09915103389170353,0.7851483206839596,-0.7366043053791543,-0.8169993249081409,-1.0250013791235266,-0.6928274537989764,-0.29121551228982623,-1.050469690276961,-0.17796506162751874,-0.3727821513673083,-0.6471609685660273,-0.7674164036806521,-0.12002308191805715,-0.2416898032864316,-0.02349209439958198,0.8304110321084657,-0.6804018038698296,-0.0911600781108897,-0.7447965326749156,-0.22528257027474577,-0.1878052431128898,-1.274509298636902,0.4435900622166551,-0.7702414801765854,0.08172549550599963,-0.411875168487641,0.10883981928899422,0.5745035666682471,-0.8615912844168369,0.2109620348881768,-1.6319402232835516,0.2984098551243611,-0.8415899355002929,0.07459738999024346,0.04869852627753944,-0.49425736098526,-0.7070009006973137,-1.3935846060755892,-0.9677564451933603,0.17205343337959586,-1.0006854596696981,-1.3347535255839516,0.049624200321683624,0.39856666420926384,-0.24970180271040582,0.10543006843711795,-0.46330503401971906,-0.3681854041309611,0.33018883194907167,-0.14964440463260734,0.954062788719052,0.5933636123198978,-1.211590755767641,-0.28744485758803073,-0.41442382459069244,0.6196758242813607,-0.618608006352221,0.13533373371219673,-0.17215158163684183,0.08768618511205996,-1.0924923062181187,0.08839412995459262,-0.900131902921805,0.4608475471326956,0.06960504543612267,-0.15728554592297161,-0.7794942054790942,-1.4791670868380768,-0.6884557862256019,-0.852898092301202,-0.3485759169885313,-0.569911796298536,-0.8554622994710022,-0.48333707943492943,0.5031788198134456,0.27368438059099115,-0.23109413798219325,-0.22035390224345205,-0.7918252054952482,0.26805769598983487,-0.49319387225925637,-0.3228367082026037,-0.5845615421407349,0.20797982487238784,0.22574345093609788,0.5468247864910813,0.5673866422905348,-0.32856960891729925,0.23348218189399977,0.3160608764290981,-0.7827527503592155,0.20808694090517296,0.34376889744489425,0.1421973066197823,-0.8159226078979277,0.018420997785356916,-0.006805896897206572,-0.43689377867816465,0.4087584182979984,-0.44836414727322255,-0.5266371599001334,0.21447432231553906,-0.006140751302515443,0.46400426519004884,-0.3779162327085703,-0.2106503431776498,-0.36841762339455525,0.2084535667230847,-0.537524770836762,-0.30333882175158994,0.08959471906883454,-0.1581078554772855,-1.0079837693901461,-0.6524322460423643,-0.671422121676628,-0.11556813688178941,-0.3818530418493433,0.20665222253089352,0.30633006198398816,0.39848719245156117,0.7325297082577077,-0.9305719618423971,-0.4370286798063389,-0.013677166256093406,-1.5751205708061258,-0.755569888083913,-0.8039498912109496,-0.8707709295381485,0.3672135645192671,-0.4971708204656363,-1.088885161007855,-0.3051100523431208,-0.5774277752257296,0.1254434646522953,-0.9668364261244217,-0.10369770327845296,-0.3369490663994188,0.16260899466034653,-0.5037800132289247,-0.005526874639528084,-0.09652089687242638,0.057803514247028176,-0.03680542691574649,-0.09926383127851274,-0.45491731728428275,0.03316715415228157,-0.6888603750328782,0.7022467970951835,0.24622055586868777,0.7013237699297407,-0.8126140067337232,0.6799356897701561,-0.46654773027821667,0.19349082545549992,-0.421506517960011,-1.1437657575569191,-0.3275450368136941,-0.47549832800475944,-0.32912964061586497,-0.7252791942699669,-0.7843491344254699,-0.7894264799312016,-0.9769604313134527,-1.0894441996595396,-0.8029024015812051,-1.7368204315547564,-0.02110144768885563,-0.2959231447731998,0.7591332710158899,-0.22299950961465262,-0.6877431549839453,0.007507756192280992,0.1790111230326224,-0.3828406136374627,0.6651668825912402,0.6495438421762515,-0.8535130389863874,-0.052849185530096175,-0.08969095765405521,-0.33131263901410635,0.45263984322722345,0.17571766804217404,0.9266531391844389,0.16218465400271123,-0.37004374299233345,0.5946041685718119,-0.3563593127784676,-0.2871802648633727,-0.07292761581541364,-0.004903430176035086,0.6415808314586372,0.8212042806084956,-0.33456664003314596,-0.2166987553423003,0.27732252399272345,-0.749214417486745,-1.015156622684268,0.25122261273436675,-1.3684325060439657,-0.8671735075881403,-1.2262286905708755,0.8376879004154818,-0.003604626247148665,-1.318526263921731,-0.6846164933346868,-0.08229943331967687,0.5137720872660031,-0.07417641999659254,0.17257861668594576,-0.37191711135572547,0.712849114695857,-0.6859019671113523,0.45005046996791126,-0.6801626929196597,0.8088664667261266,0.26779139544936653,0.04882576247225281,-0.12468257679252376,-0.5580665019897774,-0.06694306713403252,0.3727949797259311,-0.6150073508648346,0.20368271449566283,0.8618249492833214,-0.3681126765977546,-1.1045423411806738,0.6403854610302925,-0.8180930200649238,0.07180034801941346,-0.21448241753536737,-0.404405754757518,-0.6249203252280374,0.1409594387066144,-0.4388738304827118,-0.8108640213096405,0.10219775213180046,-0.9181362832675233,0.4460229202153859,0.5233850422728903,0.686072587479134,-0.351922383495199,-0.5295372787959021,-0.6045035105551246,0.12917454387300908,0.2828662269668164,-0.07550438786681118,-0.4354646788462353,-0.4507207161478694,0.26537037335681607,-0.8368258804221704,0.45330977271251277,-0.20689502062357662,0.6015178173262917,-0.7026455325639742,0.06558600469587135,0.20068348868356212,-0.703629739361112,-0.06673648788812775,0.6724620139209415,-0.930746484788647,-0.27651632893655026,-0.3320454095372652,-0.9043996415411854,-0.9047083658245908,-0.39798748063099076,-0.4749180374303305,0.5381957302883514,0.07312692748811261,0.4594573946307155,-0.10036745640173331,-0.5500161012415122,-0.26411099804227073,0.34233995141808987,0.6377066937537262,0.662492931735531,-0.24873729504478478,0.10657746407485888,0.80434907846913,0.38400650664517777,0.5449592036099263,-0.4739826682352857,-0.22724179884030862,-0.7474846468085423,-0.9452017806476947,-0.9956367598790721,0.38113248510235725,-0.471480662884932,0.2904574772264145,0.7345280828789814,0.6853912990663081,0.12835029978940013,0.8489786419896381,-0.48108479955008376,0.7091620495871266,0.1217048455225022,-0.31910047183483886,-0.5330089764837542,0.7182731087982303,0.553788706675167,0.20853107025998122,0.7239709103581575,0.9266752028144862,-0.7161046422829165,0.1895072957623328,-0.029303711945721254,-1.009444806001121,-0.5034356421348799,-0.37132933865788087,-0.8532338642173681,0.14415166723443545,0.6900460309113238,-0.466371032355161,0.1793801330147815,-0.5289415465286817,0.5616619651584145,-1.3387709661119715,0.2060751183422857,-0.43569720166916215,-0.04136523675076173,0.7710452029530176,-0.6949232347008384,-0.33776422254045296,0.45662558381698426,-0.9873865652010337,0.08862244807461533,-0.3915433016165086,-0.7156387098945818,-0.7361570045990748,0.4420043598913782,0.3735921682526474,-0.04528809438882457,0.06131629797957492,0.08177565625694773,-0.17487895390815675,0.7224917275074547,0.1263020476366086,0.789262177964587,0.01729700217450016,0.31724227132347266,0.4840458761741407,1.0076463778304194,-0.3625005650058153,0.3107934392127478,-0.4680141542030846,-0.8069140712227684,0.5840859702976012,-0.03145914608426489,-0.06240476735058198,-0.7988393122828986,-0.804188373418374,0.7174011835330174,0.1563081977683037,-0.27772689718403376,-0.7881749712253495,-0.56995848514462,0.706029560127131,0.94512405804216,-0.12925491820542948,-0.6645112664155651,-0.07416211523613049,-0.24325660494658932,-0.13218657600336678,0.08029667629324623,-0.9434256864033026,-0.515114747803194,0.02170853292112744,0.5679780141579123,0.6826553545647993,0.48393049554502965,0.1338045055852726,0.11542637003086806,-0.4010427247408406,-0.832452660550886,-0.22157002824171743,-0.07370478497358852,-0.29467137423807777,-0.797691084726298,0.28384475709658,-0.9041690661869788,-0.8312837818751042,0.30529102255806795,-0.7154284330355558,-0.4687835559019908,0.5284086156143276,-0.16240551819973278,-0.6308869918590986,0.40855997031410185,-0.1527886645826009,0.22142234270579442,0.7515621690571884,0.39853139957803235,-0.8066390692339385,0.0312165553200326,-0.3950418601681147,-0.5343473585212022,-0.7477729881804942,-0.8935699638192921,0.7980028118321143,0.6108616891179677,-0.09470932578530118,-0.5055750567341644,-0.5601218824912119,-0.7406544139874923,0.5946480722333094,-1.0410190200537783,-0.43174820054152374,-0.7534822036179717,0.32014726306727337,0.3372022315416916,0.27290093465536347,-0.493154300019352,0.4304523980041088,-0.4775610272576817,0.007585388120212357,-0.33383347270622377,0.2874847179893841,-0.9017925101596399,0.31691559567178434,-1.019034884556374,0.04126587519630351,-1.092249693101453,0.46835531818619386,-0.8853561240233964,0.5125686902848415,0.4844147081628904,-0.3189844754390936,0.4182534007043849,-0.8477107238503306,-2.04146246293576,-0.41430873266203166,1.0054057470801465,0.6486173383469575,-1.3398898315869072,-0.5714426588400026,-0.5319557647872344,0.45232719067861155,-0.8356150968375701,-1.1586196559839823,-0.8512600733268387,-0.1315339909776346,-0.3334698636481578,-0.6101509501077638,-0.09952069555451955,-1.1874637655523776,0.3570781241224453,0.4019277725529237,-0.3841543310722,-0.9225180044245201,-0.005466933089723876,0.5258968387054723,-0.539693339605943,-0.367929393788184,0.08369683198901931,-0.9449698993920478,-1.0815899649382568,-0.21710846979590345,0.1352465857910936,0.27984109079992436,-0.2663154260145663,0.7326281158600007,-0.7877211620435363,-0.9358696091931095,0.4090502878299021,-0.66955503984456,-0.262265712358839,0.5788759884008957,0.10967538584437499,-0.8857308839137515,-1.1960886410008893,0.10715146162978006,-0.0662708810261584,0.12289371556181827,-0.0020856438556285024,-0.6604064835681099,-0.7280816910950783,-0.0779728889486372,-0.7685982168956808,-0.40962181264509684,-0.09131090945059643,-0.996429491823212,0.5024352591138189,0.3960526872775526,-0.06752289350906195,-0.5147522329922889,0.421487898049815,-0.017240184545097577,-1.199234933261036,-0.6289607343644644,0.13213453056358285,0.5780736354114391,0.9444841605114178,-0.48952768007994757,0.016603193389606984,0.3357096183947028,0.7036544623909702,1.1708767519701664,-0.6582364483340675,-0.1243965110532023,-0.18811041491872352,0.51992890030663,-0.37038023441330864,-0.5699637140631355,-0.24592115204508913,0.23387169298384833,0.5536084575889082,-0.47746786639470146,0.7231364806329781,0.19022813712319925,0.31625688900314447,-0.3894231249805607,-0.005608068456182019,0.21684554697342984,0.2506541730473671,0.592644138804993,-0.0024504128925514844,0.23823371944966057,-0.6504982826964849,-0.8066942989708341,-0.3207353841277597,0.5170786850163228,-0.9806697944025747,0.12576553727250936,0.5356220220596634,-0.1794856190177761,-0.7035086793320471,-1.139479100403823,0.05895546637891168,0.7188235447457193,0.9044787712692732,-0.9210345800066037,-1.3252562499538436,0.6610399526895114,-1.3220311031387464,-0.792855490041875,-0.31675523741057793,-0.7287711693336073,0.9333915726031092,-0.45511324156427974,-0.2006846519109,0.33741388848007187,0.4549218845545202,0.5214362927626722,-0.35964774395713306,0.06936195395123365,-1.0130149374778896,-1.2105848411047635,-0.4283323823764994,-0.48690611794207045,0.35523306583787173,-0.09851201224269276,0.3390291867082412,0.25437476976178436,0.3038146898140271,-0.5618029447851793,0.7256277456249837,-0.7940330586851856,0.24655800026064925,-0.08834985391529425,0.2635393595219253,0.29363690654130603,-0.5092714453760485,-0.8480876637505967,-0.021753475722562636,0.6328214947663588,-0.8043265947278843,-0.5329569859052432,0.3024086599806267,-1.0899517500665599,0.6392953901260905,-0.44878077170787345,0.4413244070299465,-1.0865215240205863,0.37646632691285936,-0.5521772466000988,-0.9521101219868752,-0.5628532740421083,-0.227725858679459,-0.49684979345986047,0.4940418654593005,0.6018552653389064,0.5411039330647286,0.6738451484026453,-0.7251434435610837,-0.7661990914875221,-0.27043742864314807,0.1653055854296638,-0.06976927246121511,-0.1338301653618473,0.33784094417487326,-0.7184477681805544,-0.08551893017425705,-0.5913727422425283,0.040839490065870135,-0.06670659774756989,-0.1374393101414112,0.03574867449071991,-0.7078322213598022,-0.6932194315412296,0.36072188196637506,-0.8539515946119813,0.7708595350388445,0.33566670295924916,-0.714467634057038,0.2675165875121189,-0.3853292227801959,-0.8427779364910651,0.5099711434507326,-0.5108075179899271,0.7887092015731777,-0.35803986533402204,-1.0032275760719291,-0.03274498785652419,0.246503799583872,0.17086478313524087,0.6441840653661005,-0.4677548794788982,-0.7468103795346048,-0.8312322258459955,-0.2894477132072276,-0.4165511108380761,0.05540635330325207,0.783057394585633,0.44543472163207887,0.3990908552835036,0.9422216917480336,0.6511359522362709,-0.001053994030505517,0.34284298716628314,-0.6817816259684825,0.34911821255803344,0.06748567995905437,0.7547948278734367,-0.26214846135893116,-0.4877149210241693,0.12101000029919307,0.08140479229756642,0.6089150998409714,-0.671994313164596,-0.5284275531158689,-0.6069759908838398,-0.14024454857857457,0.9017280308361526,-0.7665715059113601,-0.7803397198212527,-1.1023559862366585,0.4783497266676237,0.7507190785193332,-0.8439004155568549,-0.6775261711235365,0.7443322591578703,-0.15047482265173792,-0.055942698107253115,0.6664680333780266,0.05408528096765603,-0.4749341099884561,0.7828912262051488,0.4491441759671402,-0.6117962119673197,-0.2843295852155992,0.6262815710741854,0.31108408198403514,-0.32762722922941656,-0.4763487814383322,0.7561008334686562,-1.2120365775141921,0.9193856768470967,0.2652935323008524,0.9604910257371819,0.32127380612928474,-0.21552525232832212,1.237346573106842,0.4061540792996072,0.14854939516554017,-0.44479290791329834,-0.259512020605124,0.3312750296444652,-0.40980915560370373,0.12139564878286715,-0.011125288649403547,-0.5526351162704382,-0.1718386318270426,-1.2183866146150995,-0.6685105057808581,-0.10278012016102847,-0.7577002832355224,0.5012389757639211,2.475821996898318E-4,-0.24493162517232434,0.539573750844359,-0.6963515356796318,-0.16583820273405098,-0.6017957704921924,0.5732995269228452,-0.5791781012886168,-0.07616647639222493,-0.16427810125493825,-0.8542384092523534,0.3177488812076914,0.691994507538054,0.5374003630599409,0.4761894203430888,-0.6702000676516356,-0.3214438098978981,-0.695573490528132,-0.6557641591812946,-0.5625504306554922,-1.0260872059222883,0.33314947531988476,-1.0676661748431526,0.41986562965397056,-0.4668777916789958,0.8074752661618934,-0.0647624441393214,0.254186228862852,0.9287673181113961,-0.37327822923690734,-0.7248051732685722,0.36987653923536284,-0.8296242467954221,0.4998060273308319,5.347751941463587E-4,-0.9155557439477584,-0.2531721635391122,-0.51553201862784,-0.8625763255843903,-0.03309531549261559,-0.0706789533774426,-0.59081343584685,0.3104599893137517,-0.9887140248036171,0.4142498521924366,-0.26421503040648353,0.4654664882894855,-0.12953015278757796,-0.13820689069451023,-0.34749060700275575,0.3285510652441015,-0.5519899700875854,-0.32713880924492056,0.17569448948375735,-0.5352081857128849,-0.6535640549590482,-1.0877014905778475,0.06880152494445507,0.5820869508411781,-0.5672370662696944,-0.00529468792317534,-0.1266265761358069,-0.35695353421048825,0.09417410926173962,-0.752362024927023,-0.6742887878719376,0.641210740880026,-0.3363517983078745,-0.41882238861411536,0.9986529462480088,-0.9546158857344662,-0.8443458562917189,-0.8739836049621917,0.6900351205985599,-0.7065562370967776,0.8026893838176118,-0.30839216695821825,-0.3077653911220034,0.23029069792984683,0.033505011621977394,-0.0296128501514827,-0.1846212446997866,-1.0861365575648152,0.3656795207010546,0.6414118623571429,-0.4377795240679154,0.10854441408247345,0.5362891159510802,-0.5303978678283481,0.4821093640976476,-0.6685624037247667,-0.6732416333584518,-0.7376993365850398,-0.01427708630743808,0.18995981896936787,-0.20581705437358067,0.022527761831599494,0.4508514642907591,0.778314614321389,0.5590597684194094,-0.031090742390171493,0.5229840352109036,-0.9188104000121065,-0.9019242779949547,0.5469179609372666,0.4668103232591804,-0.07638468051071791,0.5527280232793149,0.28852460593837626,-0.0012313806299372482,-0.23453107448444796,-0.9078945589327578,0.6936333720656136,-0.17574002036291872,-0.09725161041922607,0.6872993108860957,0.7186942876669518,0.13213837865737013,0.8098092976325769,-0.7099293600687919,-0.8564646158136984,0.6789732315499905,0.7935836218433291,0.8148025523832937,-0.7639490166063452,-0.5135280530513733,-0.7563868814806791,0.1286552386486697,-0.692772183701569,0.06789718127775923,0.7946656130306269,-1.356102697224124,-0.16301205532778,0.48287470685104245,0.629408429383386,-0.6730099816922295,0.5962517829029017,0.4774144549061329,0.15384203408614872,0.057455530614028194,0.3157471547973393,-0.36827073647386943,-0.24110273954702607,-0.7304220630092116,-1.5343767913970634,-0.5981440711207505,0.17716879640155087,0.9047279874558227,-0.46233172746545526,-0.3079726445738784,-0.8674513241328858,0.11068158327298959,0.42249483660562615,0.04974069746215398,0.4783953275128424,0.10233751861958588,-1.425288172338065,-0.16421523743837746,0.6823922536002958,-0.6278003079083614,-0.16616875507303447,1.1378606086452494,0.8524580936813151,0.03379491942758817,-0.4713287972614528,0.8437780962572365,0.1962859344545753,-0.4713196130431673,-0.21757761335515585,0.04573718654985029,-0.7963917004822172,0.4128033048364891,0.21431409126689108,-0.427913889136378,0.06764047613643359,0.2291359208236461,0.2574571966799518,-0.38721586101802175,0.03901604662601712,0.288608847120931,0.7786520350783133,-0.4819771641802639,-0.8333685169689437,-0.02334014499279444,1.2244523492736832,-0.5524085681284795,0.7133810530640115,-0.07160997797385164,-0.40370833681610835,0.47610166578916246,0.0672101328141648,0.02252424469436189,-0.3756105024912483,-0.8644112476119129,0.5482087484053434,0.6175884045499922,-0.9039143464788717,0.222267234607707,0.5812463562008944,0.687979719249333,-0.16889167354535992,-1.016857174544543,-0.11607223306556386,-0.5518229657296216,-0.33121018966728993,0.1768353115306062,-0.35123689980139056,0.8464216391081123,0.1995916944591683,-0.16109929037948215,-0.5426528973451351,-0.30545717851519455,-0.1792496201559177,-0.13753999616883694,0.5750507130159654,-0.6381648886227168,-0.3951556787091515,0.3898590188770861,-0.7780125001640702,-0.41678604907437405,-0.3272169057169409,0.6801096297598762,1.0372049684680327,-0.32171036817815984,0.26933511082146094,0.49364164354140727,0.7681291327914052,-0.7251313771535205,-0.13457989947793564,-0.8421870495661251,0.6250444035565776,0.14576098215300298,-0.2999735891948907,-0.3641976120490883,0.6204080980018123,-0.6885943665338264,-0.43325841363808654,-0.4867505511021651,0.4529881597218007,-1.036457755760084,0.5144951959267394,0.20160829051857698,-0.8007033795307877,0.16173326619343187,-0.14369791820441485,-0.23102863335136223,-1.128261744747218,-0.020433796326445024,-0.26379378423632915,-0.3951064832497826,-0.634385048735096,-1.3380065353683541,-0.5520737404463801,-0.2041068788720938,-0.4078358758836289,0.027092237720773713,-0.15695826171074603,-0.1866962755005405,0.78067487380277,-0.17843512022891017,1.0280878684165407,-1.1434351592494962,0.3935310483532174,0.11811184724427902,0.3266504249531383,-0.6841394216213837,0.08903657833350528,0.2944213228391555,0.4594170472174208,0.6318047013941145,-0.7900561807626246,0.6773541822495719,-0.42506969917333653,-0.3155845854029671,0.8682276282770701,-1.4926016906035249E-4,-0.462795887128864,0.850330818652069,-0.0971682598325462,-1.108707819158336,0.38540581291135095,0.3796283183204242,-0.018776618107568727,-0.17483699411656592,-0.8037684137332455,0.2279421925979557,-0.5621903164756576,-0.22431738750080898,-0.5097827093523065,1.3274682325026017,-0.5076215844553894,-0.3011931887796421,-0.3883661067771811,0.9306092830688304,-0.33808377729409306,0.5547651975576748,0.44553871213016966,-0.6123187948810278,-0.4175732358514202,-0.934240664947888,-0.11492842695952238,-0.16895801533307328,0.2600395976107016,-0.8129093089236188,-0.2901210749694806,0.7160830934346538,-0.20497433512325347,0.6092583899665883,0.015504024573894569,-0.16561087457130363,0.043951548597127,-0.6352312690309029,0.3923688445295596,0.2815160484547425,-0.5889673535348701,-0.6199460341662448,0.10129748327985588,-0.6406386120685837,0.19836518491699362,0.0837266776097887,-0.8963196654096897,0.716159603601884,-0.34027964713176445,-0.591582908143605,-0.006610027904910207,-0.36064492642581686,-0.10604518031207495,0.24255406055759673,0.49340424825467544,-0.17984502465108917,0.3250872142786542,0.11739841637581833,-0.46108656629106853,-0.35154880372079994,-0.7149376997256219,0.07566117480515318,-0.32720862633273134,-0.9540581450964004,0.2331250205259671,-0.811162199588748,0.8608066018184203,0.42250075560670136,0.0515511268881761,0.7963031955837254,-0.18670309305450852,-0.47508616181634583,-0.9895680233827475,-0.740305938548337,0.15934247178525426,0.6668095505739177,-0.20428525583224302,-0.7572022559998175,0.3335493437948694,0.3726961248447266,-0.8447578135815016,-0.48797615733343835,0.6803243816712147,-0.5243585933929239,0.7083725121107461,0.6394656450424939,-0.23859029868305512,0.33647671774739446,-0.6976779919203359,-0.5039004849082619,0.4865846741677645,0.8021885094292575,-0.4719430261009856,-0.39844231451582107,1.1719835720685134,0.8676496071799787,-0.14858997142851962,-0.08127233345810901,-0.6564261393126015,-0.36345942023509104,0.5743776583809632,-0.5442991699257501,0.4453605460138546,0.041440864882385464,0.49851491900182043,-0.008823252392479292,-0.10567716093990033,0.16759185920555533,-0.3917468556962564,0.8534254443894349,0.24568496789811864,1.0320410333581709,0.1605379173380518,-1.412834347560234,-0.024299883938607346,-0.8351314545120081,-0.23644418597975322,-0.6957911679505318,-0.10856005358906441,-0.10925324167974339,0.7986315831751045,-0.0866243351932457,0.005547546013113907,-0.10451768331560948,-0.4773343619492815,-0.14997503014831323,-0.5042569138283508,0.9588227143849797,-0.9111268221093803,0.8437515513270268,0.3544804937223268,-0.5926109714088478,-0.8669919557553413,0.09520635877742974,0.6356623703417249,0.13108668463322656,0.6902475897280724,0.5806134893753423,-0.33620595194351954,0.7314867474579384,0.029975478716796778,0.07601421814922267,0.25342078484962693,-0.3927637882063756,0.6720608358289887,0.5725888069451726,-0.0936945812298049,-0.9532016603213894,-0.5603342235946439,0.32118158940263697,-0.6590530080014574,-0.0645149231458282,0.37474491067491567,-0.7431981166993056,0.2400031570716033,0.48469124532957836,0.8943925177799207,0.17082313023907153,-0.8940207086316885,0.27579237509961635,-0.07388614889599797,-0.152587333542186,0.6200965475245671,0.7706225362984708,0.5730999545903402,-0.4600170025657106,-0.6939035495932155,-0.6646833617447725,0.2394470737742503,-0.14027447287738729,-1.1962132743408886,-0.14642581438417457,-1.1565260037381124,-0.23285248910353104,0.1255618052590821,-0.09557533966105582,-0.3852965590686234,-0.9149230381096028,0.4854385995064875,0.09628429264713073,0.28522185114870485,-0.5263077982405752,0.5467168519244953,-0.49661871277979897,0.44035573167359954,-0.6549398285219558,-0.6259569597250468,0.6444066164906057,-0.036738473066517625,-0.40320335042350586,0.9599021291212171,-0.5377488034514195,0.6501087773272148,-0.8297613338112616,0.1996698442639113,-0.1794614319083907,-0.3578171157705208,-0.03948862119906948,-0.7736398195922591,-0.8412100044365749,0.6010381097463849,0.0065212192275349735,0.331878802346049,-0.007099948521154331,0.5764396727903657,1.0515644301179854,-0.7994960220532199,-0.7185875720551534,0.2307704472233747,-0.20390058376994508,-0.8248116517280417,0.49706252599915535,0.1946891734425078,0.6764070584537492,0.7353426330725797,-0.6374523112370507,-0.4714018912072327,0.6554347871520703,-0.9959829155542324,-0.24415152610432345,0.7569176192735538,1.202338914756699,-0.7935971808021122,-0.9049988615088878,0.6991958961810726,-1.052831523852862,-0.29642323953140565,-0.17185534074998604,0.5968647697902557,0.5647221375358874,0.9118992438969724,0.30011984959077664,-0.4168088312389365,0.6254937998188833,-0.9006770355375413,-0.37952458788522153,0.4482493177068854,0.5603106545158429,-0.17738421988695327,-0.2781793277468258,-0.06947782936339386,0.4100375902401835,0.45183835956296386,0.4764428215629634,-0.32294064418298307,0.008492955193000728,-0.21639914479599143,-0.2813347450539167,-0.7108890857066823,-0.5114372353961686,0.8040319527167166,-0.4555298131556026,-0.47795171046855006,0.7779251581429975,-0.40187544566167416,-0.25651519882392837,-0.6521781589588862,0.649753593279587,-1.0642098538361244,0.4167162267712779,0.6238734781620026,0.19076942436707026,0.5731921015686456,-0.9930255015983078,-0.019852404701179473,-0.47722075918334006,-0.7136191740664349,0.665572850785774,0.671577283468347,-0.14910916341051145,-0.5500028581624957,0.485222718277133,-0.37215436563666426,-0.4683280433549641,-1.0468669920954037,-0.8657601169095185,0.6458985240951585,0.3808893709320572,-0.16515924017193062,-0.3465302870397305,0.11874834447332366,-0.6590069612652982,0.41010972483051544,-0.38694817526564834,0.3112831234357777,-0.1841296948216848,0.6578797669884082,0.09764594794085898,-0.7525063081231209,-0.2487005251114549,0.25198117240018264,-0.3694120111769664,-0.8637167421718425,0.2729605332674083,-0.38962828829291424,0.02930321662153565,-0.6058013447329961,0.48245619259724914,0.24979550132527317,0.3154004890621204,0.7821380594828959,-0.19229771276389146,0.05482687270189634,-0.32504712005116415,0.3922193795296412,0.4392081773073922,0.24555194996217947,0.5575510768143163,0.3926489332701788,-0.09559747303787439,0.0025769490230842804,-0.37363163080138767,-0.284679380187217,0.03616662668663828,0.27651435788944695,-0.9772140312188788,-0.9601816253745094,0.10776568113216999,0.6834411267619499,0.4352488216281968,-0.3347267105026589,-0.7811954140459089,0.6812840676370419,-0.13771572087117678,-0.7910215712139376,0.07771207323443098,0.22811027638244524,0.7042677935251727,0.27923468170145915,0.47808885796148176,-0.014165259645972882,0.6165158122214268,-0.8175638958431233,0.8271549477652266,0.22709721072547784,-0.4793003633934827,-0.24143796756211192,0.51312344070681,-0.747265052322831,-0.6718675910071797,0.017543103380598533,-0.3554800112610793,0.46551372593885604,0.735633768012474,0.6243163030668142,0.678893639216982,0.4884930045393033,0.39953552178393525,-0.5642351751261568,-0.48830308085051116,0.46831713813681203,-0.6117877750629833,0.49434864694190983,-1.147504774141218,-0.7971899858159093,0.7959741030248615,-0.5616470251442276,-1.5731499809304201,-0.6625122331495569,0.4365852903987087,0.2533733870335475,-9.967844353297355E-4,-0.6896615887430892,-0.12401003163625367,0.6992816714372936,-0.5804112291655497,0.5433291743666104,-1.3295812053079155,0.15202826511026052,0.3649200258417468,0.17733906296066163,0.22585550066020976,-0.42913554468375376,-1.0430847990446266,-0.4979092831745236,0.36647629091405615,-0.6761202237265995,-0.6727299506401164,0.18930909624681022,-0.07978646524856525,-0.9652495411383241,0.24102187299280325,-0.6484246387819499,0.034546429830610424,0.003663035524972491,0.2301951480131478,0.403755247812881,0.01812443085137813,0.38392334370052694,0.6500680083353344,0.07882328231203863,-0.9369958894493564,0.23771828587874738,-0.37189089693420885,0.6943356690614659,0.37815379960472867,0.27869231595687805,-0.5253626045399502,-0.24182460103941675,0.5951549266722767,-0.15741099393761315,0.22346528112935718,-0.024849740863603677,-1.2377980331686587,0.7807714663884185,-1.0987780811273569,-1.4193901728023925,-0.40389672093317286,-0.13125183382065603,-0.6486303500639327,0.1538467940242145,-0.6711107568185315,-1.0273009442497094,-0.7059942638467822,-0.7526723178220798,0.282476069183676,-0.5402227989851007,0.30496473791744777,0.14641893787029844,-0.7458862271988692,-0.8297859690152752,0.07761823105707309,-0.5139728304900291,-0.911956558305398,0.5774052071061363,-0.4094835230951165,-0.775450826136776,-0.0033083361744600612,-1.421543766951764,0.4009021263814559,-0.8505197890174444,0.6624317396776919,0.7301632201180916,-0.12485303995388192,0.9132013297427874,-0.6506355651052418,-0.44961237149527733,-0.2503657516175472,-0.10328069456891945,0.35359885496238,-0.6792428152524803,0.334689166234384,0.07973084499248068,-0.16714953183674716,0.0024917534277262916,-1.369397880197202,-0.1347076892131712,0.3783893111977354,0.23909473554785826,-0.9124395262441668,-0.29034503749113205,-0.16640509140609705,0.9061173411510216,0.808036134539407,-1.1850276317565371,-0.19844754970441364,-1.2236195459699415,-1.2728196277627866,-0.5975195708696625,-0.07871367423610662,0.03539425001054299,0.8890978067756213,-0.40966285433642236,-0.7111452125020004,0.40945872269818706,0.5953996735907368,-0.440661816805435,-0.30859943654798655,1.027090371830844,0.435398534303236,0.19521563888284332,0.2992941295274025,-0.7704018144879721,0.7100871625015036,0.05305318448188899,0.320727275183767,0.298357596628661,-1.134972807134131,-0.9213198063002126,-0.6373959636683617,0.16961975705802204,0.11743580553812485,-0.44928500603333843,-0.5768775596209988,-0.5939837085810314,-0.12306114620645577,0.3393022150186638,-0.17293192292277557,-0.8762945976600506,-0.41175666788392556,-0.2732442376011208,-0.5234485333892388,0.19324232715307824,0.10750986843744384,-0.017599176718236638,-0.4073481093038542,0.6408189200795679,-0.3938427735585388,-0.586475733749056,0.47489351318439355,0.7485017738167964,-0.5191505640137069,-0.1260958606068361,-0.10748431265952316,0.2876052332868222,-0.7623741586687955,0.5708775629037058,0.7425589588497189,-0.06260617331252724,-0.41021289441106845,0.3961805526109329,-0.6327562658705616,0.7536379089710433,-1.1323846588528037,0.06575415105683768,0.830152645858657,0.4993888360945423,0.3854449667548014,0.31759321169041027,0.45591137612051363,-0.3754552974898304,0.11185726916787607,-0.3589615381949338,0.3896787808230629,0.8718650857576903,-0.8835985617123032,0.5024738903073525,0.20001784565906672,-0.42777284959167877,0.3031525040908311,-0.947131053071301,-0.5046544692731665,-0.9859937716259046,0.10415238263344621,-0.049670116397400724,-0.7848002835815554,-0.6935635030187345,0.2317510358346824,-0.5686213207449144,0.5492747860967835,-1.033532961038577,0.08651229722753467,0.5845115186785018,-0.2730370755199919,-0.31853648370868576,0.5905514388724079,-0.33328238809475763,0.3272884646553743,-0.48753230847266565,0.07190243884512205,0.4546523511998938,-0.5407836401690387,0.7308226506602662,0.8872114678836454,-0.2080602477768149,-0.1457540465098732,0.739677924135596,-0.08762515930585092,0.11072782777245484,-0.4378289647449075,-0.1608392567953169,0.18448730050057097,-0.03133359506988912,-1.0336358376138308,0.4567940967769042,-0.8270552255164383,-0.08623854003817656,0.12664628927615118,-0.5057996516379448,-0.8829733574889439,-0.5797580252762905,-0.09119784336415847,-0.34959371811866197,-0.601138122142206,-0.3739079689292168,-0.8185595216148125,0.5071435699085908,0.3459817103326516,0.2320100572106696,0.5244963771121794,-0.4217395209072771,-0.39320832219436463,-0.6415756189440149,-0.7723119772509897,0.0879242836017225,0.050581397706752296,0.037504978073050574,-0.08792203082213439,0.5659712240239838,0.27082347030300763,-0.8902643099281278,-0.46219847380832363,-0.7489079213103291,0.23196008119112999,0.46889445576483774,-0.30839381432298113,0.25797665906378614,0.3324330469405971,-0.8241278176398449,-0.6638963633210262,0.7784039551274364,-1.0736958813126762,-0.20105399366499316,0.6043335368845789,0.5400991520359887,0.6056517056233812,0.6354796501629503,-0.45843459194548747,-0.43789886803792905,0.4672038138790477,0.5495294012765285,-0.7725331611503515,0.10885570110319695,-1.6759904066720104,0.20218949603904995,-0.8067616263939006,0.37939616658474323,0.47360509879212653,-0.8882346754117624,-0.2530904115974834,0.7292631749218227,-0.5111176791054977,-0.6151515249122184,-0.11256051268468549,-0.5977840803993191,-0.8447036174182875,-0.01475447524067002,-0.38864128211171367,-0.511546411535224,-0.05950897852430796,-0.4527354333383578,0.035476879040953285,0.5037468663269171,-0.24490372677026714,0.2952162365531013,-0.4419884539303262,-0.22473829213999852,0.4201805978301012,-0.8357373919534239,-0.11849275475354538,-0.7149764211796545,0.5655154946961733,-0.8476524986363816,0.1793789493868668,0.05472149295687667,-0.8647742026793591,-0.9366330350494878,0.4164384771866691,0.10711280800272577,-0.40880115956854807,0.4287957976782051,0.35976090499896146,-0.8177299628199235,0.7038645091554087,0.4279719755987117,-0.9185072836674377,0.5771204016191839,-0.39967475904711025,-0.42014580762054243,-0.13726451801012837,-0.48323558537397326,0.5168354992325672,-0.600914150769949,0.16379078919997275,-0.7956651888582916,-0.9023871635630546,-0.9016335916682946,-1.0368147742525775,0.3055598162682879,-0.9619514582891908,0.9197586387780896,0.4651551538002474,-0.6710121218975211,-1.012257096664206,-0.9603202000656019,0.7145906879073837,0.11167829287309292,-0.039544010145495474,-0.9503345674869326,0.5334143500258671,-0.25276948823479867,-1.1956963008858685,-0.7232067183636189,0.05072655214745628,0.6190838418996654,-0.202176825799375,-0.9855932683961443,0.5335121453233407,-1.171346486019468,1.0369390960052396,0.9698925962473847,-0.9192910587816178,-0.6087569672346752,-0.654986142018772,-0.4627814582814455,-0.6947124871139276,0.22245964666264492,0.45820322030682653,0.18672270362509505,0.10170089870646631,0.27609729730607374,-0.5435117789643603,0.546246751947374,0.48873734743002667,-1.3422006733403185,-0.6387012439211074,-0.6911015902779077,0.5717286714783011,0.4251910860640604,-0.6176147804424537,-0.6799137644158151,-0.8263781675138432,-1.4598263704001975,0.2763542894136489,0.39363630949350253,0.2892613439229584,-0.974634161139796,-0.36399026956563085,-0.4614795958817117,0.020015871894861828,0.35675353099438367,0.45226452828710534,-0.2567699507613515,-0.6683958225930884,-0.9304400180082624,-0.2285194955401585,-0.1645212578872669,0.39226030415975455,0.003025914287073111,-1.17432426562529,-0.25485398296118333,-0.0827129352598677,0.601907626505419,-0.18123200654494626,-0.2118154457613117,-0.06608295651380912,-0.712714258491588,0.15916532762505348,-0.7319614717797783,0.16082088720742968,-0.6226906129336183,-0.9280248484984405,-0.6526673924491059,-0.32048641036221454,0.40463130252429275,-0.4114096419844024,-0.21779187802480057,-0.6744804828393107,-0.963136551967389,-0.5188545164528918,-0.4645357465462549,0.37063299624061097,0.178829908509406,0.6179916497895159,0.5843691536534329,-0.07620220359066306,0.7038214916895235,0.5433214643153402,0.23497751303383885,-0.8084034181680106,-0.10190199882422822,-1.3343672424186352,-0.4434654204753223,0.07798697070593327,-0.2547130300606155,0.35195561933588876,0.3237887393810817,-0.699350200667596,0.45411231672469793,0.1922235082361307,0.717004359781597,-1.3133128801045049,0.2600760465258526,0.3701051985066945,-0.12675857613574776,-0.702037869013802,-0.5688225554367035,0.5947763569090301,-1.0055242707863916,-0.8548701799834566,0.27003177321072014,-0.25505536106976223,-1.8474959217567226,0.2601417910234143,-0.1386083741650624,0.0742658150145258,0.013363371572647276,0.5612861827360249,0.22329506985870928,0.0755944541653282,-0.24541685610408698,0.6200895061774717,-0.484798632583712,-0.15193348736271314,0.5943696010464696,-0.4550250109487508,-0.8451306975959975,0.12140062566887612,-0.9053478038338673,-0.0842608307380961,-0.2211407758153402,0.48088432343438625,-0.372789738953407,-0.6837592356986782,0.5969617164305574,-0.6664274231894082,-0.13880146820611555,-0.6108883338418541,-0.23658423503859288,0.26587156203169426,-0.05752846704785866,-0.6656435927981927,-0.8104886964634911,-0.8384916948272562,-0.5475974733218177,-0.6916388572562393,